-0.007970
0.009067
0.015894
0.018084
0.000304
-0.004422
0.003725
0.003718
0.001234
-0.007923
0.012045
0.013255
0.014967
0.026606
-0.005354
0.009751
-0.011929
0.003597
0.017214
-0.010950
-0.015778
-0.001398
0.004674
0.001283
0.002709
0.012191
0.011879
-0.000339
-0.001548
-0.031339
-0.024258
-0.027575
0.000370
-0.045144
-0.007224
0.012746
-0.008365
-0.016118
-0.010922
-0.012865
-0.009031
0.004938
-0.022432
0.004070
0.015022
0.029236
0.030947
0.012417
0.036047
0.006663
0.018417
0.005757
0.009348
0.006799
0.017412
-0.008192
-0.018244
0.009643
-0.007814
0.007345
-0.008170
0.002655
0.004721
0.002554
0.000408
-0.004231
-0.001546
0.019864
0.008839
-0.003030
0.002674
0.001369
0.024788
-0.002418
-0.023796
-0.013706
-0.021765
-0.016527
-0.017963
0.006749
-0.001902
-0.003007
0.012932
0.006829
-0.012207
0.013301
0.005106
-0.010871
-0.005615
0.000098
0.006238
0.025637
0.015497
0.027270
0.018258
-0.001620
0.024156
0.004177
-0.002350
0.027175
0.062642
0.012660
0.067886
0.030958
0.003397
0.031011
0.001449
0.006728
-0.008780
-0.015155
-0.016690
-0.003969
-0.001606
0.003275
0.006997
-0.007563
-0.008586
-0.002072
0.002343
-0.003700
-0.005004
0.003572
0.006225
-0.008932
0.009087
-0.007702
0.016946
0.010863
-0.006675
0.027483
0.025353
0.008520
0.034072
0.017890
0.012981
-0.016199
-0.021843
-0.007748
-0.028150
-0.017053
0.001036
-0.009974
0.014195
0.004929
0.009714
-0.029402
-0.010800
-0.006700
-0.016942
-0.016210
0.006232
0.003360
0.007088
-0.002475
0.012985
-0.017658
0.028953
0.015079
-0.005995
0.002250
-0.013386
-0.004234
-0.021998
-0.055664
-0.023477
-0.055464
-0.028944
0.007436
-0.015797
0.007677
0.001821
-0.024932
-0.040437
-0.008968
-0.026275
-0.016748
0.004684
-0.014139
0.008746
0.011966
-0.006654
-0.032061
-0.036356
0.005754
0.015696
0.028031
0.024263
0.014037
0.006241
-0.011452
-0.013288
-0.019016
-0.015679
-0.018175
-0.005773
0.003423
-0.010648
0.008276
-0.029720
-0.044336
-0.046342
-0.060131
-0.065615
-0.035783
-0.027061
-0.010503
-0.018086
0.007297
-0.015342
0.020099
0.050910
0.017797
-0.017132
0.033245
-0.013536
0.002503
0.014160
0.011924
0.001515
0.025365
0.003877
-0.001849
-0.008745
-0.006740
-0.016926
-0.051946
0.017284
0.006793
0.001630
0.017476
-0.036294
-0.002676
-0.014568
-0.036134
-0.017014
0.000808
0.032228
-0.022639
0.014471
-0.004292
-0.003613
0.007401
-0.029242
-0.033053
-0.037450
-0.036513
-0.013636
0.002609
0.003504
-0.004293
0.002257
0.015639
-0.030796
-0.036348
-0.010528
-0.025919
-0.031732
-0.018133
-0.032353
-0.021344
-0.013842
0.014051
0.040855
0.042197
0.017984
0.000087
0.002495
-0.005446
-0.003498
-0.005053
0.003831
-0.003387
-0.005597
0.004199
-0.003141
0.000029
-0.016961
-0.017869
0.006596
-0.027939
-0.032066
-0.033263
-0.052583
-0.030940
-0.004218
-0.036420
-0.000653
-0.001908
0.001868
-0.012799
-0.013828
-0.008632
-0.012950
-0.003324
-0.010545
0.001368
-0.005456
0.014241
0.009406
-0.005914
0.026322
-0.008709
0.004090
0.004211
-0.010514
0.009621
0.041229
-0.005522
-0.028472
0.015660
-0.006739
0.005054
0.020348
-0.001685
-0.025014
-0.014307
-0.007887
-0.035905
-0.010022
-0.003195
0.007548
-0.018217
0.005964
-0.003000
-0.012458
-0.025862
0.012369
-0.022326
-0.000851
0.006318
-0.002590
0.010102
0.000421
0.013983
-0.015984
-0.002322
0.019715
0.004194
0.013358
-0.005470
0.000922
0.007747
0.023924
-0.002703
-0.013467
0.026635
0.012766
0.013129
-0.005102
-0.012460
0.000801
0.014857
0.010970
-0.012276
0.015799
0.001123
-0.017844
0.004411
-0.006336
-0.008018
0.014007
0.013365
0.016935
0.014291
0.021430
0.002339
0.020272
-0.001073
-0.011040
0.007991
-0.008180
-0.009687
0.007450
0.013896
0.019834
-0.009361
-0.012381
-0.014223
0.011043
0.015972
0.005940
0.023082
-0.002873
0.000095
-0.007265
-0.014900
-0.008567
-0.052400
-0.125747
-0.063627
-0.153485
-0.163979
-0.047232
-0.096151
-0.046605
0.011346
0.010700
0.019725
-0.000953
0.025278
0.010518
0.005375
0.022804
-0.003876
0.005459
0.008446
0.031259
-0.004488
0.021562
-0.001704
-0.021421
-0.010609
-0.008821
-0.008748
0.011811
0.012639
0.012638
0.050717
-0.011227
0.012250
0.025046
-0.000775
0.012912
0.018453
-0.040924
-0.031524
-0.054270
-0.059182
0.011780
-0.065322
-0.006717
0.028508
0.022245
0.025157
0.003674
-0.003075
-0.012101
-0.002858
-0.022613
0.003899
0.011113
-0.040639
-0.036442
-0.020203
-0.058418
-0.021137
-0.003076
-0.019116
0.008199
-0.002625
0.014029
0.048496
0.002170
0.041454
0.044847
-0.005304
-0.007691
-0.002696
-0.030517
0.024439
0.033409
0.018790
0.015840
0.013010
0.022344
-0.000223
0.010498
0.018271
0.000175
-0.002028
0.006112
-0.042754
-0.000493
-0.003213
-0.018662
0.015745
-0.014237
-0.000800
0.009009
0.039006
0.008738
0.016280
0.001993
-0.004385
-0.000986
0.000288
-0.006289
-0.025519
-0.005731
-0.017185
-0.001443
-0.004391
-0.013417
-0.001889
0.000140
0.021475
0.020728
-0.012784
0.008029
0.002030
-0.011149
-0.029418
0.008278
0.001890
-0.022898
-0.004893
-0.016628
-0.014046
-0.022044
-0.014467
-0.015471
-0.006322
-0.010485
0.018459
0.000859
0.001715
-0.005571
0.007164
0.021797
-0.006271
0.007510
0.022876
0.005451
0.006933
0.002400
0.006816
0.006958
0.001195
-0.000619
-0.003170
0.001921
0.010553
0.007755
0.014563
-0.007356
0.018668
0.011875
-0.011385
0.003486
0.006407
-0.000824
0.013437
-0.009627
0.011492
-0.002285
-0.012689
-0.004658
-0.004896
-0.001857
0.011564
0.067531
0.040915
0.081144
0.076599
0.045430
0.077036
0.033516
0.010452
0.005883
0.001428
-0.020923
0.010788
-0.015550
-0.005521
-0.018277
-0.016143
-0.006284
-0.013705
-0.040003
-0.045038
-0.054921
-0.054763
-0.032280
-0.065842
-0.019214
0.005664
0.007742
-0.014587
-0.003917
-0.012108
-0.031582
0.026251
-0.018070
0.020977
0.018120
0.010707
0.001102
0.010249
-0.008425
-0.005954
0.017259
-0.024712
0.018595
0.012428
0.009117
-0.013386
0.012490
-0.007856
-0.019316
0.019572
-0.009088
0.003759
0.010745
-0.024998
-0.069051
0.053584
-0.060871
-0.004520
0.029841
-0.040588
0.063482
-0.028548
-0.010718
-0.014842
0.015275
-0.003144
-0.001871
-0.000099
-0.010123
0.011004
-0.025373
-0.031190
-0.062352
0.035564
-0.063793
0.013833
0.069401
-0.033442
0.060587
0.014981
-0.012209
-0.029840
0.011415
-0.003775
-0.007872
0.021330
-0.009315
0.000978
-0.024568
0.001607
-0.005769
0.000907
-0.000996
-0.016421
0.008152
0.005789
0.024967
0.025972
-0.007976
-0.025028
-0.052319
-0.031694
-0.009440
0.001663
0.020326
-0.013247
0.006167
0.014865
0.015046
-0.003760
0.020186
-0.022526
-0.009826
-0.018892
0.002071
0.013347
-0.004038
-0.029234
0.008029
-0.019470
-0.003858
0.031706
0.004385
0.017617
0.016282
0.004653
-0.122374
0.017326
-0.052908
-0.116531
0.089918
-0.080725
0.069866
0.011496
-0.005632
-0.006553
0.000430
-0.015443
-0.004465
0.003268
-0.009375
0.029034
-0.003128
0.014467
0.018137
0.010313
0.013519
0.000229
-0.006585
0.006027
-0.000472
0.004412
-0.021417
-0.043979
0.029944
-0.037789
-0.027663
0.039505
-0.029392
0.017654
0.019476
-0.001523
0.008475
0.009945
0.005141
-0.022182
-0.024375
-0.018228
-0.008684
-0.004662
0.006431
0.010815
0.009814
0.007022
0.026773
-0.017969
0.007447
0.004593
-0.024969
-0.029062
-0.032215
0.039538
-0.046257
-0.004082
0.042167
-0.027302
0.069166
-0.008626
0.021244
0.008937
0.002636
0.025026
-0.012239
-0.015542
0.002447
-0.030666
-0.015939
0.026386
0.023290
-0.012490
0.031951
-0.031820
-0.025465
-0.007760
-0.050936
-0.010447
-0.014011
-0.086377
0.005229
-0.036990
-0.043120
0.064729
-0.045272
0.044526
0.022107
0.020603
-0.002731
-0.001610
0.000690
-0.005546
0.005465
0.009275
0.004853
0.002391
0.009805
0.004512
0.009042
0.006653
0.024126
0.002937
-0.007946
0.018465
-0.015656
0.002341
0.013233
-0.028172
-0.011254
-0.021571
0.010740
-0.036697
0.014794
0.008771
-0.019205
0.000560
0.023850
-0.012224
0.002310
0.020284
-0.001834
0.016209
-0.010430
0.031593
0.032846
-0.060304
0.021511
0.018238
-0.042976
0.023922
-0.047219
-0.016874
0.001743
0.011331
-0.035503
0.015338
-0.041297
-0.001826
-0.006517
-0.011368
0.013706
-0.001987
-0.036290
0.047638
-0.035157
0.047660
0.025166
-0.017781
0.047940
-0.005542
0.007249
-0.004254
-0.029127
0.006759
-0.014280
-0.031972
0.006118
-0.021983
-0.017340
-0.017911
0.022723
-0.000494
0.015282
0.047832
-0.041374
0.016874
-0.012878
-0.026677
-0.002285
-0.010162
0.011198
-0.029215
0.021959
-0.017580
-0.002371
0.017394
-0.023487
0.008143
-0.011389
-0.029532
0.012497
-0.018233
-0.048089
0.009857
-0.035381
-0.032879
0.008941
-0.000080
-0.015895
-0.011003
0.016800
-0.016832
0.009505
0.007637
0.003326
0.013446
-0.007100
0.006447
0.013192
0.005041
0.015539
-0.012477
0.022126
-0.005400
-0.077513
-0.032557
0.033797
-0.019470
0.037711
0.071248
-0.038108
0.051096
-0.007939
0.032386
-0.019840
-0.023270
0.018195
-0.050400
-0.019939
-0.007546
-0.016051
-0.030234
-0.001466
0.016271
-0.027455
0.015788
-0.014289
-0.042728
0.001912
-0.046079
0.001797
-0.013902
-0.054794
0.042742
-0.032604
0.022983
0.023187
-0.021361
0.054341
-0.024553
-0.006092
-0.034680
-0.040231
-0.004540
-0.077066
0.033187
-0.027544
0.020416
0.057671
0.002576
-0.024771
0.012163
-0.033927
0.043668
0.025471
0.013661
-0.005081
0.009048
-0.022495
-0.024205
0.021667
-0.025206
0.018595
0.010906
-0.002074
0.020986
-0.003322
0.003768
-0.028420
0.020178
-0.013636
-0.030298
0.020598
-0.019199
0.015542
0.003755
-0.003007
-0.015604
-0.001373
0.007837
-0.018336
0.011429
-0.010481
0.011289
0.007801
0.019202
0.080648
-0.030100
0.052876
0.038574
-0.153853
0.060193
-0.105772
-0.047175
-0.010620
-0.022866
0.034845
-0.035083
0.055796
0.028514
0.009427
0.022209
0.006775
0.017174
-0.026333
0.030639
-0.013969
-0.010739
0.002156
-0.006314
0.032571
-0.012835
-0.020990
-0.023847
0.014502
-0.033795
-0.007898
0.085622
-0.018637
0.048108
0.000516
-0.018568
0.017454
-0.000720
0.009782
0.039444
-0.057061
0.032530
-0.021912
-0.007897
0.020028
-0.035907
-0.008758
-0.011517
-0.045059
0.035171
-0.014078
0.008967
0.002856
0.014033
0.033195
-0.031923
0.026522
0.005372
-0.022341
0.020843
-0.026261
-0.005717
0.041043
-0.009394
-0.000664
0.022308
-0.019418
0.020370
0.030758
-0.012483
0.002100
0.007156
-0.022263
-0.031467
-0.005936
-0.027889
-0.007983
-0.010116
-0.007526
-0.007860
-0.016197
0.055320
-0.031672
0.031752
0.009285
-0.069085
0.032531
-0.070262
0.027957
-0.010061
-0.035737
-0.023002
-0.013853
-0.044684
0.027016
-0.019064
-0.005985
0.033858
0.002998
-0.026347
-0.025875
0.002575
-0.023033
-0.026094
-0.015857
-0.007158
-0.023722
0.013039
-0.003143
-0.008689
0.004474
-0.021501
-0.015526
0.034720
-0.026575
-0.007660
0.008866
0.016318
-0.007677
0.025409
0.009103
-0.036546
0.005038
-0.038377
-0.024610
0.001663
0.019957
-0.003328
0.012918
0.023512
-0.020565
0.023806
-0.005164
-0.013328
0.002127
-0.012153
0.006777
-0.002386
-0.009233
0.007979
0.002968
0.004694
0.009358
0.008332
0.016025
0.000525
0.000993
0.009604
0.005512
0.003960
-0.004622
0.005365
-0.032531
-0.043346
0.017228
-0.039508
0.010171
0.054166
-0.022630
0.045659
0.004865
0.016629
-0.024176
0.001080
0.020671
-0.032541
0.050005
-0.038471
0.011134
0.006805
-0.002680
-0.013625
-0.001114
-0.002958
-0.009564
0.020860
-0.006670
0.011635
-0.019300
-0.012218
0.011005
-0.024574
0.011277
0.023867
-0.050824
-0.005931
-0.043370
-0.045016
-0.002264
0.014666
0.018410
-0.036188
-0.020137
0.004010
-0.021776
-0.013510
0.017834
0.001348
0.007808
0.008174
0.000691
-0.012127
-0.000918
0.011630
0.001758
-0.005136
-0.009969
0.027232
0.006438
0.002995
0.003363
0.007151
-0.005677
-0.012081
-0.005942
-0.005772
-0.018531
0.010889
-0.019962
-0.041437
-0.012886
-0.003919
0.000955
-0.014840
0.014385
0.058032
0.067254
-0.082782
-0.004198
0.041101
-0.087387
-0.056133
-0.023605
0.012040
0.033640
0.008880
0.012999
0.029265
0.017380
0.007994
0.012785
0.011231
-0.003326
-0.008803
-0.006259
0.001095
-0.007099
-0.005332
-0.005744
-0.001625
-0.000353
0.010448
0.019110
-0.002907
0.014146
0.029786
-0.002987
-0.021528
0.004299
-0.000352
-0.002291
-0.008873
0.007749
0.001309
-0.013654
-0.017730
-0.006127
-0.002957
-0.008759
0.004374
0.020134
0.049626
0.001210
-0.003250
-0.000366
0.015993
0.025239
0.012857
0.020997
0.010756
-0.000757
-0.001008
0.010207
0.019571
-0.009483
-0.000076
0.003507
0.027574
0.004659
0.017887
-0.008247
-0.005644
-0.000606
-0.001240
0.002943
-0.002426
0.005183
-0.010941
-0.026802
-0.031448
0.007508
-0.005758
-0.046461
-0.019072
-0.013230
-0.005961
0.003611
0.002797
-0.000393
0.004039
0.005059
-0.005219
-0.002363
-0.002165
0.015524
0.016991
0.012803
0.002670
0.013956
0.000554
-0.009272
0.004195
-0.009183
-0.003068
0.005047
0.000681
0.003168
-0.003228
-0.003352
-0.004028
0.011034
0.006097
0.007235
0.005494
-0.000526
-0.000749
0.002345
0.005801
0.001427
-0.006543
-0.004898
-0.005088
0.003192
-0.010245
-0.001874
-0.003699
-0.005199
0.003356
0.004372
0.001892
-0.006713
0.006749
-0.003090
0.001609
-0.003428
-0.005950
-0.009727
-0.002302
0.002952
0.000682
0.005472
-0.006177
-0.011723
0.010800
-0.007880
-0.002656
-0.011371
-0.000193
0.014027
0.021446
0.014650
0.000423
0.015725
0.014548
-0.014732
-0.000877
0.011235
-0.005637
0.011694
0.018748
-0.001648
0.000696
0.010503
-0.002192
0.009123
-0.001777
0.007185
-0.016655
-0.013480
0.002085
0.000352
-0.004463
-0.004138
-0.004391
-0.002063
-0.005978
-0.010172
-0.005774
0.000979
-0.013042
-0.006707
0.002837
-0.004104
-0.004707
-0.001136
-0.009003
-0.016673
0.000068
-0.016779
-0.013109
0.014002
0.026305
-0.015459
-0.028905
0.013625
0.054602
-0.043482
-0.017927
0.005852
-0.050503
-0.032059
-0.011356
-0.000442
-0.003218
0.010502
0.016378
0.012403
0.009881
0.003344
0.006413
-0.003053
0.004603
-0.010946
-0.004360
-0.003916
-0.007542
0.002374
0.002469
0.007880
0.000124
-0.004934
-0.014427
-0.008344
-0.004476
0.001445
-0.015872
-0.004769
0.003170
-0.011271
0.003656
-0.017615
-0.024091
0.023159
-0.011010
-0.005141
0.023344
0.005704
0.012357
-0.023365
-0.043874
-0.052863
0.003949
-0.021463
-0.038677
0.019575
0.025491
0.017443
0.058637
0.055491
0.043688
0.049328
0.070335
0.066637
0.035974
0.030589
0.022250
-0.014189
-0.028921
-0.017686
0.000558
-0.016142
-0.021798
-0.005892
0.000147
-0.005561
-0.008054
-0.023665
0.011530
-0.010109
-0.069143
-0.034902
-0.007646
-0.015997
-0.027235
-0.004779
-0.004950
-0.000682
-0.008691
-0.011556
-0.005426
-0.007301
-0.002307
-0.000429
-0.020751
-0.036809
-0.036819
-0.024466
-0.029727
-0.043310
-0.012961
-0.017884
-0.018887
0.007242
-0.000318
-0.007681
0.003605
0.008249
0.024848
0.011762
0.001100
0.004424
-0.026668
-0.013062
0.004949
0.000106
-0.025159
-0.008517
-0.001526
-0.004366
-0.011638
-0.011888
-0.021277
-0.002460
0.004940
-0.047137
-0.011335
0.012083
-0.015689
-0.012391
0.058627
0.019029
-0.001564
0.058419
0.051929
0.019142
-0.018477
-0.003180
0.021272
0.005788
0.005705
-0.010053
-0.034937
-0.023289
-0.018336
-0.048544
-0.049210
-0.014473
-0.002255
-0.009534
0.017672
0.012239
-0.002621
-0.007766
-0.000094
0.001955
-0.002252
0.042296
0.010372
-0.006646
0.020010
0.066305
0.014307
-0.036626
-0.008155
0.008520
-0.001879
-0.023272
-0.005222
0.003455
-0.002578
-0.011939
-0.008961
-0.007947
0.008604
0.101216
0.083676
0.015051
0.045718
0.123124
0.101832
0.024082
0.060001
0.093275
0.004038
0.007724
0.008995
-0.010943
0.001739
0.026964
0.015876
0.003092
0.001792
0.012645
-0.019848
-0.020702
0.008833
-0.022281
-0.023160
0.029805
-0.002727
-0.000129
-0.014777
-0.019840
-0.016331
0.028142
-0.020984
-0.020395
0.004760
0.013973
-0.010258
0.007556
-0.000855
-0.005350
0.002711
-0.009379
-0.001446
0.002480
-0.005431
-0.003895
0.010326
-0.001518
-0.011283
0.009957
-0.007954
-0.004211
0.003671
-0.003320
-0.014474
0.025169
-0.002634
-0.002576
0.009887
-0.015450
-0.022636
0.019396
0.036514
0.019175
-0.007061
0.003424
0.015433
0.002284
-0.002624
0.011325
-0.006350
-0.004259
-0.004559
-0.008044
-0.007915
-0.002098
-0.003146
-0.000667
0.001901
0.011348
0.000928
-0.009663
-0.001243
-0.005644
0.061815
0.021610
-0.015706
0.015952
0.021501
0.018887
0.016982
0.007679
0.019406
0.015890
0.020466
-0.006497
0.008496
0.029879
0.002358
0.017531
-0.009509
0.001064
-0.000561
-0.004602
-0.003377
0.010179
-0.000288
-0.001824
0.007685
0.003522
-0.004320
0.020487
0.003045
-0.034190
-0.005965
0.003686
0.014825
0.002020
0.003468
-0.005737
-0.004997
0.003732
0.007761
0.019378
-0.009651
-0.003361
0.000121
0.007340
-0.004187
-0.000865
0.009530
0.009086
-0.006212
0.005490
0.000494
0.004758
0.009919
0.002304
0.001706
0.005075
0.006583
0.009464
0.010846
0.001323
0.005038
-0.098628
-0.115435
-0.088732
-0.070706
-0.093805
-0.100379
-0.027018
-0.021260
-0.072447
-0.011721
-0.002066
-0.001130
-0.002950
-0.000785
-0.004209
0.003732
-0.009966
0.007168
-0.009655
0.038770
0.066576
-0.044376
-0.007462
0.025766
-0.068715
-0.051813
-0.006182
0.013485
0.004450
-0.003694
0.000378
0.014904
-0.002091
-0.004550
0.007974
0.007509
-0.012723
-0.006844
-0.006960
0.016083
0.015683
0.014511
-0.004283
0.010736
0.001080
0.005040
0.006330
0.013254
0.012892
-0.000671
0.034463
-0.016572
-0.001809
0.020763
0.023613
0.002825
0.020923
-0.002264
0.030862
0.015197
0.025045
0.008443
0.043390
-0.021188
-0.033516
-0.010896
-0.023649
-0.001414
-0.025738
-0.029349
-0.067884
-0.035697
-0.011380
0.022410
0.010159
0.007089
-0.029976
0.005218
0.001424
0.008064
0.002389
0.028607
0.026965
0.016198
0.004943
0.005154
0.021296
-0.013586
0.013831
0.017286
-0.071333
-0.124487
-0.075974
-0.090138
-0.113674
-0.097186
-0.071042
-0.101879
-0.083177
0.021932
0.004293
0.034181
0.023595
0.004093
0.005795
0.004725
0.015138
0.011468
-0.023977
-0.012817
-0.026408
-0.027820
-0.039913
-0.014668
-0.004519
-0.025949
-0.017716
0.008081
0.059663
0.028095
0.008218
-0.016592
-0.013836
-0.004944
-0.004429
-0.000824
-0.009019
0.029068
0.019963
0.041099
0.002818
0.027214
-0.011524
0.013289
0.006757
0.032929
-0.000953
-0.014544
-0.023413
-0.020529
0.005454
0.003360
-0.007613
0.007818
0.010478
0.014241
0.017390
0.027428
0.059996
0.021978
0.015752
0.000877
0.017760
-0.002459
0.017527
0.015630
0.011869
0.046003
0.033662
0.004620
0.006912
0.012089
0.047565
0.041785
0.028152
0.009189
0.012744
0.050260
0.045249
0.020669
0.026880
0.000964
-0.007728
0.018792
-0.022355
-0.025191
-0.000319
-0.016591
-0.021587
-0.009412
0.006252
0.022632
0.003171
0.023000
0.028906
0.024805
0.001635
0.008329
0.008561
0.024201
-0.013020
-0.003953
0.017269
-0.000022
0.012380
0.023353
-0.002176
-0.025819
0.011180
0.000117
-0.010921
-0.002734
-0.012389
0.010167
-0.017367
-0.009734
-0.009460
0.004265
0.008431
0.021145
0.021817
0.012318
0.018289
0.010982
0.023595
0.015540
0.007971
0.037914
0.011896
-0.004854
0.058875
0.012318
-0.017881
0.031572
-0.007939
-0.020648
0.036116
-0.020879
-0.014543
0.035340
-0.011508
-0.032282
-0.002924
-0.020502
-0.000556
0.000136
0.002961
0.022272
0.016605
-0.011637
0.008287
0.001293
0.002932
-0.001653
0.047245
-0.005664
-0.004348
-0.017865
0.006114
0.003329
-0.004185
0.000684
0.004346
0.031090
0.010649
0.000142
-0.003593
0.008593
0.008266
0.003279
0.013563
-0.026732
0.005494
-0.018297
-0.018799
-0.047405
-0.032281
-0.025033
-0.013158
-0.045250
-0.024800
0.011551
-0.017854
-0.005290
-0.005798
-0.004565
-0.022254
-0.004145
-0.015061
0.032042
-0.021571
-0.017048
-0.005282
-0.021929
-0.018852
-0.005986
-0.017297
-0.017828
-0.007553
0.007101
0.023533
0.007221
0.006000
0.002767
0.015097
-0.002291
0.004406
0.000274
-0.046998
-0.042497
-0.024248
-0.038674
-0.041701
-0.007312
-0.024819
-0.014847
0.009108
-0.028407
-0.003350
-0.020225
-0.027309
-0.019505
0.000539
-0.017188
-0.012787
0.008897
0.019020
0.007671
0.019845
0.023665
-0.005431
0.029369
0.004761
0.010365
-0.025293
-0.043817
-0.033055
-0.021956
-0.028623
-0.036470
-0.003229
-0.030804
-0.020840
0.004958
-0.022192
-0.015029
-0.001530
0.047788
-0.000596
0.034630
0.016483
0.010579
-0.007106
-0.016048
-0.015230
-0.008537
-0.026190
-0.022551
-0.015521
-0.019220
-0.018068
-0.048797
-0.001638
-0.013533
-0.015288
0.032823
0.006566
-0.017963
0.021866
-0.021124
-0.050067
-0.138829
-0.072508
-0.104150
-0.166178
-0.115897
-0.084664
-0.129230
-0.097095
-0.005725
-0.005771
-0.004401
-0.020618
-0.021674
0.002149
-0.020785
-0.008633
0.008154
0.004525
0.002771
0.004559
0.059331
0.005356
-0.009681
0.006745
-0.011199
0.029659
0.010246
-0.008836
-0.025972
-0.018591
-0.003267
0.006822
0.007920
0.005280
0.002282
-0.018251
0.003102
0.013508
0.010979
-0.014797
0.002434
0.002960
0.016648
0.007608
-0.000149
0.016978
0.015380
-0.006745
0.065747
-0.011231
0.011090
-0.008159
-0.005580
0.017127
0.029591
0.013972
0.032289
0.068659
0.021179
0.017215
0.012892
0.041457
-0.010084
-0.001278
0.011822
-0.009647
-0.002112
-0.012981
-0.006525
-0.003795
-0.006324
-0.010864
-0.008934
-0.033366
0.012206
-0.015442
-0.019000
-0.027779
-0.015147
-0.009137
-0.034196
-0.039921
-0.038673
-0.028906
-0.014130
-0.028991
-0.025910
-0.029734
-0.031372
-0.014526
-0.064687
-0.047354
-0.032534
-0.049410
-0.041074
-0.006743
-0.047104
-0.019037
-0.053975
-0.040792
-0.044918
-0.046913
-0.051233
-0.051702
0.005079
-0.018224
-0.001628
0.010707
0.007253
-0.006785
-0.012235
-0.032555
-0.004942
-0.024747
-0.024209
-0.018340
-0.041609
-0.044759
-0.043005
-0.034792
-0.031277
-0.045213
-0.020047
-0.015999
-0.017796
-0.055198
0.018000
-0.032106
0.031765
0.049206
0.035781
0.011440
0.050372
0.025742
-0.005061
-0.000010
0.001016
-0.015136
0.023017
0.013864
0.003954
0.017743
0.023791
0.012469
0.027109
0.003539
-0.015890
-0.028332
-0.003173
0.023846
0.001003
0.004942
0.007409
0.001023
0.008470
-0.018477
0.013389
0.054408
0.005921
-0.004289
0.009617
0.000319
-0.033077
-0.017949
-0.012877
-0.030305
-0.053308
-0.002091
-0.022379
-0.021134
0.034141
0.018512
0.032442
-0.041556
0.028303
-0.008205
-0.009055
0.004055
-0.004516
-0.030713
-0.064928
-0.016606
-0.030898
-0.045014
-0.039612
-0.016171
-0.033497
-0.021121
-0.002914
0.049805
0.010384
0.027923
0.054909
0.037548
0.042754
0.041486
0.024747
-0.012576
0.002325
-0.001492
-0.000930
-0.001346
-0.005145
0.014582
-0.000763
0.015086
0.005439
0.042533
0.021347
0.027958
0.031674
0.018931
0.027153
0.022178
0.021083
-0.008737
-0.016247
0.015702
-0.001456
0.014684
0.013283
0.007017
-0.000862
-0.004226
0.002325
-0.006248
-0.025494
0.014647
0.000809
-0.017949
0.004394
-0.014496
-0.001686
-0.017536
0.010728
0.001721
0.019301
-0.018709
0.014534
0.028551
0.009182
0.008481
-0.010672
-0.024707
0.038123
0.001164
-0.019186
-0.015330
0.005928
-0.001698
0.008955
-0.011138
-0.054674
-0.047850
-0.002954
-0.022263
-0.040972
0.043527
0.030515
0.016997
-0.009616
-0.006864
-0.025812
-0.035007
-0.028335
-0.010586
-0.008744
-0.039654
-0.027653
-0.000309
0.007791
-0.001158
-0.004936
-0.003441
0.006234
-0.000230
-0.008119
-0.005137
-0.017052
-0.067673
-0.040387
-0.021703
-0.029899
-0.043496
-0.013813
-0.001269
-0.002894
0.003655
0.006334
0.000719
0.000542
0.010492
0.005857
-0.013552
0.012018
0.023700
-0.023318
-0.011453
-0.008663
-0.008275
-0.010198
-0.014975
-0.011961
-0.005415
-0.008949
-0.011258
0.021424
-0.025483
-0.027426
0.020707
0.008600
-0.023841
-0.022057
0.006176
0.007385
0.015823
0.002455
-0.001367
-0.000199
0.006552
0.006931
0.001308
-0.003936
0.004719
0.027514
0.019061
0.001992
0.008932
0.003310
-0.047728
-0.003690
0.004587
-0.017632
0.005896
0.015957
-0.005179
-0.020582
-0.015203
0.007372
0.002580
-0.004340
0.012547
0.000831
-0.004591
-0.017743
-0.002353
-0.010384
-0.005347
-0.003776
0.003847
0.009253
0.048068
0.065424
-0.023272
-0.012162
0.029826
-0.059379
-0.050005
-0.000205
0.007178
0.004950
0.001010
0.005714
0.001241
0.005224
0.001425
-0.013706
0.003633
-0.009893
0.001300
0.011406
-0.001856
-0.013802
-0.008482
0.002159
-0.005148
-0.000138
-0.000393
-0.003859
-0.005942
0.015399
0.003594
0.006669
0.027612
0.019370
0.007768
0.000045
0.037024
-0.006724
-0.008700
0.018401
-0.005817
-0.020244
-0.011541
0.010963
-0.003198
-0.006340
-0.018296
-0.010722
-0.011112
-0.018550
-0.008470
-0.010603
0.000073
0.030658
0.015269
-0.002737
0.010285
0.027093
0.012008
0.000552
0.021758
0.021087
0.016893
0.006946
0.001778
0.001137
0.016549
0.009173
-0.027974
0.006134
-0.016298
0.009298
-0.017003
0.003766
0.004328
0.004113
-0.016349
0.008668
0.013565
-0.002220
0.012095
0.022460
0.017903
-0.023655
-0.036048
-0.026181
0.031683
0.011502
-0.004732
-0.006775
-0.039618
-0.036027
0.002898
-0.024589
-0.068878
0.035225
0.064639
0.033271
-0.002206
0.004973
0.007866
-0.005659
0.003160
-0.002113
-0.010120
-0.005587
0.009401
-0.006269
0.010996
0.011256
0.000717
-0.004288
0.002595
-0.003916
0.014025
0.011144
0.002252
-0.027578
-0.036057
0.009838
0.004078
-0.017440
0.006412
0.006492
-0.005293
0.002067
-0.073811
-0.042480
0.048435
-0.026697
-0.034558
0.058249
0.073948
0.018688
-0.041541
-0.004443
-0.001374
-0.043883
-0.029130
-0.004684
-0.024315
-0.043014
-0.018681
0.002859
0.021457
0.017899
-0.031036
0.002613
-0.001609
-0.014045
-0.005661
-0.025858
0.007343
0.004651
-0.004877
-0.007797
0.012531
-0.008452
0.013911
-0.003474
0.002107
0.022498
0.068079
0.073387
-0.024431
0.012620
0.042388
-0.110198
-0.084741
-0.015260
0.011752
-0.007764
-0.018064
0.019753
0.019977
0.003921
-0.001258
0.009549
0.018697
0.007008
0.000017
0.007693
0.019308
0.018922
0.000449
0.030909
0.014076
0.005768
0.026612
0.022315
0.009968
0.004915
0.049937
0.033712
0.005223
-0.007678
0.016524
0.001656
-0.000673
0.011478
-0.001190
-0.000726
-0.009091
0.025857
0.009835
0.010622
-0.005529
0.027490
0.007553
-0.013265
0.007839
0.003737
-0.023186
-0.007569
0.001110
-0.029389
-0.035425
-0.028407
0.007168
-0.014504
-0.032749
0.028318
0.034864
0.028274
0.023330
0.042381
0.048874
-0.034603
0.007837
0.014433
-0.088852
-0.063068
-0.025745
0.004730
-0.007068
0.014919
-0.009829
0.004019
-0.022299
-0.011447
-0.007944
-0.010496
0.006629
0.004907
0.019971
-0.010099
-0.016818
-0.007857
-0.008549
-0.010560
-0.033210
-0.005724
-0.001855
-0.007285
-0.005965
0.014578
-0.006898
0.003836
0.017934
0.027971
-0.002012
-0.005087
-0.015668
0.006585
-0.000221
-0.005194
0.028854
0.011476
0.012252
-0.017072
-0.034390
-0.037133
-0.014265
-0.021018
-0.033826
0.035553
0.008934
0.019275
-0.000148
-0.008436
-0.007614
0.004966
0.005451
0.005418
0.024617
0.016105
0.013747
0.015401
0.026659
0.031234
-0.021505
0.016841
0.008795
-0.037443
-0.032069
-0.014899
0.010149
0.006480
-0.007920
0.000973
0.016890
-0.007537
-0.000150
0.013723
0.029249
0.016809
-0.035635
-0.022101
0.051446
0.054180
-0.012376
0.030851
0.060230
0.058124
0.029662
0.090396
0.103154
-0.057588
0.006641
0.056654
-0.146053
-0.110298
-0.021887
0.021789
0.113693
0.106484
-0.032585
0.028421
0.058971
-0.092043
-0.100390
-0.002551
-0.009585
-0.001976
0.018963
0.000864
0.001433
-0.005201
-0.008227
-0.002851
-0.022582
-0.004328
0.012980
0.006722
-0.007673
0.004026
0.011204
0.013262
-0.017652
-0.001906
-0.006332
-0.010475
0.007421
-0.026296
-0.053017
-0.019386
0.039510
0.023987
0.028749
0.006172
0.006416
0.017886
0.011613
0.000348
0.000083
0.015905
-0.002114
-0.020381
-0.014838
-0.016029
-0.022651
-0.004706
0.009952
0.008050
-0.005435
-0.002952
0.007238
0.007008
-0.002755
0.018922
-0.015146
-0.020123
-0.016160
-0.010807
-0.029694
-0.023923
-0.005818
-0.025503
0.005683
0.005050
0.002862
-0.026631
-0.010764
0.013709
0.003020
-0.053581
-0.048682
-0.028743
-0.064319
-0.087943
-0.063143
-0.005698
-0.042600
-0.043325
-0.030071
0.001724
0.040354
-0.021197
-0.018394
0.001321
0.002402
-0.025397
-0.036542
0.003952
0.009339
-0.005502
0.001002
0.008486
0.011502
0.002813
0.001834
-0.003630
0.007743
0.017772
0.020967
0.005067
0.008373
0.014137
0.006351
0.010963
-0.006266
0.007264
0.009267
0.016745
0.008710
0.002981
0.009301
-0.009670
-0.008975
-0.007480
-0.005026
-0.005660
-0.016529
-0.011471
-0.002343
-0.002924
0.009787
0.016028
0.020143
0.007369
-0.004208
0.012350
0.002375
-0.040778
0.011640
0.021207
-0.001914
0.009239
0.004832
0.010039
0.021921
-0.000904
-0.002354
0.003766
-0.012678
-0.005108
0.013101
0.006963
0.034672
0.041270
-0.040628
-0.000771
0.015774
-0.003827
-0.043290
-0.008746
-0.023739
-0.003267
-0.026333
0.056250
0.014822
0.031978
-0.001855
0.015641
-0.007712
-0.011121
0.012593
0.013024
0.002609
0.016766
0.019931
0.002519
0.010983
-0.007310
0.022072
0.000316
0.017364
0.007440
0.011688
0.008773
0.005137
0.014397
0.009735
0.016783
-0.009419
0.011360
0.007296
0.019369
0.043022
0.003348
0.030577
0.022167
-0.019233
0.019172
-0.019835
0.014700
-0.067332
0.014601
0.006651
-0.009333
0.007339
0.009770
0.014583
-0.006702
0.014972
0.012532
0.010647
0.018522
0.007002
0.009712
0.006567
-0.014740
0.006378
-0.012035
-0.029065
0.000597
-0.024213
-0.011436
-0.008727
-0.001477
0.024150
-0.001760
0.016941
-0.030977
-0.002774
0.009808
0.013729
0.017597
0.010253
0.008147
0.001571
-0.006564
-0.039820
-0.001290
-0.013522
0.006676
0.026268
0.001416
0.030852
-0.000063
0.006616
-0.015832
-0.002449
0.004573
-0.011871
0.004860
0.004350
0.004577
0.019814
0.005288
-0.001177
0.016830
0.014531
-0.003357
0.007879
-0.006805
-0.027785
0.021910
-0.006719
-0.073033
-0.039326
0.036443
-0.011470
0.002149
-0.000607
0.010166
0.010064
-0.012638
0.014431
0.011318
0.014847
0.004371
0.010426
-0.000343
-0.015149
-0.006164
-0.001754
-0.007604
0.002194
-0.000220
-0.003319
0.008669
0.014723
0.022900
-0.011098
0.029668
0.003807
0.035821
0.015749
0.020177
0.009350
0.024849
0.006588
0.015764
0.005097
-0.045354
0.007507
0.006048
0.022424
0.029044
-0.006024
0.022896
0.007867
0.006965
0.010969
0.008513
0.004544
-0.019845
-0.014601
0.007678
0.000356
0.000402
-0.002436
0.000319
0.001605
0.003864
0.000701
-0.002733
0.014881
0.028050
0.031061
0.036409
0.017503
0.032894
0.025207
0.043313
0.017658
-0.005214
0.008024
-0.003920
0.003692
-0.026614
0.005392
-0.005312
0.007678
0.003669
-0.047694
0.007097
-0.032016
-0.028994
0.013706
-0.025721
-0.018273
0.063759
-0.004296
0.023683
0.008549
0.016207
-0.022310
0.058897
0.030457
0.000186
0.053021
0.015328
-0.001651
0.011599
0.008006
0.037230
0.038809
0.020299
0.038013
0.023395
-0.001432
0.023839
0.011608
0.025565
0.013033
0.020753
0.002487
0.021402
-0.005555
-0.003022
-0.001892
0.004891
-0.020164
-0.002653
-0.011854
-0.005926
-0.003581
0.012717
0.004324
-0.008347
-0.095288
-0.033373
-0.034391
-0.095623
-0.067909
0.002439
-0.082210
-0.019199
0.025769
0.000196
0.023448
0.028525
0.017699
0.038356
0.033250
0.060841
0.014371
-0.009652
-0.007701
0.002169
0.002189
-0.047176
-0.016259
0.004137
-0.020686
0.000187
-0.005067
0.014434
0.013376
0.015067
0.024875
0.018068
0.025489
0.014472
0.023266
-0.012874
-0.029634
-0.005011
-0.028823
-0.106345
-0.048473
-0.029996
-0.089214
-0.041408
0.002210
0.028188
0.012912
-0.001299
-0.009372
0.004033
-0.027015
-0.010390
0.025702
0.012310
0.012960
0.014371
0.002015
0.023487
0.031642
0.006896
0.007800
0.015124
-0.010800
-0.010109
-0.013505
0.022007
-0.026917
-0.006847
-0.003299
0.001622
-0.018827
-0.009644
-0.032631
-0.018025
-0.019199
0.007585
-0.016188
-0.010146
0.027224
-0.021651
0.010689
0.015828
0.016343
0.001598
-0.018985
0.008103
0.017263
0.026106
0.004890
0.019223
0.056323
0.016110
0.017807
0.101763
0.005628
-0.012202
0.042899
0.024525
0.010226
-0.009700
0.007376
-0.018417
-0.058769
-0.026421
-0.003189
-0.040284
-0.030950
0.012147
0.029259
-0.001626
0.007065
-0.022748
-0.026780
-0.019722
-0.031369
-0.024367
-0.017449
-0.004561
-0.023091
0.020782
-0.014337
-0.033357
0.020192
0.004822
-0.000940
-0.012814
-0.033378
-0.021070
-0.020069
-0.003406
0.003236
-0.019152
0.007514
-0.010411
-0.009152
0.018110
-0.003531
0.009198
0.035638
0.026399
0.008443
0.013586
-0.001161
-0.005801
0.022199
0.012293
0.019864
0.097886
0.020605
0.008435
0.030836
-0.011571
0.007158
0.004734
-0.000688
0.000544
0.010774
-0.008975
-0.001404
-0.029257
-0.006387
0.035476
-0.025423
-0.000719
-0.022985
-0.105599
-0.021366
0.007814
-0.007633
0.026822
-0.021533
-0.006095
-0.022436
-0.004883
0.041017
0.008408
-0.014859
-0.018759
-0.025463
0.015614
0.059917
0.027784
0.041400
0.047845
0.013165
0.040475
-0.022855
0.023195
0.014455
0.002518
0.012325
-0.025210
-0.091617
-0.003094
-0.019789
-0.031726
-0.012104
-0.012363
0.004699
0.015181
0.023083
-0.087602
0.019652
0.011458
-0.015663
0.013280
0.006523
0.010873
-0.004134
0.019659
-0.013496
0.002829
0.008011
0.005426
0.006667
-0.017157
0.027972
-0.006682
0.024491
-0.030640
0.002544
0.006453
-0.022817
0.007227
-0.050771
0.003870
-0.059065
0.009476
0.068801
0.007564
-0.038377
0.016226
-0.053846
0.024100
0.005028
0.001637
0.026914
0.020291
0.019747
0.008880
0.021720
0.038063
0.013808
-0.028289
-0.004508
0.005790
-0.150662
-0.021018
0.000043
-0.047283
0.000692
-0.016131
-0.000859
-0.028129
-0.018536
-0.024649
0.029408
0.006978
0.026855
0.020018
-0.004119
0.020140
0.008028
-0.018111
-0.018541
0.009195
-0.017099
-0.017206
-0.022181
0.010935
0.010304
0.032773
0.010275
-0.001849
0.007717
-0.005363
0.033295
0.004729
0.008514
0.015821
0.007624
0.055827
-0.020380
0.052996
0.007605
0.027861
0.021745
-0.009726
0.007777
-0.021514
-0.004760
-0.014677
0.002613
0.000410
0.014836
-0.008871
0.010408
0.029486
0.040067
0.016748
0.047203
0.038866
0.011711
0.027267
0.017021
0.025244
0.008090
0.022295
0.008706
0.011862
0.010673
0.008001
0.021841
0.016019
-0.020090
-0.010981
-0.003483
0.011380
-0.014507
0.024511
-0.029963
-0.021076
-0.013029
0.012352
-0.024555
0.020036
-0.017704
-0.081245
-0.035187
0.035564
-0.007416
-0.019349
-0.011086
0.013948
0.008766
0.016842
-0.034636
-0.000678
-0.008662
-0.020193
-0.013034
0.031808
-0.011087
-0.015083
-0.012598
-0.087468
0.000024
-0.019252
-0.011579
0.027399
0.005562
-0.023637
-0.020688
0.001592
-0.121505
-0.063493
0.031723
-0.022752
0.031956
-0.013314
-0.007480
-0.010018
-0.012673
0.013490
0.033107
-0.023111
-0.031997
-0.014517
-0.013937
-0.027684
-0.021926
-0.018025
-0.029677
-0.031928
-0.024841
-0.026297
-0.013460
-0.002955
-0.002700
-0.013854
0.005588
0.001408
0.010406
-0.021499
-0.030361
-0.002479
0.000566
0.005813
0.001224
0.010031
0.025299
0.009614
-0.007538
0.000504
-0.018896
0.012203
0.037681
0.024018
-0.000167
0.000237
0.021716
-0.008786
0.008527
0.014402
0.015323
0.044305
0.001347
0.017983
0.056549
-0.005417
0.007946
-0.008706
-0.000233
-0.010998
-0.033231
-0.031578
-0.004072
-0.032161
-0.022242
-0.030183
-0.012446
-0.025628
-0.020013
-0.009464
-0.003129
0.007808
0.035073
0.016454
-0.005473
0.016607
-0.008094
-0.006194
-0.021908
-0.024402
0.024866
0.040510
0.011289
-0.005876
0.017320
-0.005023
-0.029461
-0.026660
-0.028075
-0.028296
-0.066687
-0.009855
-0.009536
-0.011786
-0.000002
-0.000540
0.002063
-0.018546
-0.021015
0.013765
0.017721
-0.020613
-0.012933
0.010814
0.009574
-0.004859
-0.001526
0.000379
-0.033837
0.004942
-0.003757
-0.002833
-0.000549
0.007944
0.007094
0.003393
0.023624
0.014941
0.014393
-0.005772
0.015606
0.012625
-0.023410
-0.031615
-0.030710
-0.040538
-0.097405
-0.038406
-0.021972
-0.017052
-0.006934
0.002476
0.012905
0.011161
0.037251
0.010851
0.004296
0.009293
-0.021305
0.009313
-0.001118
0.003000
-0.019224
-0.007554
-0.031419
-0.018152
-0.010455
0.002461
-0.018372
-0.008181
-0.016301
-0.015284
0.045673
0.004586
-0.036593
0.002487
-0.029194
0.012275
-0.006409
-0.005081
-0.006704
0.010693
0.004907
0.020515
-0.015362
-0.000615
0.001488
-0.010676
-0.006869
-0.018102
-0.025979
-0.025003
-0.001401
-0.006460
-0.022208
-0.015676
0.034246
-0.008499
0.017220
0.021968
0.004641
0.038106
0.018990
0.012692
0.023289
0.002673
-0.011442
0.021966
0.037389
-0.060927
0.039125
0.001312
0.000460
0.018512
0.002651
0.016953
0.001956
0.018107
0.004786
-0.000559
0.006931
0.010947
0.006169
-0.019585
-0.017144
-0.008289
0.009604
0.036797
0.027347
0.009038
0.055292
-0.002640
0.019749
0.023590
-0.000446
-0.007027
0.016792
0.004784
0.003368
0.013047
0.006253
-0.002901
-0.032057
0.013918
-0.040021
-0.169663
-0.052714
-0.005913
-0.022130
0.007089
0.022621
0.046497
0.003249
-0.016519
0.016154
-0.032296
-0.004570
-0.004475
0.013391
0.024091
-0.036920
0.019033
-0.003628
0.025854
0.040455
0.001281
-0.007206
0.010963
-0.011421
-0.009205
0.005242
0.011389
-0.014663
-0.008030
0.003136
0.025655
-0.003386
0.019720
0.034766
0.026493
-0.000643
0.059609
0.020560
0.008805
0.015937
-0.009308
0.001353
0.000903
0.005729
-0.000283
0.002604
-0.008384
-0.006602
0.012190
-0.015017
0.007522
0.002826
-0.007029
0.019670
0.021064
-0.000301
-0.001265
0.008943
-0.000626
0.003412
0.000200
0.008323
-0.013721
0.004701
0.005513
0.009446
0.002670
0.007341
-0.016002
0.007511
-0.014633
-0.000079
0.011320
-0.021277
0.003288
-0.029880
0.008334
-0.001552
0.005702
-0.014179
0.015964
0.012697
0.004342
-0.004930
0.002211
0.013987
-0.019802
-0.020979
-0.009706
-0.013408
-0.075392
-0.019806
0.003599
-0.009368
-0.019390
-0.009551
0.002423
0.011346
-0.016559
0.060839
-0.006176
0.015581
-0.002721
-0.018488
-0.011385
-0.024472
0.002643
-0.048332
-0.035688
0.027751
-0.001256
0.000222
-0.004456
0.048829
0.050947
0.040523
0.053157
0.135995
0.045217
0.015953
0.058982
0.036491
0.000797
-0.007676
-0.013135
-0.012850
-0.032577
-0.020453
-0.016375
-0.000865
0.005637
-0.006999
0.014267
0.004460
-0.022614
-0.014272
0.003569
-0.009200
-0.018040
-0.014201
-0.027504
-0.059401
0.002894
-0.040498
-0.117773
-0.005611
0.050201
0.020582
0.045750
0.001140
0.015380
-0.004635
0.001952
-0.036058
-0.002897
0.011471
-0.007515
0.011893
-0.024332
-0.003281
0.028255
-0.013238
0.062522
-0.014847
0.000407
-0.020711
-0.051431
0.001492
-0.020778
-0.009904
-0.018239
-0.047086
-0.010190
0.013037
0.007531
-0.001088
0.042783
0.017057
0.026926
-0.011350
-0.020080
0.026008
-0.001249
0.054923
-0.025890
-0.012923
0.002770
0.005180
0.042000
0.128842
0.016914
-0.020277
-0.029324
-0.061369
-0.008515
-0.047081
-0.004064
-0.000272
0.054529
-0.011280
-0.027711
-0.017423
-0.023679
-0.013002
0.000820
-0.008932
0.001126
0.001191
-0.004731
-0.017311
-0.006716
-0.013581
-0.014197
0.003975
-0.010058
-0.012234
-0.009955
-0.007151
-0.007626
0.040126
-0.002773
0.014240
0.010634
-0.000164
0.037049
0.070012
0.021247
-0.004747
0.019078
-0.000318
-0.001174
-0.001207
-0.001098
-0.009126
-0.010704
0.013139
-0.005842
0.014790
0.020005
0.017722
0.016892
0.013605
-0.006285
0.002886
-0.014801
-0.000398
0.003703
0.017916
0.031943
0.063902
0.048172
0.067391
0.163662
0.066214
0.046546
0.076291
0.031488
0.005222
-0.006167
-0.000027
0.028442
-0.013632
-0.014938
0.000072
0.000535
-0.002709
0.001557
0.048430
-0.018032
0.011755
0.037898
-0.016346
-0.004439
-0.024013
0.015332
0.023917
0.037671
0.048658
-0.006781
0.097641
0.009556
0.003740
-0.008510
0.010588
-0.023009
-0.002721
-0.029058
-0.027084
-0.027757
-0.034434
-0.007801
-0.000223
0.006598
0.000841
-0.001046
-0.002701
0.005250
0.005175
0.001632
-0.003460
0.005881
-0.001273
0.003829
0.005349
0.009090
0.002817
0.002682
0.005265
-0.000053
0.005792
0.000829
-0.003089
-0.004271
-0.009605
-0.009139
-0.015093
0.004294
-0.017150
-0.026037
-0.019549
0.017668
-0.004579
-0.021611
0.003390
0.036207
-0.012389
-0.036525
-0.018776
-0.013079
0.010259
0.018693
0.004443
0.014871
0.043510
-0.001363
-0.024532
-0.030971
-0.042986
0.000579
-0.003151
0.021125
0.012479
0.041443
-0.017966
0.011551
-0.008988
-0.023054
-0.015811
0.046129
-0.011927
0.032011
0.030022
0.023909
0.004413
-0.001427
-0.008502
-0.002281
-0.019184
-0.041733
0.009024
0.050515
-0.008739
0.000089
-0.008840
-0.029871
0.012247
-0.003587
0.000069
-0.002169
-0.035777
-0.008485
0.015230
0.025908
0.023639
-0.007280
-0.024139
-0.018570
-0.011903
0.012428
0.022293
-0.013200
-0.010250
-0.033240
-0.013183
-0.019357
0.006059
-0.024185
-0.037454
-0.002086
0.025753
0.021078
-0.006469
0.018013
0.021773
-0.016662
-0.001772
0.020124
0.010953
-0.027324
0.002917
0.012295
-0.008950
-0.016548
-0.011824
-0.009971
-0.001754
-0.020921
-0.007328
-0.007869
-0.012270
0.014264
0.018498
0.011406
0.020207
0.015514
0.005737
0.006389
-0.010841
-0.006962
-0.000022
0.009159
0.015412
-0.000262
-0.007782
0.013738
0.025681
-0.003974
0.005468
0.019714
0.026506
0.019751
0.005549
0.024959
0.003732
-0.005186
-0.007227
-0.015273
0.018090
0.011716
-0.007333
-0.005046
-0.010066
-0.019138
0.010883
0.000428
0.011891
-0.007265
0.003851
-0.045770
-0.006141
-0.005154
0.010432
-0.013452
-0.020430
0.026270
-0.015827
0.010148
0.015321
0.036287
0.082966
0.038592
0.005401
-0.033330
-0.019820
-0.015032
-0.049379
-0.041072
-0.012004
0.022628
0.012529
-0.016744
-0.009104
0.000257
0.005040
-0.001886
-0.006851
0.014222
0.023183
0.026262
-0.002723
0.010306
0.013370
0.004023
-0.006440
0.003253
0.010333
-0.026095
0.017286
-0.018380
-0.057736
-0.024395
-0.015567
0.020401
0.013054
-0.016905
0.028318
0.011651
-0.002440
-0.011415
-0.021208
-0.023550
-0.017103
-0.005650
0.023227
0.053507
0.032492
-0.009281
-0.032885
0.002595
-0.007336
-0.029131
-0.011406
0.017213
0.016837
0.027183
0.012582
0.014477
0.007871
-0.013895
-0.018037
-0.013739
0.027489
0.019691
0.015131
0.005226
0.010362
0.006649
0.014825
-0.046566
-0.008508
0.022260
-0.077176
-0.013353
0.022667
-0.023004
-0.021220
0.007204
-0.014322
0.002162
-0.005908
-0.010673
-0.011200
0.012996
0.032117
0.006349
0.002258
0.011943
0.006418
0.010601
-0.010393
0.004848
0.026110
0.017156
0.011688
0.010502
0.051681
-0.009101
-0.023876
0.060076
-0.028083
-0.012848
-0.020737
-0.027877
-0.010661
0.024293
0.002089
-0.022041
0.041844
0.000203
0.006106
-0.008347
0.011001
0.018311
-0.033818
0.058040
0.045540
-0.179989
-0.015548
0.048654
0.031911
0.029219
-0.002677
0.035130
0.001018
-0.021826
-0.002217
-0.032924
0.002482
0.048224
0.009517
-0.012040
-0.098164
-0.049665
0.054803
0.050610
0.058341
0.014457
0.044801
0.035292
-0.003007
0.002453
0.013164
0.023343
0.009258
0.007374
0.029496
0.008354
0.006205
0.005799
0.028325
0.002720
-0.066424
-0.009424
-0.000306
-0.027753
0.003231
0.005947
-0.003486
0.013678
-0.003108
-0.011597
0.014049
-0.007385
-0.001798
0.009567
-0.013078
-0.021196
0.017836
0.027725
0.007295
0.034074
0.003448
0.014281
0.020041
-0.023819
-0.003224
-0.016688
0.003319
-0.027276
0.007481
-0.009987
-0.003181
0.027063
-0.006946
-0.001238
0.022314
0.013036
-0.010702
0.038425
0.006272
0.009461
0.035251
0.009628
0.024184
0.011761
-0.002105
0.002235
0.010310
-0.002334
0.006007
0.002218
0.039605
-0.021101
-0.011314
0.015233
-0.034511
-0.070474
-0.027040
-0.017097
-0.032746
-0.050837
0.013625
-0.032597
0.014142
-0.022930
-0.114116
-0.041765
0.012480
-0.011467
-0.007483
0.017014
0.003433
0.002287
0.009685
0.017137
-0.006184
-0.035956
-0.026698
0.008218
0.003010
0.006347
0.025573
0.016667
-0.009720
-0.004855
0.029822
0.015295
-0.006898
0.004696
-0.001513
-0.025220
-0.019993
0.000399
0.028788
0.018578
0.012621
0.024724
-0.010000
0.005619
-0.004470
0.013131
0.026843
0.010892
-0.010912
-0.021369
-0.013658
-0.040447
-0.037376
-0.039355
-0.040805
0.319840
0.017300
-0.025101
-0.027045
-0.040620
0.009618
0.037709
-0.007869
-0.013316
0.075829
-0.008986
-0.035975
0.042573
0.004422
-0.039803
-0.015946
0.056194
0.004313
-0.050984
-0.000756
0.006619
-0.000501
-0.056555
0.012119
0.002631
-0.027703
0.025064
-0.035688
-0.002158
-0.003562
-0.010200
0.007134
0.007160
0.012132
0.009742
-0.013634
0.013617
-0.008164
0.007467
0.033806
0.006214
-0.005384
-0.041256
-0.008957
0.036572
-0.011248
0.023336
0.027537
-0.053099
0.019985
0.001253
-0.007091
-0.010639
-0.029237
-0.002668
-0.039072
-0.001077
-0.021824
-0.016440
-0.002484
0.010667
-0.004931
-0.002801
0.001884
-0.017244
-0.012712
0.018026
0.005443
-0.019851
0.015207
0.000739
-0.028331
0.006594
-0.013183
0.012208
-0.027092
0.007815
0.023835
0.047213
-0.002240
0.002311
0.014905
0.047904
0.023542
0.008425
0.034716
0.008676
0.012606
-0.000345
0.016067
-0.012727
0.016245
0.004046
0.010694
0.020027
-0.015618
0.024941
-0.027286
-0.028359
-0.000071
-0.029403
-0.010812
0.041274
-0.008377
0.000668
0.046691
-0.008422
-0.003133
-0.013833
0.002768
0.013957
0.019641
0.026595
-0.009516
-0.000887
-0.002105
-0.015730
-0.022254
0.006841
-0.006508
-0.020536
-0.017357
-0.008725
0.012651
-0.001455
-0.034104
0.072260
0.003893
-0.005039
0.039147
0.028853
-0.035833
-0.042194
-0.018071
-0.025493
0.015273
-0.018715
0.014572
-0.021543
-0.026162
0.001161
0.004755
-0.003792
0.006307
0.044992
0.013381
-0.004406
0.026410
0.002220
0.006514
0.032657
0.030796
-0.001904
0.028753
0.023375
-0.009688
-0.011614
-0.004137
0.019834
0.075377
0.018241
0.036638
0.145406
0.044237
-0.008105
-0.019120
-0.021605
0.006063
0.011101
-0.021178
0.009537
0.046242
0.035187
-0.002808
-0.000623
-0.004998
0.032039
0.036689
-0.046680
0.012745
-0.036958
-0.025611
-0.026153
-0.024374
0.008081
-0.011165
-0.011021
0.004973
-0.022551
-0.021983
0.002357
-0.015893
-0.015100
-0.032098
-0.041917
-0.039213
-0.019070
0.003095
0.036991
-0.002213
0.017750
0.032145
-0.014168
0.002517
-0.012443
-0.002731
0.005544
-0.012461
-0.020220
-0.009048
-0.010147
0.018400
-0.011695
-0.006097
0.009928
-0.006047
-0.005099
0.014959
-0.008737
0.000558
0.004079
0.010753
0.003675
0.010155
-0.000856
0.011191
0.000952
0.000286
0.003018
-0.002864
0.004803
0.000118
-0.006461
0.006422
-0.020899
-0.012918
-0.023119
-0.020957
-0.008009
0.070818
0.061855
0.010890
0.056269
0.011522
-0.092024
0.016883
-0.026033
-0.118413
-0.019016
0.022035
0.002799
-0.031303
0.041221
-0.004900
-0.029944
0.011955
0.005878
-0.007579
-0.011416
-0.006876
-0.006481
-0.010470
0.001076
-0.000384
-0.009382
0.006371
-0.015110
0.004064
-0.002490
-0.004340
0.003111
0.005106
-0.009444
-0.002389
-0.002519
-0.004856
0.000991
0.001202
-0.006487
-0.008972
0.004885
0.002582
-0.012723
-0.005006
0.012437
-0.011874
-0.030718
0.022575
0.023418
-0.021631
0.001120
-0.006751
-0.012011
0.003746
0.003000
-0.000623
-0.015498
0.003941
0.012842
-0.003758
0.008621
0.003073
0.000235
-0.013432
0.004957
0.009118
-0.001052
-0.000220
0.014708
0.003305
-0.009214
0.009777
-0.004831
-0.016442
0.008256
0.016439
0.001225
-0.010719
0.014195
0.009852
-0.005095
-0.005638
0.007262
-0.004034
0.015718
0.013889
0.009199
0.005126
0.010143
-0.002731
0.004336
0.013344
-0.004066
0.010539
0.009777
-0.000341
0.009853
0.001527
-0.011272
-0.005875
0.010234
-0.002131
0.005860
0.003455
-0.001082
-0.000243
0.002032
-0.001578
0.004531
-0.001708
-0.008655
0.007358
-0.004638
-0.007426
-0.006293
-0.006110
-0.010211
-0.002367
0.005278
0.001041
-0.002181
0.008296
0.009250
0.003527
0.006701
-0.009702
0.007313
0.012419
-0.001191
0.001442
-0.002388
-0.009184
0.004345
0.005216
0.007234
0.005491
-0.004826
-0.008551
0.008987
0.003593
-0.003439
-0.004022
-0.001016
-0.016822
0.002513
0.000796
0.001821
0.016756
0.011400
0.007196
0.013517
-0.001068
0.016089
0.002529
0.006134
0.020642
-0.006554
-0.002433
0.000291
-0.005084
0.003276
0.002494
0.000875
0.000363
-0.001421
-0.002987
-0.006694
0.012748
-0.007768
0.003073
-0.002201
-0.001089
-0.009933
-0.010594
-0.006736
-0.003835
0.002589
0.001128
0.002035
-0.013638
0.000176
0.006632
-0.014746
0.014122
-0.005821
-0.003224
-0.020348
0.004542
-0.002372
-0.000797
0.018572
-0.022567
0.001278
0.015532
-0.002328
-0.004347
-0.001120
0.007933
-0.001703
0.017255
0.001670
-0.002269
0.011699
0.003772
0.007934
0.007368
-0.013910
-0.007745
-0.006469
-0.012113
0.001029
-0.000317
-0.012808
0.010147
0.000178
-0.001221
0.005771
-0.014933
-0.000017
0.004814
-0.004710
0.008941
-0.000070
0.003009
0.004517
-0.025937
0.007455
0.020244
-0.038609
-0.005930
0.011564
-0.002068
0.002925
-0.066652
-0.023565
0.000412
-0.137866
-0.025806
0.066140
-0.085899
-0.012059
0.027181
0.036179
0.031394
-0.002093
0.026221
0.002269
-0.013015
0.017935
0.011995
-0.006398
0.013371
-0.001502
-0.001754
0.004155
-0.002828
0.001860
0.004132
-0.001728
-0.007051
-0.003878
-0.022072
-0.004458
0.001197
-0.004258
0.003081
0.002690
-0.012079
-0.020449
0.005989
0.000795
0.003555
0.002788
-0.005703
0.005283
0.005740
-0.001100
-0.011601
0.002542
-0.030826
0.005962
0.007707
-0.003799
0.001598
0.023806
0.005080
-0.015265
0.013853
-0.003916
0.002903
0.023556
-0.018067
-0.023336
0.006335
-0.013425
-0.001251
0.021843
0.001197
0.012034
0.007199
0.012658
0.013389
0.018811
0.028699
0.021712
0.021140
0.001128
-0.024486
0.040373
-0.016812
-0.033415
0.004221
-0.000768
-0.001042
0.015927
0.086663
0.047074
-0.025865
0.082271
0.071589
0.004193
0.005590
0.057917
-0.016630
-0.027336
-0.024571
-0.009106
-0.005146
0.001036
-0.023799
-0.012508
-0.030053
-0.036988
-0.029805
0.025045
-0.057126
-0.041033
0.029269
-0.011837
-0.016537
0.007674
0.012142
0.011176
-0.009943
0.030029
0.000779
-0.014193
0.013734
-0.008738
0.020019
-0.009721
-0.004297
-0.016158
0.000962
-0.003993
0.004748
0.001054
-0.018431
0.001791
0.037919
-0.026794
-0.140962
0.039377
-0.116423
-0.087603
-0.018006
-0.072180
-0.046832
-0.002295
-0.011825
0.023729
-0.002540
-0.008143
0.010490
0.003941
-0.003310
0.009075
0.013023
-0.000871
-0.001395
0.016109
-0.017875
-0.004028
0.006577
-0.010356
-0.019713
0.011371
-0.022513
-0.028910
0.038488
-0.026583
-0.014588
-0.012851
-0.040299
-0.008498
0.004620
-0.004845
-0.008833
-0.000371
-0.006643
-0.000543
-0.006537
-0.002809
-0.004478
-0.004420
0.008278
-0.003427
0.021166
-0.003556
-0.018395
0.004172
-0.013167
-0.009783
0.003231
-0.004970
0.015709
0.036772
0.008896
-0.022120
0.023583
0.019922
0.003676
0.005497
-0.008089
0.012010
0.008142
0.015830
0.007451
0.004516
0.023456
0.007164
0.020180
-0.011706
-0.007838
0.008240
-0.017923
0.008273
0.006346
-0.008402
0.009985
0.011752
0.018702
-0.011602
0.011486
-0.016741
-0.015774
0.016347
0.005778
-0.001364
-0.003040
-0.006420
0.002550
0.007518
-0.029344
-0.019781
0.003339
0.003142
0.012082
0.002418
-0.003599
-0.001533
-0.002361
-0.004858
-0.012569
-0.004156
-0.006255
0.001115
0.003158
0.000902
-0.021971
0.005618
-0.009354
-0.023813
-0.001657
-0.003600
0.000305
0.011411
-0.009042
-0.016683
0.001566
0.001441
-0.002222
0.010363
0.003167
-0.010985
-0.000852
0.003757
0.010333
-0.000202
0.005120
0.008424
-0.004147
0.005623
-0.004308
-0.004565
0.001586
0.002223
0.004256
0.007596
0.004529
-0.001175
-0.002093
-0.004657
-0.026777
-0.039371
-0.014125
0.031736
-0.018454
-0.047968
-0.005804
0.017330
-0.006508
-0.010423
-0.027385
-0.003800
-0.001314
-0.020230
-0.006647
0.005995
0.001809
-0.013749
-0.099375
-0.029600
0.119074
-0.152535
-0.084502
0.243755
-0.109376
-0.051668
0.091683
-0.002990
0.001363
-0.011781
0.002576
0.010133
-0.004333
0.009255
-0.003160
-0.002861
-0.019173
0.002425
0.023353
0.039935
-0.000767
0.002563
-0.026646
-0.007068
-0.007580
0.014713
0.017062
-0.004181
0.002153
0.002129
-0.003487
0.018153
0.004741
0.031712
-0.008420
0.001089
-0.009346
-0.006337
-0.013293
-0.033417
-0.020254
0.006574
0.005810
-0.033032
-0.022510
-0.027500
-0.078085
-0.103456
-0.053438
-0.086312
-0.084623
-0.031440
0.025734
0.002706
-0.010137
-0.015616
-0.034079
-0.007720
0.012650
0.010386
-0.003089
0.006525
-0.001924
0.016109
0.010495
0.007801
0.003552
0.016366
-0.018370
-0.009430
-0.033267
-0.061214
-0.024495
-0.026355
-0.024448
-0.041197
-0.006744
-0.022711
-0.031278
-0.003807
0.030574
-0.003960
-0.007779
0.016681
-0.001493
0.005931
0.034268
0.037912
-0.009500
-0.005485
0.022301
-0.001105
-0.019624
0.002124
-0.022385
-0.002813
-0.006378
0.004422
0.010783
0.017397
0.016670
0.009342
0.009770
-0.023248
-0.013280
-0.011063
-0.023805
-0.027313
-0.047180
-0.039987
-0.040862
-0.054883
-0.036081
-0.032135
-0.019954
0.016752
-0.032010
-0.004429
0.040124
0.018249
-0.026127
0.026047
-0.030062
-0.015193
0.011913
0.026829
0.013454
-0.015246
0.011048
-0.004429
0.010552
0.017150
0.008032
0.015752
0.026029
0.023599
0.019436
0.015126
-0.018493
-0.007048
0.008219
0.012746
-0.072203
-0.086260
-0.065125
-0.085953
-0.106858
-0.084241
-0.061122
-0.091949
-0.075481
-0.016933
0.036640
0.011316
0.013126
0.010354
0.024611
0.053473
0.025714
0.031146
-0.023830
-0.039868
-0.009070
-0.041894
-0.049219
-0.021258
-0.039840
-0.057720
-0.031389
-0.009816
0.002719
-0.010274
0.001671
0.001397
-0.010082
-0.012764
0.012414
0.000857
0.007087
0.016965
0.028361
-0.009964
-0.000404
0.002238
-0.009306
0.007346
0.003274
0.048021
0.074806
0.047149
0.065516
0.080193
0.065827
0.053957
0.074384
0.041909
-0.044378
0.034174
-0.038554
-0.048643
0.008042
-0.045193
-0.024921
0.012842
-0.000005
-0.031183
0.037820
0.001206
0.024986
0.038218
0.043609
0.005682
0.021901
0.022867
-0.072212
-0.100050
-0.064613
-0.106831
-0.124740
-0.088688
-0.077379
-0.080489
-0.062628
0.008315
-0.002633
-0.019120
-0.027387
-0.014099
-0.004258
-0.009049
0.006746
-0.007970
0.005210
0.005686
0.011975
0.003910
0.008343
0.004732
0.003903
0.004061
0.003870
-0.000368
-0.012638
-0.018112
-0.020459
-0.001872
-0.000996
-0.004664
0.005573
0.017318
0.020430
-0.002409
-0.009517
0.001236
-0.004430
0.022784
0.011804
0.003498
-0.009771
0.012194
-0.005434
-0.012466
-0.034110
-0.014320
-0.012900
-0.041628
-0.007141
-0.018248
0.039941
0.039250
0.043657
0.050399
0.060554
0.041032
0.040468
0.052075
0.037345
0.004169
-0.053687
0.022248
0.029675
-0.018813
0.034840
0.015012
-0.053946
-0.036227
0.000409
-0.007772
0.002829
-0.006461
-0.004674
0.004049
-0.007676
-0.010768
0.006121
0.003345
0.006285
-0.002730
-0.003842
0.005536
0.006496
0.006089
0.013242
0.000270
0.008230
0.003332
0.004580
-0.005298
-0.018659
0.012647
-0.010101
0.002203
0.006158
-0.005445
0.005990
0.010007
0.043928
0.008206
-0.002357
-0.001587
-0.006720
-0.004602
-0.066675
-0.123735
-0.099127
-0.113266
-0.169258
-0.121045
-0.088987
-0.112403
-0.108117
-0.019291
-0.009459
0.011148
-0.004556
-0.026371
-0.030634
-0.022826
-0.031824
-0.014423
0.009747
-0.004257
0.000945
-0.003036
-0.045232
-0.006414
-0.005740
-0.004087
-0.009479
-0.019198
-0.013167
-0.014703
-0.024752
-0.029438
-0.042962
-0.023764
-0.032949
-0.009441
0.004419
0.014814
-0.016171
0.017148
0.018607
0.004172
0.016163
0.021174
0.021224
-0.001089
0.005366
0.001284
-0.003332
-0.003116
-0.018368
-0.004571
0.019261
0.017449
-0.004842
-0.020041
-0.007587
-0.012649
0.008768
0.008482
-0.012877
0.002368
-0.011953
0.019255
-0.004171
-0.010299
-0.008909
-0.005475
0.006738
0.034767
0.007357
-0.001582
0.015647
0.000514
0.018186
0.020932
0.007009
0.012319
-0.001578
0.000216
0.002849
-0.000883
0.003423
-0.000356
-0.011857
0.025379
0.003178
-0.000551
0.043666
0.012298
-0.022971
0.005250
0.007307
-0.012652
-0.005453
0.008561
0.004827
0.001679
0.012148
-0.030357
0.002070
0.007135
0.015200
0.011162
-0.009374
-0.002824
-0.009496
-0.004076
0.020796
0.060756
-0.009087
-0.060833
-0.001607
-0.026056
0.005454
0.050001
0.029541
0.017927
0.040983
-0.014779
-0.009306
-0.033636
0.009409
0.025768
0.016009
0.029485
0.048874
0.040591
0.025054
0.058577
0.072666
0.034607
0.047712
0.065418
0.052364
-0.003963
-0.021928
-0.006013
-0.000476
-0.010161
0.022430
-0.023804
-0.000303
0.030833
0.021091
-0.001848
0.018078
0.017886
-0.016119
0.010572
0.033847
-0.025875
0.003627
0.055880
0.045077
0.029797
0.063549
0.053085
0.071433
0.050130
0.064670
0.054176
0.012605
-0.007609
-0.003566
0.026026
0.008855
0.021681
-0.034296
-0.044634
-0.004082
0.021868
0.027587
0.002271
0.005294
0.026833
-0.018588
-0.003257
0.007940
0.026988
0.016736
0.034848
0.017377
0.012528
-0.003295
0.013205
0.026334
0.014309
0.009164
-0.015634
-0.003342
0.021655
0.014295
0.012497
0.019181
-0.004649
0.009225
0.013696
0.020147
-0.013796
0.005916
0.002865
-0.011494
0.005753
0.024044
0.007579
0.011557
-0.003433
-0.005449
0.028995
0.029652
0.012873
0.026352
0.014700
-0.022463
-0.004214
0.016645
0.020317
0.017291
0.016913
0.022148
0.020439
0.007754
0.004948
0.015672
0.007205
0.004541
-0.000923
0.015547
0.006080
0.012155
0.005014
0.013762
0.005852
-0.008574
0.024013
0.015386
-0.018929
-0.004861
-0.010775
-0.010344
0.012942
0.022420
-0.017530
-0.027175
-0.020899
0.002543
-0.000618
0.001530
-0.016067
-0.007613
-0.031180
0.000577
0.009644
-0.000262
-0.010473
-0.015037
-0.005059
0.003909
0.001652
0.001234
-0.047839
-0.022322
-0.072390
-0.064808
-0.041986
-0.058383
-0.008360
-0.055825
-0.041147
-0.006004
0.000352
0.017941
-0.007544
-0.017840
0.003277
-0.003213
-0.016720
0.008991
0.021547
-0.012198
0.031101
0.035244
-0.010930
0.019216
0.041649
-0.016770
0.010875
0.001946
-0.022764
-0.017746
-0.003174
-0.005044
0.001519
-0.015794
0.019744
0.004526
0.008878
-0.015015
-0.032697
-0.042395
-0.047382
-0.008245
-0.032544
-0.023447
-0.005730
-0.017778
-0.005016
0.017184
-0.037420
-0.005169
0.005613
-0.016703
-0.004496
0.007809
0.012357
-0.034618
-0.017550
0.000142
-0.013677
-0.009300
0.008698
0.003255
0.019181
-0.004523
-0.012677
-0.002025
-0.005714
-0.013100
-0.015097
0.007018
-0.008120
-0.011166
0.001676
-0.008134
-0.008426
-0.017008
0.005143
-0.001008
0.008089
0.020364
-0.006666
-0.027866
-0.030763
-0.014057
-0.021863
-0.041311
-0.006446
-0.022365
-0.052077
-0.018431
0.046295
-0.010476
-0.033645
0.044040
0.005124
-0.036958
0.019209
-0.007170
-0.034599
0.010800
0.015237
0.013210
0.010958
0.013490
0.011115
0.006113
0.006692
-0.001798
0.019431
0.035584
-0.013477
0.028315
0.031031
-0.006421
0.005291
-0.038794
-0.009233
-0.009868
-0.021422
-0.005237
-0.004849
-0.000201
-0.013154
-0.002152
-0.006404
-0.013007
0.002945
-0.001917
-0.001348
-0.001636
0.019287
0.013285
0.011768
0.004139
0.013820
-0.021316
-0.019460
-0.008252
-0.003846
0.008702
-0.005821
0.024657
0.021198
0.015793
0.006856
-0.025320
0.011014
-0.001843
-0.012789
-0.004136
0.010923
-0.025459
0.011933
-0.013495
0.006926
-0.003425
-0.017734
0.004311
0.000607
-0.011639
-0.015086
-0.006568
-0.018368
-0.051631
-0.024250
0.004080
-0.047881
0.006606
0.002098
-0.036237
0.000887
-0.007254
-0.043079
-0.017675
-0.029303
-0.033741
0.010498
-0.024220
-0.026153
0.016731
-0.003718
0.000890
0.023132
-0.008338
-0.003487
0.022666
-0.014460
-0.013670
-0.001385
0.132434
0.042702
-0.123731
0.120397
0.035394
-0.154159
0.079897
0.006913
-0.149167
0.091362
-0.006459
-0.068440
0.106874
0.003811
-0.080903
0.076408
-0.000077
-0.034650
0.002456
0.018142
0.013299
0.012440
0.021409
-0.003942
0.011636
-0.008322
-0.011564
0.004717
-0.012735
-0.001476
0.011086
-0.002632
-0.001327
0.002283
-0.001236
0.001494
0.006411
-0.018067
-0.005419
-0.020220
0.006873
0.022521
-0.004505
-0.023490
0.008276
0.016681
0.010939
-0.002989
0.009454
-0.017376
-0.028644
0.013717
-0.028138
-0.030268
-0.002652
-0.002428
0.000799
0.001926
0.000756
-0.009508
0.009164
0.007962
-0.005913
-0.010893
-0.025101
-0.077513
-0.025838
-0.033499
0.000354
-0.005552
-0.017352
-0.004592
0.011614
0.000487
0.021027
-0.002474
0.009420
-0.007898
-0.005767
-0.019538
-0.004587
-0.060369
-0.015630
0.052610
-0.080520
-0.017839
0.068118
-0.069328
-0.003817
0.085868
0.002843
-0.005519
-0.004217
0.008576
-0.013609
-0.017909
-0.009481
-0.005269
0.004658
0.005745
0.010417
0.023357
-0.004443
0.005377
0.001145
-0.002982
-0.017837
-0.025821
-0.001477
0.020889
-0.002312
0.015135
0.006617
-0.026347
0.026616
0.003761
-0.022330
0.025688
-0.003184
-0.024688
0.013645
-0.019637
-0.017369
-0.011008
-0.020355
-0.008811
0.000538
-0.021535
-0.027437
-0.007034
-0.024533
-0.016745
-0.004747
0.005121
0.026643
0.003076
0.022125
0.008847
-0.003382
0.036055
0.022714
-0.021344
0.002468
0.005963
0.010904
-0.000668
0.004272
-0.009119
-0.003933
0.011316
-0.007792
-0.014757
0.016682
-0.007206
-0.054879
-0.033282
0.003428
-0.029023
-0.019314
0.015271
-0.010029
-0.007616
-0.003972
-0.017968
0.013288
0.006604
-0.011373
0.022649
0.019155
0.018005
0.014126
0.012567
0.015310
0.007687
0.007591
-0.003796
0.008019
0.008216
-0.027246
0.001951
-0.008956
-0.006484
0.000203
-0.005436
0.005952
0.002616
0.000269
-0.001935
0.008129
0.017304
-0.018989
-0.023491
-0.004732
-0.001488
0.008446
-0.002293
0.000848
0.000570
-0.004745
0.010238
0.016497
-0.005236
0.008783
0.001561
-0.027746
0.006496
0.015978
-0.063409
-0.123606
-0.047043
-0.015250
-0.042152
0.015943
0.029384
0.032027
0.070554
-0.004583
-0.025331
-0.025311
0.021447
-0.005778
-0.013600
0.027808
-0.006774
-0.000966
0.010204
0.004602
0.031687
0.000026
-0.010530
0.037959
-0.011066
-0.001494
0.019590
0.137934
0.018709
-0.094196
0.113142
0.012994
-0.089460
0.104578
0.014326
-0.069199
0.011603
0.018671
0.039229
-0.034882
0.033029
0.044583
-0.023554
0.037708
0.036002
0.046622
-0.002434
-0.025986
0.030439
-0.012361
-0.028521
0.007979
-0.006609
-0.011926
-0.024639
0.003562
0.011292
-0.042716
0.018598
0.005844
-0.014937
0.006692
-0.005504
-0.000401
-0.034341
0.030855
0.023328
-0.032776
-0.007266
0.040265
-0.025614
0.016038
0.002647
0.003177
-0.008799
0.000182
0.018468
-0.019557
0.020697
0.001586
-0.000411
-0.109314
0.019907
0.111176
-0.129787
0.014661
0.092060
-0.090075
0.016268
0.079995
0.003968
0.023680
0.036675
-0.004383
-0.000527
0.018070
0.012171
-0.004905
0.001920
-0.006692
-0.005237
0.014119
-0.007600
-0.019892
-0.021496
-0.023868
-0.029030
-0.029781
0.009926
0.009085
-0.020871
0.010355
-0.011362
-0.028086
-0.011684
-0.006358
0.010650
-0.003440
0.009254
0.013640
-0.022301
-0.001955
0.025114
-0.012421
-0.003066
0.010186
-0.008838
0.000373
0.010749
-0.009057
0.007087
-0.003562
-0.017199
0.001320
0.010147
0.006986
0.011953
0.008076
0.009164
0.005860
0.009060
0.005321
-0.004224
0.010280
-0.004941
-0.011674
0.000418
-0.009855
-0.000668
-0.005118
-0.007956
0.005050
-0.006052
0.024367
-0.004380
-0.009225
0.012065
-0.024043
0.004041
0.003262
-0.014766
0.002294
0.014563
0.068994
0.064832
-0.018585
0.009446
0.028470
-0.052439
-0.065391
-0.012780
0.010891
-0.006833
0.010180
-0.001226
-0.013904
-0.000769
0.006854
0.002205
0.003193
0.005742
-0.007435
-0.003418
0.003549
-0.012257
0.014792
0.038495
0.019095
0.017193
-0.014118
-0.018268
-0.021564
-0.089727
0.030925
0.048391
-0.045802
-0.011672
-0.007953
0.008418
0.015978
0.000407
0.016141
-0.009127
-0.023742
-0.002288
-0.032998
-0.014266
0.002959
0.030726
0.011469
0.019903
0.036123
-0.005330
-0.015139
0.015289
-0.012523
-0.029667
-0.010794
-0.006017
-0.003063
0.073254
-0.012050
0.042422
0.023152
-0.026567
0.003806
0.020217
-0.013948
-0.011420
-0.001911
-0.016625
-0.019902
-0.010164
-0.000518
-0.006157
0.006730
-0.009068
-0.031980
-0.011974
-0.015480
-0.005184
-0.023121
-0.022244
0.005567
-0.016764
-0.017676
-0.009464
-0.004790
-0.001106
-0.028631
-0.004099
-0.007373
0.003923
-0.004133
-0.003797
-0.000186
0.013213
-0.001890
0.018681
0.005633
-0.006815
-0.010050
-0.008481
-0.012869
-0.018545
-0.009997
-0.002882
0.011397
0.007965
-0.002718
-0.051029
-0.014987
0.034247
-0.059947
-0.041915
0.004681
-0.047632
-0.033658
-0.017146
0.009193
0.012554
-0.013649
0.031709
0.008689
-0.028795
0.020832
-0.012708
0.011442
0.008517
0.010165
0.002076
0.005644
-0.011852
0.001790
-0.020572
-0.008320
-0.018214
0.018372
0.011736
0.003487
0.003161
0.005333
-0.016106
-0.002378
0.000333
-0.014569
-0.015599
-0.016089
-0.000300
-0.036228
-0.010151
0.020217
-0.035531
-0.009208
0.024961
0.014646
0.004766
0.018719
0.005304
0.040704
0.021859
0.014181
0.027005
0.004811
-0.012730
-0.002021
0.003226
-0.023218
0.004974
0.023843
-0.014739
0.013309
0.024888
0.017961
-0.008277
-0.009990
0.003573
-0.012945
0.000765
-0.013110
-0.004902
0.019072
0.015054
0.001464
0.007966
0.016461
0.017798
0.027258
0.020872
0.015165
0.021284
-0.015636
0.006035
-0.006782
-0.007818
0.000287
-0.012555
-0.003307
-0.000593
-0.004096
-0.010702
-0.001700
-0.012147
0.005011
-0.015959
-0.031282
-0.012067
-0.013271
0.005148
0.009933
0.006785
-0.012401
0.037957
0.002638
-0.004546
-0.014665
-0.007707
-0.012244
-0.004172
0.008204
0.013081
0.014468
0.015510
-0.012230
0.015132
-0.012448
-0.016002
-0.023868
-0.005341
0.017640
-0.024504
-0.000688
0.016357
-0.003816
0.000448
0.010695
-0.001663
-0.019344
0.006470
0.011133
0.004663
-0.011881
0.007392
-0.010383
-0.012475
-0.010390
-0.006311
0.003832
0.004340
-0.003706
-0.003176
-0.011225
0.015966
0.015207
0.010819
0.000745
-0.017635
0.007937
-0.034629
0.001371
-0.018737
-0.014208
0.038719
0.002486
0.006341
0.012888
-0.002468
0.021441
0.019646
0.018128
0.030376
-0.000786
0.014964
0.001515
0.014797
0.009060
0.002954
0.003504
0.002752
-0.006048
-0.002702
-0.009168
-0.027393
-0.006967
-0.033367
-0.011004
0.011998
-0.018222
0.002474
-0.003242
0.010268
0.006797
-0.020150
0.000993
-0.010795
-0.008748
0.004394
0.002630
-0.005870
-0.015098
-0.004709
0.011400
-0.032479
0.000961
0.021436
-0.006550
-0.008563
-0.002266
-0.031070
-0.024377
-0.002575
-0.021351
-0.034443
-0.010005
-0.018664
-0.020647
-0.010222
-0.009816
0.014666
0.013211
0.046595
0.005379
-0.027170
0.021293
-0.030187
-0.002282
-0.061770
0.016774
0.027385
0.011916
0.057503
-0.005975
0.017674
0.013401
-0.016775
-0.001046
-0.012254
0.014194
-0.024859
0.034273
0.018475
0.001703
0.020386
-0.020392
0.013693
0.007594
-0.031438
-0.011839
-0.044730
-0.012464
-0.015024
-0.013346
0.026263
0.007285
-0.031758
-0.020383
-0.004914
-0.060835
-0.021565
-0.030690
-0.024814
-0.021826
-0.035466
-0.056926
-0.061249
-0.108377
-0.155235
-0.108260
-0.056941
-0.093254
-0.075348
-0.053254
-0.055028
-0.014594
-0.091986
-0.081192
-0.063379
-0.030190
-0.064012
-0.072042
0.007748
-0.011057
-0.022884
0.017022
-0.004478
-0.015272
0.021870
-0.004917
-0.008938
0.037185
0.004076
-0.004254
0.017694
0.008035
0.017076
0.002437
-0.003497
0.020465
0.072160
0.029443
-0.064178
0.107590
-0.003330
-0.132085
0.063400
-0.023125
-0.098069
0.004948
0.005029
-0.003855
0.030464
-0.015787
-0.008056
-0.012050
-0.019702
0.017096
0.014201
0.011105
-0.009997
0.028563
0.003420
-0.032993
0.000512
-0.007614
-0.004162
-0.016861
-0.017633
-0.012744
-0.000775
0.007548
0.014017
0.007452
0.010714
-0.009045
0.020747
0.009698
-0.001361
0.014900
-0.005279
0.005732
-0.008055
0.001662
0.008791
-0.001638
-0.016997
-0.003718
-0.010892
-0.010826
0.021714
-0.007517
-0.005394
-0.006572
0.006611
-0.015838
-0.011768
-0.028148
-0.021543
0.018525
-0.025343
-0.002014
0.014458
0.007225
0.006462
-0.002632
0.006513
0.028770
-0.003471
0.011816
-0.010962
-0.006104
0.008799
-0.018385
-0.003170
-0.026193
-0.020508
0.029861
-0.019891
-0.002514
0.022592
0.000790
0.009995
0.007124
0.084980
-0.022698
-0.011970
0.013408
-0.016272
0.009551
-0.018178
-0.006103
0.015497
-0.002176
0.017689
0.021559
-0.001766
-0.004452
0.018363
-0.001092
-0.001197
0.003642
-0.005620
0.000676
0.028685
-0.003261
-0.002884
-0.001956
-0.031065
-0.000642
-0.029841
0.057418
0.054030
0.023783
0.040476
0.031955
-0.035498
-0.004177
0.051777
0.050648
0.042167
0.105741
0.036495
0.040920
0.049616
0.000583
-0.003557
0.014957
0.011710
0.016019
0.007586
-0.000549
-0.010030
0.006135
0.000675
-0.018842
-0.043477
-0.012442
-0.051970
-0.016490
0.056114
0.011110
0.028606
0.006120
-0.003271
-0.003553
0.017140
-0.011842
0.000356
0.012455
0.004237
-0.004253
-0.011025
0.013596
0.008941
-0.009048
0.011422
-0.011213
-0.014858
0.003911
-0.003596
-0.003908
-0.010464
-0.007536
-0.000142
-0.009189
-0.016395
-0.004886
-0.022705
-0.018236
0.011734
-0.028655
0.005972
0.008466
0.030203
0.040115
0.007051
0.014514
-0.002016
-0.016180
-0.001066
0.002182
-0.020311
0.028047
-0.024223
-0.014559
-0.011144
-0.015143
0.005111
0.002981
0.009713
0.009780
-0.016314
0.022845
-0.014026
0.026305
-0.011606
-0.009509
0.002554
-0.011631
0.003616
-0.013954
-0.013638
-0.002212
-0.013456
0.004557
0.004695
0.011111
-0.026086
-0.002171
0.011606
-0.033825
-0.019387
-0.015242
0.006494
-0.013204
-0.008987
-0.000646
-0.021636
0.003008
0.028296
-0.007007
0.008718
0.008052
0.001314
-0.006797
-0.004313
-0.001035
0.004990
-0.009574
-0.003201
0.006037
0.025688
0.005428
-0.003601
-0.009473
-0.009741
0.029189
0.158549
-0.001340
0.006155
-0.008815
0.001167
-0.005904
-0.024833
-0.025078
0.022066
0.055630
0.000121
-0.002272
0.019701
-0.014090
-0.019410
-0.005702
0.008610
0.008059
0.008936
-0.007061
-0.001328
-0.003977
-0.003334
0.011932
0.058042
0.038457
-0.007953
0.039794
0.047360
-0.008307
0.000082
0.017132
-0.006489
-0.013273
-0.016290
-0.002935
-0.038287
-0.002031
0.011627
0.006019
-0.004985
-0.000781
0.003258
-0.034804
-0.011171
0.052931
-0.003356
-0.022860
-0.019672
-0.000820
-0.007287
0.001138
0.000637
0.028424
0.046179
0.026668
-0.009694
0.026979
0.019381
-0.002289
0.004380
-0.002782
-0.002595
0.005346
0.000924
0.006278
-0.006056
-0.006256
-0.018025
-0.020577
-0.005697
-0.005811
-0.041507
-0.020916
-0.005122
0.002670
0.009657
0.004040
0.051184
0.009505
-0.003030
0.006547
0.013667
0.003157
-0.011632
-0.006391
0.004992
-0.013878
0.007537
0.008744
0.012979
0.023162
0.002172
-0.004912
0.022577
-0.016187
0.003941
0.006960
0.007945
-0.000203
-0.019780
0.003526
0.015208
-0.010419
0.002220
0.003241
-0.005044
-0.022324
0.016018
0.001139
-0.019719
-0.002188
0.016441
-0.025870
-0.031682
-0.020815
-0.023690
-0.047832
-0.039625
-0.006911
-0.004297
-0.024458
-0.007864
0.009986
0.004630
-0.017155
-0.002320
-0.006284
-0.028380
0.003799
0.003194
0.012787
0.034201
0.012242
0.009630
0.026046
0.033170
0.019573
-0.000403
0.034823
0.006917
0.015520
-0.015419
0.003856
0.031494
0.027742
-0.002708
0.020092
0.026638
-0.021597
-0.027293
-0.030803
-0.005600
-0.044866
-0.059463
0.035641
0.045449
0.000731
0.001468
-0.014726
-0.005468
0.003050
-0.022162
-0.007989
0.001681
0.010403
-0.012073
0.006246
0.039384
0.002168
0.013563
-0.003840
0.004284
0.009023
0.013509
0.003608
0.019714
0.024543
0.024166
0.003155
0.006092
0.008090
-0.021193
-0.019672
-0.040677
0.003999
0.002506
0.000509
-0.011446
0.011301
0.016672
-0.017981
-0.006169
-0.001820
0.004740
-0.058242
-0.001048
0.024494
-0.004919
0.007000
-0.020515
0.022165
-0.006668
-0.008976
-0.031828
-0.017011
0.018376
0.046195
-0.006866
0.007006
-0.008673
-0.006350
-0.028456
-0.000359
0.003497
-0.029678
-0.003673
-0.019755
0.020674
0.016811
0.001113
0.038628
0.050942
-0.001475
0.011376
0.027178
0.037262
0.002902
0.015361
0.016660
-0.022873
-0.021100
0.026555
-0.000757
-0.007111
0.004809
-0.000042
0.001148
0.002794
-0.003833
-0.001763
-0.007348
-0.005889
0.042896
-0.004217
-0.017519
-0.003954
-0.000820
0.001674
0.028339
-0.010734
-0.007090
0.016992
0.028216
0.004709
0.002953
0.007064
0.043901
0.150521
0.025686
0.029114
0.069825
0.081025
0.010618
0.000102
0.029641
-0.006052
-0.055518
-0.036238
-0.017309
-0.060854
-0.012006
-0.016334
-0.041994
-0.019463
0.001327
0.001945
0.045618
0.016194
0.042270
0.002357
0.020413
0.013289
-0.003015
-0.006489
-0.045837
-0.045267
-0.012655
-0.095118
-0.047012
0.016742
0.007142
-0.001089
-0.032585
-0.036142
-0.005398
-0.036811
-0.022627
-0.048162
-0.011601
-0.022634
-0.017767
0.023650
0.047844
-0.008909
-0.029649
0.075945
0.020362
-0.006337
0.028818
0.030396
0.011390
-0.010733
-0.018587
0.002953
-0.022769
-0.030007
-0.036318
-0.003375
-0.031819
-0.001089
0.020303
-0.002446
-0.004864
0.020302
0.017512
-0.007751
-0.006326
-0.013424
-0.005364
0.009033
-0.000157
0.004946
0.013465
0.007564
0.004970
0.006749
-0.005081
-0.007875
0.029071
-0.007909
-0.007536
0.005710
-0.008611
0.007079
-0.036268
0.009537
0.001940
-0.008614
0.005458
-0.013062
0.031593
0.007530
-0.015806
-0.011256
-0.010651
0.026386
0.020873
-0.023844
-0.005021
0.014506
-0.002068
-0.021073
-0.017113
-0.005936
-0.022171
0.022260
0.003161
-0.009807
-0.009469
0.014762
-0.011391
0.008518
-0.013167
-0.037259
-0.072355
-0.006251
-0.017160
0.001382
-0.025644
-0.018922
-0.025230
-0.029213
-0.006258
0.028269
0.021945
-0.021364
-0.015800
-0.019351
-0.020818
-0.005938
-0.005347
-0.013557
-0.008889
-0.036948
-0.024537
-0.010638
-0.030798
-0.009365
-0.007874
0.006685
-0.001824
-0.029424
0.013466
0.038128
0.068664
0.006917
-0.009213
-0.004785
-0.009234
-0.034516
-0.015333
-0.022920
-0.023101
-0.035760
-0.032241
-0.028765
-0.007740
-0.031030
-0.017068
-0.014313
0.032906
0.004229
-0.060873
-0.014757
0.023986
0.013235
-0.010223
0.027264
0.001586
0.025463
0.020841
-0.013477
-0.002320
0.009306
0.028258
0.005139
0.010047
-0.010885
0.009586
-0.019628
0.009138
-0.043518
-0.000803
0.012645
0.001073
0.090352
0.035786
0.039966
0.064003
0.029965
0.056575
0.046090
0.040021
0.036365
-0.081887
-0.106143
-0.073362
-0.045265
-0.120262
-0.121209
-0.038948
-0.048230
-0.068366
-0.000708
0.015671
0.015107
0.000284
0.014960
-0.000111
0.004576
0.002359
0.003967
0.007892
0.014828
0.012901
-0.001337
0.033402
0.006120
-0.007745
0.000921
0.013244
0.010248
0.019164
0.009710
0.013604
-0.007106
0.010677
0.027795
-0.015635
0.004276
-0.001761
0.008119
-0.002146
0.009326
0.010079
0.002625
0.002629
0.005099
0.003872
-0.036582
-0.012840
-0.018797
-0.026539
-0.009925
-0.030516
-0.023606
-0.030401
-0.030105
-0.009371
0.005714
0.011001
-0.010816
0.022048
0.005985
-0.014949
-0.007387
-0.007720
-0.017815
-0.043279
0.045871
0.010678
-0.040407
-0.004598
-0.012963
-0.004904
-0.008120
-0.002314
-0.005700
-0.008431
-0.001970
0.015783
0.021555
0.000665
-0.012569
0.007496
-0.014938
-0.011008
-0.048307
0.018414
-0.016013
-0.022887
-0.002772
-0.000015
-0.012561
-0.018357
-0.013374
0.019018
0.012094
0.000413
0.004631
0.018617
0.011614
0.006342
0.027930
-0.018802
-0.027855
0.026154
-0.017714
-0.058529
0.005099
0.005666
0.003263
-0.005167
0.003360
0.000114
-0.025477
0.000095
-0.035250
-0.004104
0.008069
-0.007917
0.020082
-0.017301
-0.032383
-0.006344
-0.012894
-0.026122
-0.023486
-0.015461
-0.024872
-0.008594
-0.060898
-0.020396
0.018977
-0.059820
-0.004516
0.011435
-0.013216
0.021996
0.010340
0.007495
-0.012230
0.006165
-0.005206
-0.013000
0.017363
0.005322
-0.005231
0.016049
0.004945
0.006328
0.035301
0.030183
0.025340
0.014664
0.011961
0.002996
0.007976
0.009054
-0.002461
0.009546
0.015104
-0.001464
0.019221
0.040754
0.023438
-0.007967
-0.033189
0.000466
0.014790
-0.016499
-0.007066
-0.045109
-0.020294
-0.018330
-0.007239
-0.013319
0.002370
0.027840
-0.006038
0.018246
0.008452
0.009397
0.005138
0.001388
-0.024712
0.016729
-0.009629
-0.043283
0.004002
0.006945
-0.017002
0.020277
-0.069850
-0.054080
0.076930
-0.028916
-0.159086
0.014763
0.023022
-0.064639
-0.011343
0.013682
0.010000
-0.007236
0.003461
0.019067
0.004378
0.000241
0.018950
0.001527
0.003449
0.004062
0.007173
-0.014772
0.067913
0.022649
-0.017938
0.033783
0.004854
-0.016501
-0.010711
-0.008089
-0.022057
-0.009161
-0.009972
-0.001436
0.006614
0.011211
-0.006975
0.023706
-0.031690
-0.026130
0.041088
0.018540
0.000418
-0.021583
0.023738
-0.003248
-0.011995
-0.000439
-0.001278
-0.048758
-0.008943
0.011131
-0.035756
-0.012758
-0.008475
0.029310
-0.003916
-0.066638
0.015772
0.020907
-0.021831
-0.014613
0.027387
0.049687
-0.009925
0.013338
0.023561
0.054088
-0.007173
0.024727
0.005797
0.042550
-0.008190
-0.020761
-0.017834
-0.013679
-0.020901
-0.035131
-0.023456
-0.023854
-0.005663
-0.016180
-0.001287
-0.039251
-0.081978
0.015441
-0.050426
-0.060130
-0.008088
-0.023088
-0.006344
0.063269
-0.016138
-0.063402
0.111415
-0.027557
-0.027159
0.001280
0.014019
0.014711
-0.000192
0.008453
0.011819
0.010564
-0.006563
0.006295
0.014274
0.014196
0.007371
0.048451
-0.017677
0.017338
0.006919
0.014628
0.001059
-0.005533
0.003113
0.016416
0.010344
-0.006365
0.032460
0.003835
0.006865
0.010736
0.023454
0.004348
0.006581
-0.018195
0.023798
0.016374
-0.034157
0.014053
0.008579
-0.049025
0.013287
-0.005735
-0.017935
0.013090
0.004932
-0.004739
0.011001
0.011985
0.037924
0.015770
0.033896
-0.020038
-0.018734
0.066184
0.023994
-0.026719
0.015148
0.061774
-0.013914
0.021921
0.012934
-0.015655
0.031082
0.065438
0.001302
-0.009377
0.026153
0.007833
0.003075
-0.059843
0.054003
0.086127
-0.132748
0.077222
0.083911
-0.018237
0.013884
0.008394
-0.017869
-0.008755
0.005041
-0.023908
0.001535
-0.014579
-0.012802
-0.014572
0.011212
-0.011979
-0.008137
0.006117
0.022137
-0.017509
-0.011834
0.007070
0.004804
0.004863
-0.000242
0.007540
0.006904
0.005582
0.024572
0.011938
-0.016116
0.022001
-0.008245
-0.024096
0.023338
0.037134
-0.023457
0.014760
0.022236
0.020221
0.001789
0.004982
0.036799
0.008754
-0.020008
0.008451
0.008979
0.003640
0.020751
-0.024463
-0.007409
0.021351
-0.038781
-0.041337
0.040681
-0.049207
-0.047158
-0.011945
-0.019471
-0.038753
-0.041928
0.022811
-0.028826
-0.043011
0.006857
-0.032891
-0.060774
-0.021757
0.018867
-0.027008
-0.012474
0.032791
0.006139
-0.022274
0.000528
0.004811
-0.014529
-0.009107
-0.047724
-0.026205
-0.007392
-0.034139
-0.035862
-0.000524
-0.005650
-0.025397
-0.002910
-0.007786
0.000679
0.009495
-0.031501
-0.005468
0.008388
-0.009800
0.004933
-0.007028
0.010069
-0.004713
-0.006445
0.027493
-0.005879
-0.010792
0.015136
0.001913
0.009621
0.000643
-0.024187
0.016647
0.038793
-0.005738
0.005707
0.026091
0.008597
0.002878
0.000988
0.024832
0.030476
-0.008238
0.010186
0.003712
0.000073
0.011407
0.012805
-0.067132
-0.028237
0.007550
-0.059548
-0.008309
-0.052706
-0.017654
-0.007117
0.002282
-0.005582
-0.010876
-0.002344
0.027308
-0.006604
0.007019
0.003509
0.007528
0.023452
0.048562
-0.000043
0.017349
0.056020
-0.010621
0.032661
0.000947
0.010602
0.013894
0.048859
0.007644
-0.007371
-0.033356
-0.000390
0.036125
0.015205
-0.009517
-0.027926
-0.056721
0.018342
-0.017340
-0.141219
0.022709
0.026505
-0.064642
0.008339
-0.018141
0.006124
-0.000465
-0.002914
-0.021771
-0.004811
0.004884
-0.006485
0.000860
-0.004396
-0.009045
0.006023
-0.015344
-0.010974
-0.003694
-0.028671
-0.008416
0.003257
0.015637
0.048235
0.046696
0.014638
0.030232
0.044720
-0.003216
-0.029465
0.008352
-0.006328
0.004173
0.017610
0.007924
-0.007213
0.008505
0.010725
0.004645
0.006731
-0.044680
-0.056902
0.059020
-0.027453
-0.139206
0.067996
-0.037002
-0.035686
0.010993
-0.028679
-0.013689
-0.021165
-0.029152
-0.003654
-0.011342
-0.026987
-0.002899
0.002998
-0.007052
-0.031293
0.031436
-0.005992
0.043443
0.009357
0.001847
-0.000454
-0.009799
0.012192
-0.031089
0.010842
0.022364
-0.017730
-0.009133
0.009410
0.019908
-0.010158
0.008618
0.008335
0.011851
0.039658
0.031204
0.020637
-0.032755
0.014622
-0.007446
0.012371
0.001427
0.018529
0.026883
0.000908
0.027120
0.024457
0.011557
0.023052
-0.002926
0.009688
0.014773
0.012314
0.014222
0.015571
0.010629
0.016862
0.016756
-0.026943
0.004484
-0.009182
-0.033659
-0.013279
-0.026354
-0.024924
-0.017476
-0.020621
0.008044
-0.008849
-0.022659
-0.019221
0.000922
0.015225
-0.014346
-0.023561
0.009161
-0.057926
-0.000877
0.029231
-0.019432
-0.112939
0.016555
0.035047
-0.043034
-0.036309
0.014414
-0.017109
0.015041
0.006169
-0.006822
-0.003992
-0.002679
0.002042
0.009224
-0.004670
-0.044868
-0.010262
-0.042967
-0.049685
0.008785
-0.023023
-0.037548
0.008893
0.016731
0.018939
0.053853
-0.035678
-0.016093
0.015252
-0.009945
-0.021723
0.002817
0.001204
-0.013255
-0.017791
-0.002218
0.014841
-0.010481
-0.005744
0.014506
-0.010733
-0.005765
-0.031448
-0.024253
-0.012014
-0.016443
0.013547
-0.019196
-0.052609
-0.020277
-0.059759
-0.034913
-0.022564
-0.048842
-0.006085
-0.027641
-0.045963
-0.045768
-0.045470
0.023659
0.005024
0.013712
0.006083
-0.012408
-0.022785
-0.033168
-0.035624
-0.025661
0.017722
0.010596
0.005792
0.012856
0.027046
0.036612
0.003376
0.001716
0.003616
-0.042728
-0.031463
-0.035287
-0.002113
-0.039438
-0.036064
-0.041651
-0.020596
-0.043474
-0.028965
-0.018594
-0.018582
-0.032664
-0.017384
-0.004984
-0.037026
-0.033393
-0.027825
0.011827
-0.003444
-0.001991
0.029414
0.025823
-0.008646
-0.008963
0.005056
0.012656
-0.016310
-0.014089
-0.023724
-0.024955
0.008767
-0.006253
-0.017234
-0.026484
-0.020608
0.006884
0.004914
-0.024135
-0.015478
-0.000575
0.010301
-0.011780
-0.023408
-0.024746
-0.021183
-0.009252
0.030623
0.015921
0.014233
0.021785
0.027366
0.029585
-0.005943
0.014126
0.006264
0.005380
0.002245
0.024840
0.015719
0.007334
0.009223
-0.003452
0.020330
-0.005981
0.018265
0.000818
0.001792
0.016577
0.004784
0.026060
0.017408
0.009765
0.002971
0.015543
-0.012514
0.022047
0.006543
0.009868
-0.005261
-0.020091
0.014633
0.019561
0.016175
0.033397
-0.008552
0.019432
0.029334
0.028509
0.015245
0.008497
0.003090
0.006634
0.015842
-0.001383
0.012011
0.006096
0.000162
0.015730
-0.016357
0.019308
0.014096
-0.003054
0.009834
0.013565
0.026583
0.008900
-0.007670
0.011954
-0.000044
-0.002949
0.008418
-0.026381
-0.000934
0.009714
0.003760
0.019384
-0.001654
-0.003093
-0.014490
-0.005959
0.010087
0.001129
-0.007339
-0.024563
0.005436
0.006292
0.027648
0.025789
0.005910
-0.000937
0.025244
-0.008002
0.005271
0.034416
-0.055832
-0.077589
-0.081827
-0.047261
-0.077142
-0.079238
-0.034099
-0.055547
-0.085082
0.001671
-0.022412
-0.028377
-0.014195
0.010658
-0.002575
-0.006595
-0.022699
-0.011753
-0.002258
0.030723
0.022116
0.024430
0.017110
0.032696
0.027292
0.022716
0.013011
0.025170
0.018544
0.007972
0.015188
0.041546
-0.003475
-0.030695
0.008358
0.017546
-0.020613
-0.010573
-0.024622
-0.007181
-0.007686
-0.025071
-0.017315
0.007808
0.009492
0.006478
0.003882
0.007424
0.026552
-0.006824
0.035683
-0.000185
0.033101
0.018486
0.003254
0.002926
0.005544
0.017857
0.015412
0.010878
0.006919
0.021969
0.014628
-0.001512
0.011528
0.010348
-0.033430
0.021688
0.001239
0.002411
-0.008331
-0.001738
0.008855
-0.016703
0.001972
0.027734
-0.037714
-0.029258
0.010006
-0.019548
-0.013458
0.008192
0.014399
-0.008434
0.023846
-0.049057
0.005632
0.018226
-0.013239
0.000538
0.020567
0.029609
-0.002074
0.004050
0.014895
0.018143
0.012486
-0.020460
0.015699
0.000277
0.015483
0.010808
0.015986
-0.012889
0.009116
0.020719
-0.002322
-0.004623
-0.027405
0.012414
-0.012496
-0.018815
0.006801
-0.008531
-0.018573
-0.017930
-0.021632
0.007145
0.007019
0.007599
-0.004122
0.031978
0.022577
-0.001029
0.017298
-0.012639
-0.019679
-0.005727
-0.002498
-0.027215
0.028109
0.031991
-0.011449
-0.008841
-0.001733
-0.037508
-0.052932
-0.037046
-0.046791
-0.082375
-0.063969
-0.047287
-0.045585
-0.048816
0.039773
0.009546
0.021401
0.028404
0.028617
-0.024503
0.028099
-0.013129
-0.027618
-0.017580
-0.018955
-0.018978
-0.023867
-0.004714
-0.009701
-0.031953
-0.014707
-0.037582
-0.016162
0.002047
-0.020868
-0.001057
0.033635
0.012183
-0.016706
-0.007574
0.004474
0.005597
0.002973
0.006596
0.014639
-0.015429
-0.018418
-0.005040
0.010305
0.010002
0.018500
0.011871
-0.013504
-0.017470
0.023774
0.007729
0.020735
-0.011658
0.001652
0.006825
-0.004242
0.009321
0.006057
0.026268
0.018425
0.004151
0.011448
0.011682
-0.011642
-0.041102
-0.023116
-0.045877
-0.090225
-0.035069
-0.034813
-0.035781
-0.021870
-0.011305
-0.003889
-0.008743
0.001055
-0.013106
0.020242
0.002190
-0.027650
0.002611
-0.049226
-0.072500
-0.058670
-0.060374
-0.070190
-0.028761
-0.025134
-0.041033
-0.019572
0.007838
0.000826
0.001658
-0.014206
-0.030262
-0.004794
0.003420
0.012074
0.015583
0.043785
0.084685
0.067045
0.039443
0.073800
0.086653
0.029487
0.044377
0.058845
0.003593
-0.001083
0.013633
0.007513
0.012080
0.011066
0.000625
-0.018673
0.003038
0.019870
0.037669
0.028242
-0.002415
0.016793
0.047051
0.025719
0.012760
0.008454
0.051614
0.021794
0.039178
0.000275
-0.025506
-0.012396
0.042116
-0.000892
0.019964
-0.001412
-0.010110
-0.009079
-0.016922
0.012176
-0.005945
-0.008453
-0.026425
-0.013607
0.009249
0.006653
0.003782
0.022934
-0.002914
0.011109
0.008640
0.031941
0.013134
-0.019450
-0.033536
-0.017571
-0.024314
-0.011827
-0.015022
-0.042078
-0.030203
-0.022183
0.025611
0.009864
0.008091
-0.017260
0.009182
0.024711
0.007759
-0.013830
-0.001460
0.006864
-0.022466
-0.003394
-0.029844
-0.011337
-0.027948
-0.012383
0.027229
0.009787
0.011205
0.005105
0.001604
0.017821
0.010299
0.022171
-0.017230
0.005782
0.008369
-0.018795
-0.024609
-0.036628
-0.035191
0.005556
-0.013268
-0.006971
-0.019419
-0.022177
0.002476
0.019635
0.024297
0.003534
-0.001630
0.005385
0.013319
-0.001912
0.000754
-0.016065
-0.006035
-0.002482
-0.014670
-0.016896
0.000076
-0.000821
-0.025877
-0.003285
-0.007025
0.015443
0.046407
-0.014584
0.027062
0.023844
0.007953
0.005026
-0.003919
-0.023649
-0.060216
-0.018003
-0.045250
-0.143627
-0.060102
-0.051477
-0.071047
-0.014349
0.026990
-0.000271
0.002155
0.017476
-0.022927
-0.004697
0.026266
0.008708
0.017363
0.033159
0.020369
0.004247
0.026020
0.011855
0.030393
0.016611
0.038603
0.003309
-0.030813
0.024869
-0.050628
0.036182
0.076552
0.023200
-0.027090
0.022785
-0.024026
-0.008362
-0.007009
-0.011128
0.021752
0.028428
0.021697
-0.026997
-0.002796
-0.006376
0.007213
-0.004210
-0.007193
0.011597
0.006132
0.011678
-0.020987
-0.020286
-0.005896
-0.045181
0.018587
-0.049320
0.012194
0.102158
0.010888
-0.064361
0.013795
-0.032443
-0.007348
-0.011599
-0.023443
-0.006038
0.030827
0.010981
-0.026402
0.000506
-0.035553
0.000332
0.009869
-0.022317
0.001530
0.007277
0.001478
-0.015100
0.008437
-0.004131
-0.023235
-0.005096
-0.013739
0.002385
0.014045
0.025077
0.010820
0.018868
0.010138
-0.004674
0.012433
-0.004511
0.004901
0.012863
0.004887
-0.005694
0.002657
-0.005724
-0.005270
-0.007158
-0.002929
0.011809
0.011162
0.014469
-0.012807
-0.004483
-0.011956
-0.026555
0.060967
-0.023224
-0.032662
0.053685
-0.021284
-0.013428
0.058415
-0.026803
-0.014606
0.010101
-0.003509
0.002999
0.018720
0.010844
-0.009366
0.002631
-0.019721
0.024232
0.014216
-0.041326
0.021167
0.032946
0.006200
-0.015060
0.007356
0.023859
-0.021819
-0.016920
-0.012550
0.002398
0.016426
0.015350
-0.003075
-0.009516
-0.015615
-0.002072
-0.007769
-0.006721
0.009120
-0.007113
-0.004427
-0.009717
-0.017918
-0.013304
-0.011287
0.003274
-0.014080
-0.002596
0.024271
0.000125
-0.017714
0.009459
-0.019016
-0.016106
-0.005034
-0.002528
0.019226
0.031051
0.009998
-0.014224
-0.009501
-0.017159
-0.010375
0.018272
0.005190
-0.016678
0.018326
-0.016285
-0.006027
0.020218
-0.018851
0.001686
-0.015620
-0.013299
0.036794
0.019397
0.012796
-0.000564
-0.013681
-0.017369
-0.015946
-0.017405
-0.017147
-0.000397
0.015409
0.006722
-0.017035
-0.006704
-0.006455
-0.005630
-0.006849
-0.015292
-0.004333
0.014133
-0.003408
0.002247
-0.005923
-0.010716
-0.017154
-0.005393
-0.021118
0.022432
0.073092
0.024373
-0.022718
0.001655
-0.019838
-0.020639
0.002902
-0.016368
0.002110
0.023146
0.011253
-0.008763
0.011018
-0.010013
-0.016649
0.007512
-0.010783
-0.012158
0.018513
-0.009611
-0.011482
0.012665
-0.020838
-0.021942
-0.005255
-0.021237
-0.014013
0.003367
-0.013206
-0.008253
0.027301
0.000494
-0.002335
0.015040
-0.006507
0.008338
-0.001398
0.010137
-0.007547
-0.005994
-0.004879
-0.051637
-0.044107
-0.044552
-0.041343
-0.045743
-0.022960
-0.007439
-0.009668
-0.015263
-0.025433
0.025001
-0.018572
-0.002265
0.052885
0.002375
-0.015036
0.045918
-0.007527
-0.009975
-0.013760
-0.008148
0.023622
0.009143
0.015365
-0.005518
-0.012773
-0.000544
-0.018127
-0.000427
-0.000826
0.010635
0.021295
0.007353
-0.006166
0.009983
-0.016618
0.000911
0.014794
0.009733
-0.022410
-0.050400
-0.012742
0.002402
-0.009510
-0.000381
-0.013250
0.004426
0.002731
-0.005109
0.005781
0.004565
-0.005234
-0.002558
-0.013071
-0.015262
0.012289
-0.001572
0.004033
0.012463
0.006775
-0.009688
0.009038
-0.010377
-0.000649
0.007414
0.003698
-0.012595
0.008907
0.006564
-0.007146
-0.000764
-0.007458
-0.029202
0.003029
-0.037339
-0.028855
0.017559
-0.021873
-0.031593
0.026750
-0.022270
0.005414
-0.006240
-0.022116
0.007527
0.016534
0.014337
-0.005177
0.006851
-0.003997
-0.054417
0.019494
-0.042445
0.000879
0.059390
0.000626
-0.051013
0.003812
-0.054872
-0.012078
0.010715
0.000251
0.004967
-0.007104
-0.004170
-0.000019
0.015212
-0.009718
0.001730
0.002717
-0.016003
0.005662
0.005361
0.008298
-0.012765
0.007198
-0.000908
-0.014668
-0.020438
-0.019442
0.042101
0.044890
0.039437
-0.015902
-0.009007
-0.023391
-0.006844
-0.001586
-0.029686
-0.005689
0.048885
-0.005974
-0.032467
-0.027267
-0.042205
-0.013854
-0.018311
-0.031457
0.020703
0.036903
0.017048
-0.007138
0.006881
-0.012737
-0.030012
0.029920
-0.024017
0.001910
0.123363
0.003628
-0.040801
0.028451
-0.048747
0.001038
0.024281
-0.015947
-0.005671
0.033080
-0.015468
-0.028601
-0.004815
-0.016483
-0.023528
-0.013789
0.006330
-0.007009
0.010955
-0.008262
-0.014033
-0.009566
-0.019852
-0.020526
-0.013679
-0.038446
0.001098
0.051551
-0.021142
-0.025788
-0.008445
-0.012963
-0.005409
0.024604
-0.015991
-0.005610
0.035595
-0.002313
-0.006369
0.022783
-0.006053
0.021480
-0.022502
0.018020
0.015099
-0.062392
-0.003497
-0.007363
-0.018330
-0.007863
0.005457
0.019011
0.000196
0.020286
0.002740
0.029918
-0.020521
-0.010872
-0.020082
0.026944
0.011578
-0.005686
-0.002988
0.011067
-0.004410
-0.016690
-0.007217
0.001487
-0.009332
0.012179
-0.017166
-0.011643
0.023812
-0.003680
-0.012492
0.029964
-0.000382
-0.083426
0.021201
-0.083801
-0.029296
0.241967
-0.003520
-0.061047
0.030831
-0.058237
-0.000466
-0.002297
-0.023517
-0.016100
0.009205
-0.006362
-0.011071
0.016021
-0.006466
-0.025176
0.038770
-0.044487
-0.035052
0.053564
-0.021784
-0.018223
0.030607
-0.027123
-0.014632
-0.008476
-0.028643
0.036275
0.062269
0.045264
-0.011540
-0.001999
-0.020217
-0.006325
-0.010223
0.008266
0.017780
-0.004548
0.006433
0.011197
-0.003275
0.003995
-0.015975
0.043418
-0.010977
-0.018062
0.000503
-0.016504
-0.029279
0.018665
-0.015281
0.004307
-0.003340
0.012528
-0.005955
0.022589
-0.001589
0.010677
0.010068
-0.000656
-0.006352
0.012234
-0.003208
-0.009442
0.005800
-0.006300
-0.017214
0.004060
-0.017748
0.001641
0.000941
-0.003555
0.005369
0.011920
0.004470
-0.004777
-0.000430
-0.004448
0.012123
0.001577
0.017421
-0.012235
-0.027068
-0.001256
0.001447
0.004559
0.008813
-0.026986
-0.004821
-0.023533
0.038113
0.040510
0.010534
-0.045558
-0.035872
-0.032375
0.015207
-0.028051
-0.020152
-0.006684
-0.018991
-0.008992
0.004488
-0.018567
-0.008236
-0.005125
0.010368
-0.026924
0.014514
0.045256
0.017619
-0.036938
-0.035968
-0.027122
-0.010649
0.022684
0.009682
0.018255
0.032947
0.019130
0.031294
0.012401
-0.034155
-0.008235
-0.017068
-0.005426
-0.024291
0.031380
0.013359
0.006118
0.011921
0.011206
0.006790
-0.017043
-0.009891
-0.022238
-0.009967
0.027998
0.000594
0.010234
-0.011814
0.016834
0.007651
0.001134
0.004519
-0.011594
-0.013435
-0.021211
-0.012621
-0.016512
-0.039193
-0.062803
-0.020945
-0.069398
0.012208
0.017425
0.027777
-0.011507
-0.022663
-0.001247
0.000164
0.006295
0.025124
0.016652
-0.017499
0.006924
-0.036737
-0.015613
-0.050947
-0.080398
-0.019656
-0.032182
0.062559
0.047906
0.035620
0.013415
-0.022589
0.010950
-0.002143
-0.004750
-0.024701
-0.005862
-0.024649
0.005270
-0.003173
-0.000640
0.009163
0.022648
0.018136
0.005406
-0.006178
-0.007271
-0.017770
-0.010363
0.004454
-0.039436
-0.010620
0.018508
0.012669
0.044241
-0.048970
0.012012
-0.021456
0.006086
-0.016886
-0.043250
-0.024753
-0.051966
0.008789
0.061292
0.019338
0.047877
0.024593
0.003466
0.002632
0.013983
-0.007945
0.005307
0.011386
0.014550
0.011774
0.010539
-0.075560
-0.108083
-0.062792
-0.112402
0.024343
0.025853
0.041175
0.003210
-0.030971
0.015007
0.013183
0.000739
-0.008224
-0.010616
-0.025318
-0.012770
-0.005806
0.012054
-0.007779
-0.014445
-0.008684
-0.007496
-0.008242
0.004967
0.000110
-0.007202
-0.005725
0.008577
-0.019523
-0.008458
-0.039729
-0.039147
-0.012593
-0.008446
0.016663
0.014720
0.011006
0.025711
0.021167
-0.019985
-0.006260
-0.007716
-0.024753
-0.005380
-0.003760
0.010743
-0.001095
-0.022284
-0.008417
-0.021459
-0.006872
0.004308
-0.004096
-0.016809
0.001310
-0.016340
0.000234
-0.027461
0.009384
0.014156
0.030718
0.008609
-0.004454
0.002865
0.019663
0.027958
0.029937
0.002011
-0.003672
-0.063923
-0.048406
-0.011607
-0.006126
0.010837
-0.002310
0.000923
0.006457
0.005899
-0.004569
-0.017460
-0.007522
0.053391
0.071760
0.042168
0.058987
-0.052583
-0.125145
-0.078000
-0.043856
0.035376
0.010116
-0.001687
-0.010380
-0.006659
-0.011812
-0.028150
-0.003776
-0.025705
-0.006420
0.024979
0.009260
-0.003708
0.003399
-0.025875
-0.046106
-0.008323
-0.014123
-0.004320
-0.024677
-0.037613
-0.013553
-0.008620
-0.003345
0.020939
0.017716
0.025328
-0.004612
-0.011090
-0.007633
0.004848
0.001245
0.009488
0.009759
0.005924
-0.004849
-0.008353
0.046671
0.037192
-0.003542
-0.008946
-0.074425
-0.040671
-0.034496
0.029082
0.010668
-0.035844
-0.020815
-0.022615
-0.022174
0.000680
0.030701
0.025102
0.020005
-0.015605
0.025941
-0.014832
-0.024508
-0.039955
-0.043143
-0.024190
-0.016635
0.007477
0.016936
-0.008223
0.005556
0.008539
0.000944
0.017344
0.009208
0.021395
0.006177
-0.006813
-0.034092
-0.028509
-0.007361
-0.020497
0.007380
0.053431
0.038664
0.045904
-0.006522
-0.015307
-0.009612
0.015436
-0.000507
0.028611
0.001632
0.015296
-0.007417
-0.036630
0.009607
0.005146
-0.003081
0.022838
0.019750
0.004004
0.002404
-0.023038
-0.009511
-0.011664
-0.029581
0.013257
0.005203
0.007952
-0.013366
-0.013600
-0.021473
-0.015560
-0.036909
-0.069122
-0.043345
-0.063635
0.010950
0.061539
0.035694
0.045325
0.023863
-0.006399
-0.017298
-0.013642
-0.030276
-0.033752
-0.025075
0.017442
0.011337
-0.010769
0.025421
-0.003880
-0.000400
-0.034357
-0.029957
-0.035220
-0.004670
0.000136
0.015093
0.007315
0.000265
-0.005725
-0.020515
-0.034395
-0.038467
-0.011822
-0.005085
0.032118
0.006915
-0.040167
0.004444
-0.012935
0.034964
0.017240
0.024529
-0.005539
-0.014540
0.020846
-0.029171
-0.035096
-0.035990
0.001014
0.023338
0.008672
0.020368
-0.006143
-0.011276
0.010051
0.024095
0.019869
0.015705
-0.003474
-0.004002
0.016146
-0.008340
0.001107
0.000117
-0.002160
-0.003239
-0.001966
-0.016971
-0.005075
0.002200
0.000381
-0.003458
-0.016586
0.013860
-0.027247
0.014246
0.023578
0.032196
-0.010952
-0.006378
-0.028146
-0.015545
-0.026919
-0.030863
0.021315
0.050071
0.034884
0.030856
-0.023605
0.024321
0.081657
0.034143
0.062224
-0.050611
-0.128592
-0.062666
-0.063387
0.010012
-0.021582
-0.025582
0.044868
0.007270
0.001579
-0.007883
0.016645
0.020168
-0.009101
-0.015489
-0.025739
0.004010
-0.016650
0.058265
0.026350
0.042033
-0.002687
-0.030847
0.022278
0.060831
0.012485
0.065288
-0.019371
-0.042805
-0.029165
-0.021836
0.009293
0.007782
0.024324
0.036538
0.011883
-0.001950
-0.028710
-0.005673
-0.023700
-0.010071
-0.040279
-0.016639
0.025313
0.000485
0.070510
0.061931
0.037276
-0.029598
0.006690
-0.005306
-0.022214
0.002697
0.013294
0.019864
-0.046253
-0.014677
-0.027596
-0.000673
0.024863
-0.004524
0.013179
-0.048440
-0.016638
0.020545
0.024908
0.042266
0.008673
-0.039232
-0.029339
0.024852
0.015675
0.058752
0.019283
0.032469
-0.017273
0.006163
0.007402
-0.006201
-0.036520
-0.043819
0.015336
0.076871
0.022599
-0.011611
-0.067071
0.021336
-0.003023
-0.006250
-0.025567
-0.029437
0.017086
-0.005947
0.011365
-0.007977
0.019839
0.023996
0.011480
0.008085
0.000676
-0.015933
-0.020223
-0.030196
-0.019184
-0.033862
-0.046289
0.023041
0.026020
0.055931
0.043806
0.017630
-0.014342
-0.025140
0.016928
0.031247
0.020800
0.030663
0.022608
0.005408
0.002779
-0.000919
-0.031649
-0.021162
-0.016378
-0.018224
-0.021522
-0.016453
0.010984
0.007234
-0.009400
0.015043
0.003085
-0.005796
0.009181
0.005784
0.010729
0.012575
0.003752
0.009323
-0.001854
-0.010259
-0.016193
-0.032045
0.005210
-0.017948
-0.013302
-0.006240
0.022448
0.025309
-0.020085
-0.015017
0.016683
0.007343
0.040378
0.023891
0.006677
-0.001685
-0.035794
0.023293
0.011755
-0.032625
-0.022824
-0.030910
0.058730
0.005941
0.039675
-0.015568
-0.013331
-0.007404
-0.013007
-0.011701
0.016499
0.013378
0.013652
-0.004411
-0.012183
0.061558
0.053819
-0.003778
0.015863
-0.073206
-0.079420
-0.027777
-0.015819
0.021141
0.006462
0.029493
-0.008219
0.022535
-0.023346
0.002040
-0.028517
-0.033663
-0.035941
0.003721
-0.004995
-0.003370
0.001357
0.007725
0.005137
-0.003239
0.010964
0.011328
-0.009690
-0.007468
0.005236
-0.014034
-0.013055
0.002991
0.015692
0.030454
0.013114
0.026615
0.043061
0.003233
0.009608
0.008257
-0.014943
-0.036864
-0.065348
-0.036816
-0.009499
-0.020048
-0.016531
-0.000926
-0.001624
-0.002682
0.007960
0.020865
0.014338
-0.019589
0.015450
0.018150
-0.014798
0.004569
0.000584
0.007594
-0.020407
-0.017161
-0.003039
-0.000852
0.005097
0.017658
0.005723
0.012616
0.030040
0.022226
0.031262
0.004419
-0.003962
0.003382
-0.013314
0.007410
-0.003688
0.005420
0.016921
0.004311
-0.020145
0.003916
0.001570
0.003535
-0.000651
0.003620
0.020207
0.009834
0.010970
0.107318
0.223276
0.043905
0.009147
0.051993
-0.037646
-0.106954
-0.150936
-0.139086
-0.011806
-0.001572
-0.013300
-0.014664
-0.009267
-0.016028
-0.022184
-0.009072
-0.002758
0.015943
0.001467
-0.014349
-0.014192
-0.017321
-0.017109
-0.023826
-0.050597
-0.022647
0.000284
-0.002176
-0.008155
-0.008007
-0.000783
-0.009327
-0.008828
-0.007343
-0.001785
0.009297
0.009642
0.013525
0.003371
-0.009711
0.008118
-0.000684
-0.008784
-0.001116
-0.006670
-0.023400
-0.021312
-0.009638
-0.011230
-0.008306
-0.019596
-0.013063
-0.017492
0.006149
-0.004029
0.011574
-0.000770
-0.007489
-0.006229
-0.002839
0.011794
-0.001747
-0.036646
-0.025667
-0.018065
0.011396
0.011574
0.022349
0.020127
0.026845
0.023129
0.015206
0.007500
0.012318
0.003709
0.007888
0.004764
-0.007937
-0.004500
-0.017613
-0.011844
-0.014156
-0.007368
-0.003013
0.000307
-0.008337
0.013348
0.023189
0.008707
-0.000630
0.002749
-0.010998
0.002778
0.003769
-0.002615
0.000322
0.004395
-0.009095
-0.016370
-0.039423
-0.009376
-0.006232
-0.022928
-0.004893
0.013680
0.008416
0.011313
0.012332
0.015348
0.026049
0.010808
0.012752
-0.003513
-0.015087
-0.027542
-0.032737
-0.010108
-0.005757
-0.002349
0.007066
0.022060
0.006741
-0.016817
-0.023880
-0.035398
-0.014867
-0.020363
-0.013457
-0.012968
-0.012440
-0.010927
-0.011655
-0.028276
-0.019787
0.015209
0.000410
0.016789
-0.001460
0.001951
0.000010
-0.010357
-0.020155
-0.022307
0.018043
0.005308
0.011181
-0.014241
-0.027944
-0.021868
0.001751
-0.006802
0.006744
0.012667
0.000400
0.006098
0.002115
-0.008180
0.004346
-0.008362
-0.007836
-0.002837
0.005492
-0.002482
0.003064
0.014400
0.008806
0.003344
0.012500
0.004907
0.009409
0.009614
0.005093
-0.000409
-0.011870
-0.014929
-0.004547
-0.017052
-0.021838
-0.005545
0.007885
0.000783
-0.003721
-0.005121
-0.023441
-0.022510
0.002032
-0.014323
-0.016432
-0.004517
0.004087
-0.004218
-0.013535
-0.016105
0.003751
-0.001383
0.007000
0.018435
0.011570
0.007013
0.004166
-0.006060
-0.004654
-0.007041
-0.019818
-0.003857
-0.011516
0.016218
0.037391
0.018427
0.005581
0.002115
-0.006893
-0.034325
-0.047753
-0.021274
-0.147702
-0.195196
-0.078030
-0.003160
0.035285
0.055592
0.075389
0.229890
0.117859
0.009763
-0.008921
0.002494
0.000701
0.012169
-0.002230
0.007538
-0.015429
0.001060
-0.006456
-0.025488
0.019360
0.000190
-0.007904
0.016200
-0.000285
-0.011027
-0.002094
-0.011107
-0.002690
0.000028
-0.009661
-0.020975
-0.012751
0.009712
0.002724
0.020596
-0.053328
-0.033587
-0.006266
0.001422
-0.003633
0.010111
0.008598
-0.005680
0.027603
0.004099
-0.017336
-0.026620
-0.018803
0.018184
0.026040
-0.019037
-0.018623
-0.022298
0.005549
0.029542
0.027173
-0.012733
-0.009842
-0.005136
0.003138
-0.019087
-0.016028
0.026323
0.021829
0.007114
0.016744
0.007553
0.003095
-0.004786
0.006286
-0.001290
0.019876
0.013024
0.021568
-0.010919
0.007940
-0.005339
-0.000168
0.007485
-0.012872
-0.005420
0.006694
-0.012039
0.005752
0.016235
-0.009508
0.001566
0.010719
-0.016642
-0.006326
0.008423
0.020336
0.003335
-0.001792
-0.007953
0.003551
0.005149
-0.019106
-0.021985
0.000478
-0.008654
0.010280
-0.003917
-0.025393
0.009234
0.018373
0.014432
0.005273
0.004409
0.020824
0.001649
0.007064
0.005704
0.010703
0.012664
0.028326
0.035027
0.033795
0.015697
0.019861
0.006655
0.015128
-0.007041
-0.020196
-0.003273
-0.007650
0.003170
-0.028592
0.019152
0.011958
0.004009
-0.006998
-0.007768
-0.001676
-0.013943
-0.013940
-0.003002
0.016490
0.003960
0.004246
-0.001845
0.003450
0.002811
-0.039522
-0.030134
-0.041743
-0.020749
-0.021372
-0.037029
0.003229
-0.008231
-0.002788
-0.005764
-0.011088
-0.013678
-0.013496
-0.005694
-0.006371
0.034049
0.032596
0.028332
0.006487
-0.002413
-0.011734
-0.000212
0.021415
-0.018121
-0.041684
-0.024735
-0.018106
-0.037762
-0.034146
-0.015430
-0.029709
-0.015088
-0.010145
-0.021654
0.000500
-0.002925
-0.037977
-0.014026
0.007676
0.036163
0.010775
-0.009117
-0.028598
-0.044664
-0.023276
-0.018482
-0.051726
-0.024365
0.001825
0.006212
0.015977
0.014270
0.017076
0.006843
-0.008119
-0.014549
-0.007062
0.000652
0.008597
0.010450
0.000118
0.006234
-0.005865
0.015691
0.040970
0.024204
0.004782
-0.014744
-0.010282
-0.034852
-0.059600
-0.051228
0.022412
0.039573
0.004124
0.022328
0.003121
0.015412
-0.029990
-0.036034
-0.021234
0.008116
-0.004454
-0.000501
-0.009840
-0.013550
-0.013071
-0.004420
0.002747
-0.003031
-0.010039
-0.012721
0.001547
0.015876
0.005393
0.011689
0.017483
0.018583
0.020455
0.001039
0.000922
-0.001704
0.001585
0.008334
0.009399
-0.004845
0.003428
0.015458
0.014040
-0.019570
0.001273
0.000305
0.012571
0.012803
-0.012165
-0.000541
0.000499
-0.005065
-0.006777
-0.021515
-0.015106
-0.002036
0.008571
-0.008598
-0.003143
0.007733
-0.012055
-0.013387
-0.002513
0.002796
-0.018548
-0.003120
-0.014056
-0.025898
-0.005321
0.006356
0.019788
-0.011564
0.006917
-0.030424
0.046427
0.017781
-0.019380
0.026072
-0.014839
-0.035395
-0.003561
0.001443
-0.059523
-0.002426
-0.010529
-0.031895
-0.001889
0.005957
-0.014763
-0.009052
0.013798
-0.026054
0.006894
0.006396
-0.017974
0.013108
0.011527
-0.044518
-0.043868
-0.042600
-0.021696
-0.026098
-0.017384
0.073213
0.018331
-0.009374
-0.026550
-0.015659
0.000315
-0.006095
0.006525
0.017781
0.023118
-0.017396
0.025177
0.000800
-0.005147
0.032842
-0.005186
-0.032091
-0.018704
0.000661
0.006269
-0.011868
-0.005910
-0.026964
0.030447
0.036973
-0.003198
0.018831
0.027696
0.006862
-0.008540
-0.022154
0.028654
-0.020325
-0.003037
0.024787
-0.016651
-0.039002
0.018120
-0.005957
-0.001060
-0.036251
0.001742
0.077736
-0.011524
-0.020674
0.011172
0.013914
0.010438
0.068687
0.014016
-0.032564
0.009416
-0.008201
-0.039109
-0.052268
-0.061141
-0.020193
0.023905
0.017484
-0.031896
-0.012947
0.024177
-0.017417
-0.028513
-0.010105
0.039700
0.027058
-0.035384
0.016008
-0.033820
-0.024133
-0.068404
0.022342
0.007860
-0.048131
-0.039172
-0.003502
0.014410
0.020490
0.013389
-0.012804
-0.015701
0.015600
0.010948
0.027292
0.017366
-0.013741
-0.016690
0.016108
-0.008042
-0.021847
-0.002020
0.017618
-0.024637
0.021171
0.008665
0.000615
0.041677
-0.026710
0.015128
0.042702
-0.011889
-0.037940
-0.036223
0.042487
0.059836
0.013151
0.017852
-0.012448
0.005664
0.013365
