0.122052
0.259610
0.120670
-0.019330
-0.034377
-0.021261
-0.081783
-0.239902
-0.113276
0.130562
0.250558
0.177085
0.000609
0.037638
0.033372
-0.191014
-0.264596
-0.152114
0.080125
0.100934
0.087648
0.009901
-0.005746
0.029437
-0.049116
-0.206208
-0.061538
-0.354419
-0.565438
-0.324409
0.106635
-0.079853
-0.026346
0.374907
0.503230
0.381455
-0.404412
-0.682005
-0.351818
0.135537
-0.040572
0.010398
0.361087
0.546780
0.402589
-0.130706
-0.228709
-0.070443
0.081091
0.000216
0.018171
0.081890
0.161533
0.102829
0.025578
0.029076
0.005274
0.069813
0.125684
0.069903
0.098638
0.121924
0.084340
0.022508
0.024900
0.029374
0.051166
0.097420
0.104127
0.042728
0.053713
0.046906
-0.028862
-0.076442
-0.060172
-0.095899
-0.171227
-0.106591
-0.197904
-0.247686
-0.172117
-0.030265
-0.026948
-0.040960
-0.052538
-0.087766
-0.047202
-0.019661
-0.064796
0.000800
0.009197
0.001657
0.032022
-0.074296
-0.153116
-0.046743
0.003649
-0.127088
0.027637
0.034815
0.056285
0.048910
0.008293
-0.045477
-0.016459
0.022751
-0.080475
0.035377
-0.185087
-0.025442
0.266318
-0.417007
-0.078713
0.413462
-0.358937
0.061710
0.331178
-0.333128
-0.006406
0.377570
-0.638519
-0.066921
0.597565
-0.468909
0.084539
0.435733
-0.154800
0.011065
0.180683
-0.265677
-0.020082
0.258470
-0.230602
0.056189
0.178843
0.362356
0.164245
-0.060671
-0.613211
-0.451204
0.025293
0.263521
0.297817
0.020622
0.531724
0.239909
-0.058962
-0.874989
-0.635798
0.016498
0.336291
0.400269
0.033436
0.298867
0.134060
-0.006037
-0.406916
-0.269106
0.039205
0.123096
0.139523
-0.049336
-0.165315
0.015352
-0.037965
0.006463
0.258188
0.073940
-0.107772
0.059925
0.035949
-0.253503
-0.035023
-0.059873
-0.032549
0.313930
0.088904
-0.073867
0.140111
0.100387
-0.071354
0.027508
-0.002928
0.020796
0.172896
0.012982
-0.030961
-0.029137
-0.039951
0.258534
0.425665
0.271017
-0.130571
-0.013356
0.105472
-0.391301
-0.402382
-0.127922
-0.013315
-0.078223
-0.136590
0.044041
0.020146
-0.035484
0.101688
0.065477
0.025137
-0.251641
-0.353809
-0.153923
0.087229
-0.002294
-0.060291
0.303811
0.353920
0.094956
0.200893
-0.493087
0.310845
0.332324
-0.634185
0.294469
0.146770
-0.219402
0.061179
0.273545
-0.729185
0.467127
0.453112
-0.920048
0.398559
0.223642
-0.264794
0.096887
0.130942
-0.333375
0.229540
0.209389
-0.413585
0.180055
0.065785
-0.073225
0.007339
-0.038910
-0.018494
-0.070234
0.069323
0.151933
0.090806
0.063199
0.074466
0.029808
-0.029432
-0.020916
-0.017529
-0.147175
-0.116339
-0.029056
-0.240311
-0.291411
-0.167061
0.091715
0.080553
0.040722
0.109694
0.133055
0.142874
0.090905
0.047423
0.060817
0.289390
0.109024
-0.287855
0.431990
-0.063872
-0.455357
0.318501
-0.028067
-0.295513
0.423465
0.142288
-0.445310
0.605802
-0.060109
-0.672266
0.411969
-0.025890
-0.402147
0.154795
0.113795
-0.164737
0.214453
-0.030913
-0.234654
0.134647
-0.029097
-0.142531
0.147016
0.025809
0.097766
-0.004909
-0.204023
0.012394
-0.049506
-0.082359
0.130476
0.028860
-0.000743
0.016438
-0.026480
-0.153011
0.019726
-0.080517
-0.071471
0.039097
-0.104221
-0.027534
-0.106189
-0.005687
-0.021167
-0.048249
-0.060056
-0.001320
-0.103879
-0.105834
-0.159716
-0.076788
-0.139166
-0.198107
-0.061725
-0.236111
-0.212535
-0.038068
0.171075
0.147865
0.170011
0.186009
0.130568
0.182832
0.136940
0.117739
0.163504
-0.001501
0.009935
-0.057095
0.017966
0.003714
-0.074174
0.034574
0.027258
-0.105725
0.259351
0.471673
0.246869
-0.007326
-0.044701
0.045748
-0.216856
-0.458902
-0.279244
0.416101
0.736350
0.459512
-0.028066
-0.060998
0.081595
-0.406419
-0.756785
-0.452656
0.166852
0.319069
0.190402
-0.007777
-0.035539
0.056421
-0.174334
-0.316738
-0.190924
0.052540
0.063172
0.073235
0.026126
0.031302
0.089287
-0.058837
-0.006269
0.035852
-0.019636
-0.185743
-0.156592
-0.148857
-0.297398
-0.200294
-0.141269
-0.180399
-0.113429
0.149125
0.096542
0.058964
0.137660
0.082729
0.093059
0.148841
0.145788
0.139215
0.129096
0.182271
0.103543
0.201868
0.270663
0.107380
0.179592
0.183761
0.091953
-0.144605
-0.149344
-0.113241
-0.199534
-0.220660
-0.143591
-0.169189
-0.169283
-0.104257
0.014608
-0.023486
0.008164
-0.007531
-0.065973
0.008400
-0.001988
-0.018122
0.026122
