0.012065
-0.069308
-0.007435
-0.040945
0.023602
0.035608
-0.119302
-0.064097
0.001059
-0.005247
0.042350
0.031739
0.000346
-0.002719
0.017959
0.068061
0.004921
-0.014102
-0.013163
0.001341
-0.013826
-0.045118
-0.014059
-0.003364
0.035032
0.047664
0.015802
-0.003964
0.016810
-0.018202
-0.020888
-0.035297
-0.063178
-0.004119
-0.008317
-0.011705
-0.019775
-0.017396
0.081170
-0.129537
-0.098722
0.048912
0.035945
0.015810
0.068243
0.087932
0.028232
0.100852
0.076825
0.082750
0.119984
0.101831
0.014519
0.077707
-0.067801
0.056136
-0.018025
-0.029995
0.050333
0.003853
-0.008189
0.020985
-0.029247
-0.001903
-0.020767
0.047061
-0.005146
-0.024653
0.017846
0.057114
-0.003265
0.030935
-0.090244
-0.114006
-0.023168
-0.224815
-0.283297
-0.194350
-0.042553
-0.066437
-0.038550
-0.042336
-0.038853
0.045639
-0.067178
-0.047067
0.051199
0.011676
0.011860
0.049733
-0.151102
-0.202092
0.047673
-0.316563
-0.308902
-0.045107
-0.000531
-0.112756
0.002178
0.007623
0.021645
-0.038985
0.006433
0.006588
-0.048936
0.025070
0.023057
-0.008446
-0.012070
-0.015899
0.032067
-0.017699
-0.024947
-0.014108
-0.006282
0.003769
0.002877
0.002919
0.027396
0.019280
-0.012596
-0.059609
0.032979
0.113666
0.069767
0.007889
0.023578
0.000973
-0.010720
0.016184
-0.004348
-0.009741
0.005946
0.006806
0.006025
-0.022241
-0.016765
-0.014845
-0.036396
-0.021125
0.010308
0.029208
0.023766
0.016726
-0.077864
-0.163784
-0.117539
0.233021
0.004105
-0.169108
-0.001152
0.127177
0.052513
-0.044511
-0.120875
0.110464
0.017689
0.203452
-0.206141
0.016506
-0.085336
0.090606
0.038329
0.018371
-0.023987
0.010762
-0.016880
-0.035423
-0.004110
0.013295
-0.023266
0.063249
0.012999
-0.123900
-0.045631
0.079799
0.085147
-0.017495
-0.071721
0.035913
0.100732
0.136781
-0.122017
-0.191719
-0.160716
0.171419
0.056724
-0.006851
-0.058236
0.059140
-0.088704
-0.164657
-0.057069
-0.001160
0.107087
0.017781
-0.076823
-0.112376
-0.032557
0.068684
0.048477
0.018023
-0.067749
-0.015304
0.012231
-0.016164
-0.008027
-0.003486
0.012900
-0.032302
-0.002003
-0.020876
-0.012451
-0.000473
-0.013421
-0.004127
0.046801
-0.110390
-0.069961
-0.153287
0.033899
-0.155800
0.009265
-0.106445
0.030358
0.040175
0.120981
-0.001395
-0.084946
-0.103986
-0.001918
0.028005
0.027558
-0.010392
-0.107146
-0.182307
0.004622
0.126537
0.081424
-0.265583
-0.007626
0.000377
0.127367
0.053414
0.026300
-0.101658
-0.040188
0.052756
0.100302
0.001104
-0.066463
-0.011248
-0.032631
0.005737
0.010101
-0.004042
-0.094950
-0.040428
0.072881
0.069136
0.014416
0.143835
0.310631
-0.060971
-0.272372
-0.102798
0.304392
-0.010906
-0.041402
-0.163599
-0.027499
-0.021954
-0.056714
0.011273
-0.011637
-0.011261
0.058289
0.034502
0.007751
0.035410
0.000976
-0.041333
0.005650
0.035540
-0.002337
-0.014580
-0.015036
-0.002371
-0.074531
0.003943
-0.014474
-0.085912
-0.048349
0.027341
-0.052631
-0.011093
0.019784
0.081276
-0.065151
0.005850
-0.122944
-0.131184
-0.003570
-0.029845
0.054157
0.021016
0.049510
0.042624
-0.044915
-0.009466
0.001925
-0.050797
-0.012331
0.000312
-0.013980
-0.096183
0.007537
0.038661
-0.030929
0.020324
0.039926
-0.039079
0.037356
0.021873
-0.292988
-0.002490
0.055870
-0.673740
-0.098433
0.019259
-0.203749
0.082714
0.043708
0.093584
0.001744
0.022798
0.028012
-0.024833
0.101900
0.070260
0.064149
0.042245
0.078123
-0.039683
-0.000962
0.013511
-0.040149
0.035275
-0.078936
0.070357
0.010907
0.042027
-0.063969
0.019186
-0.088568
-0.094121
0.059070
-0.018438
0.009101
0.043624
-0.027094
0.025428
0.013668
-0.058598
-0.003851
-0.010338
-0.017608
0.010707
0.007984
0.004076
0.006615
-0.029227
-0.016618
-0.017714
-0.038728
0.031006
0.025926
0.007388
-0.026133
0.032851
0.003918
-0.036477
-0.006216
0.048073
-0.040060
-0.007013
-0.020630
-0.047304
0.021119
-0.028444
-0.010763
0.052382
0.016271
-0.015556
0.063238
-0.007302
0.020517
-0.057306
-0.043757
0.030737
-0.051296
-0.025916
0.069430
0.011014
0.031279
0.042431
0.000989
-0.005776
-0.028544
-0.057956
-0.004112
0.015951
-0.027726
0.042730
0.018206
-0.025832
-0.038037
0.017335
-0.018254
0.001756
0.030110
0.003222
0.020098
0.065172
0.048006
-0.016569
-0.009467
0.005738
-0.027945
-0.017863
-0.010651
-0.025918
-0.049092
0.027432
-0.049725
-0.065415
-0.005207
0.073124
0.000913
0.016603
0.018030
0.055869
0.067558
-0.019895
0.144829
0.005384
-0.078877
0.049282
-0.075162
-0.039655
-0.001772
-0.061706
0.030462
0.045088
-0.035745
0.041241
0.053798
-0.045610
0.025929
0.189814
0.204576
-0.131360
0.126151
-0.031435
-0.229502
-0.016887
-0.083761
-0.148421
0.043259
0.218885
0.026095
0.059841
0.104748
-0.135085
0.014008
-0.042032
-0.094164
0.006384
0.070031
-0.067707
0.066290
0.071973
-0.099263
0.013463
-0.023293
-0.024452
0.012933
-0.161686
-0.023742
-0.125772
-0.031529
-0.028304
-0.077959
-0.050241
-0.044789
0.040432
0.044077
-0.024688
0.067150
-0.027070
-0.054889
0.006706
-0.059226
-0.016076
0.015529
0.106757
-0.044416
0.031049
0.066631
-0.079137
-0.061733
-0.087444
-0.067466
0.000743
0.007828
0.037347
-0.010347
-0.001924
0.029383
0.021395
0.012449
0.036347
-0.022175
-0.081191
-0.034196
-0.004067
-0.013042
-0.060048
-0.052771
-0.067572
-0.059132
0.058885
0.152139
-0.011337
0.023672
-0.001114
-0.106770
-0.024714
-0.047689
-0.076266
0.043365
0.034178
0.012187
0.030675
-0.031533
-0.049525
0.031685
-0.041846
-0.006883
0.083207
-0.035819
-0.040455
-0.026101
-0.068057
-0.091363
-0.028365
-0.030451
-0.032970
0.029514
0.003265
-0.012566
-0.018803
-0.036289
-0.027816
-0.005590
-0.010264
0.013114
-0.072668
-0.070423
0.040416
-0.036673
-0.033283
0.047223
0.033803
-0.003571
0.039687
0.009321
-0.143867
-0.070564
-0.051451
-0.022557
0.025705
-0.017159
-0.065846
-0.009997
0.026764
-0.021073
0.026323
-0.125689
-0.474876
-0.245658
-0.283135
-0.310504
-0.045544
0.049733
0.057038
0.008106
0.017737
-0.030377
-0.033178
-0.012447
-0.031031
-0.001591
-0.100047
-0.085548
-0.001778
-0.074605
0.044296
0.077330
-0.005883
0.026524
0.055985
0.019005
-0.003328
-0.091432
0.032882
-0.240213
-0.043825
-0.045475
-0.092220
0.007649
0.031883
0.015710
-0.009477
0.054682
-0.102516
-0.060257
-0.019733
-0.077561
0.031635
0.001928
0.027783
-0.017229
0.079842
0.007925
-0.049789
-0.048057
-0.202658
-0.094910
0.028770
0.003586
0.024230
-0.004921
-0.075109
-0.046542
0.000987
-0.056037
0.028149
0.056394
0.013471
0.043543
0.027026
0.012999
0.024446
0.036279
0.071160
0.027018
0.072298
0.058864
0.063702
-0.000677
-0.043968
-0.052005
0.007315
-0.024352
-0.024610
-0.020868
0.003527
0.021043
0.062865
0.012300
-0.005463
0.018262
-0.050931
-0.004059
-0.037893
-0.061121
-0.049756
0.004676
0.014144
0.000181
0.010797
0.023967
0.028158
0.076552
0.031704
0.002540
0.001641
-0.018733
-0.038291
0.002563
-0.010437
-0.038247
0.033852
0.099193
0.103079
0.009334
-0.010611
-0.026615
0.036333
0.025741
0.029893
0.009566
-0.020465
-0.008343
-0.015158
-0.002842
-0.003114
0.025426
0.025278
0.003076
0.046881
0.057914
0.006629
0.042143
-0.026123
-0.050519
0.008797
-0.036197
-0.020264
0.016438
0.016867
0.002731
-0.001905
0.013048
-0.020032
-0.018281
-0.013180
-0.002864
-0.020540
-0.018318
-0.003682
0.005501
0.001714
-0.007562
0.002918
0.007414
-0.001048
-0.069214
-0.072427
-0.145150
0.081954
0.096532
-0.069418
0.193246
0.200079
0.003251
0.018117
-0.032217
0.008409
-0.022724
-0.111378
-0.039288
-0.026912
-0.109041
-0.031023
0.011797
-0.011531
-0.010240
0.004545
0.002484
-0.004244
0.005326
0.007182
-0.007419
-0.012641
-0.007088
-0.008393
0.006040
0.013365
0.012963
0.010318
0.013457
0.019409
-0.002071
-0.002705
0.012819
-0.005362
0.005226
0.017871
-0.004267
-0.009570
0.016490
-0.014198
-0.027246
-0.024015
-0.007807
-0.030517
0.028021
0.018221
0.051142
0.003042
0.010093
0.012881
0.003236
0.008112
0.011465
-0.000019
0.000646
0.009728
-0.017424
0.030362
-0.032941
0.065962
-0.096610
-0.227809
-0.014881
-0.094723
-0.221660
0.028686
-0.001455
-0.005376
-0.001266
0.016927
0.006828
-0.004048
0.011379
-0.003604
-0.020829
0.045809
0.032804
0.039939
0.035137
0.004456
0.046012
0.045029
0.027388
0.063027
-0.109492
-0.090203
-0.150010
0.088603
0.124665
0.012351
0.050628
0.096329
-0.035337
-0.018533
-0.019624
-0.004295
0.022921
0.002142
0.019033
0.030055
0.030310
0.010287
0.057284
0.011487
0.111927
-0.136828
-0.230485
0.011287
-0.176255
-0.283412
0.003917
0.035447
-0.009029
0.045071
-0.109526
-0.184918
-0.082892
-0.085539
-0.182595
-0.063867
0.011553
-0.004310
0.012174
0.032823
0.015591
0.058047
0.031715
0.030745
0.028046
-0.031919
0.002275
0.022725
0.024591
0.018993
-0.034188
-0.017041
0.016198
0.036015
-0.076049
-0.066429
-0.027657
-0.070654
-0.061896
-0.033929
-0.021062
-0.015023
0.019607
-0.011956
0.008624
-0.031166
-0.008944
0.020928
0.026280
-0.022625
0.015070
0.037012
-0.000922
0.007546
-0.007526
0.020467
0.028973
-0.046014
-0.012736
-0.015784
-0.016322
-0.037241
0.002944
-0.037922
-0.001927
-0.010848
0.009992
-0.023648
-0.022863
0.033369
0.010727
-0.001724
-0.019718
0.013706
0.022620
0.016697
-0.004696
0.000485
-0.001813
-0.003638
-0.010913
-0.064652
0.002040
0.049733
-0.032237
0.010968
0.050273
-0.044666
0.023986
0.033330
-0.025845
0.011081
0.018550
-0.055297
0.009701
0.020249
-0.028914
0.097087
0.106088
0.047369
0.094845
0.098752
0.035473
0.010182
0.006831
-0.033075
-0.001268
-0.005071
-0.021356
0.018207
0.010106
-0.005556
-0.012424
0.013147
-0.018152
-0.010021
0.001814
-0.027641
-0.012058
-0.008971
0.021609
-0.005747
0.016582
0.051408
0.046820
0.037515
-0.010516
0.069762
0.068174
0.049076
0.049125
0.064045
0.071148
-0.026796
-0.024169
-0.008309
-0.035501
-0.027685
-0.021178
-0.031075
-0.023852
0.011698
0.125251
0.135864
0.026493
0.136600
0.135960
0.036566
0.039884
0.015869
-0.044833
0.059199
0.092189
0.050932
0.059753
0.078407
0.015318
0.015509
0.004219
-0.048130
-0.006262
-0.082157
-0.059750
-0.033637
-0.064736
0.001156
-0.005462
-0.014234
0.018677
-0.008668
-0.015622
0.036523
-0.125172
-0.084411
-0.024881
0.054716
-0.087873
0.030105
0.067631
0.027489
-0.031628
0.006720
-0.007357
-0.046893
0.035527
0.006729
-0.016663
0.086413
-0.059696
-0.079992
0.130574
-0.039275
-0.043740
0.052171
-0.035461
-0.049011
0.023006
0.028418
-0.029660
-0.015186
-0.022979
0.006241
0.065293
0.012715
-0.009188
0.010197
0.001976
0.032547
0.015690
0.037199
0.047769
0.029340
0.013340
0.038019
0.003192
0.007921
0.043069
-0.042943
-0.046698
0.011236
0.005361
-0.029124
-0.010260
-0.025773
-0.008048
0.038115
-0.100370
-0.017753
0.008352
0.022056
-0.025550
0.046914
0.028546
-0.013442
0.022299
-0.095162
-0.004862
0.001748
-0.028737
0.040470
0.030890
0.011688
0.004142
-0.022899
-0.006585
-0.014637
-0.052190
0.074728
0.067422
-0.011597
-0.211254
-0.008222
0.003914
-0.731902
0.043421
-0.003000
-0.088507
-0.015434
0.014762
0.004586
-0.039312
-0.045741
0.073605
0.000967
0.000731
0.004850
-0.001591
-0.015753
-0.059629
0.020214
0.031399
-0.027296
0.044271
-0.014432
0.026531
0.041200
-0.032134
-0.016858
-0.019103
0.077580
-0.165939
0.006801
-0.017119
-0.033086
0.037755
0.008134
0.024713
-0.019428
0.006969
0.015428
0.005784
0.004649
-0.020070
0.007962
-0.013397
0.059110
0.029846
-0.027930
-0.001679
0.004633
-0.025908
0.007447
0.012157
-0.021877
-0.005741
0.002218
0.030578
-0.016613
0.010469
0.022898
0.031344
0.015608
0.037588
-0.028694
-0.048970
-0.000849
-0.029949
-0.003152
-0.008043
-0.006033
-0.021424
0.015592
-0.038558
0.033422
-0.011232
-0.011493
0.069905
0.009644
-0.056868
0.014569
-0.048701
-0.008985
-0.029501
0.004345
0.043346
0.020677
0.053600
0.006251
-0.036167
-0.008164
-0.208412
-0.013177
-0.158407
-0.228665
-0.011385
-0.172699
-0.188712
0.019568
-0.118923
0.054222
-0.003022
-0.004044
0.009969
-0.013427
0.025636
0.024438
-0.006577
0.036632
-0.030835
0.013955
-0.063768
-0.004612
0.049169
0.011998
-0.063342
0.005537
-0.019479
-0.013648
0.014115
0.022441
-0.001654
0.016360
-0.012179
-0.002294
0.016606
-0.000684
-0.100966
-0.188068
-0.092872
-0.101791
-0.205980
-0.132278
-0.072990
-0.192908
-0.117523
-0.019731
0.028950
-0.006638
0.009713
0.065608
0.012997
-0.016973
0.020569
-0.015849
-0.160678
0.015409
-0.173531
-0.200513
0.002399
-0.194093
-0.149923
0.013885
-0.191630
-0.017928
-0.019207
-0.022414
0.038345
0.039699
0.042430
-0.006953
-0.016931
-0.006754
-0.021892
0.046288
-0.002444
-0.016251
0.070166
0.013550
-0.072968
0.000280
-0.042130
0.000324
-0.036648
0.016606
-0.016160
0.012404
0.015984
-0.016412
-0.032854
-0.030662
-0.003596
0.016957
0.008276
-0.007507
0.023366
0.018155
-0.059044
-0.033251
-0.027700
-0.025626
0.015761
-0.008511
0.002675
0.048370
0.012176
-0.006544
0.034263
-0.004566
0.005087
0.004672
-0.008477
-0.002524
0.014456
0.059592
-0.031736
-0.011292
-0.061818
-0.004625
0.037140
-0.028953
0.019513
-0.031795
0.026947
0.102652
0.057699
0.033295
0.021843
0.032431
0.028664
-0.014350
-0.018099
-0.017237
-0.021365
-0.026497
-0.038099
-0.006668
-0.046747
-0.054947
0.015172
-0.019895
-0.020225
0.060571
0.060081
0.020546
0.105266
-0.004853
-0.005942
0.124980
-0.063664
-0.011299
0.110942
0.025259
0.057773
0.020715
0.027698
-0.033443
0.072810
0.083766
0.028431
0.040607
-0.000326
-0.006524
-0.057973
0.022441
-0.001244
-0.042692
-0.001416
0.041354
-0.042916
0.010314
0.020724
-0.024286
-0.058572
-0.071420
-0.004957
-0.038300
-0.029879
0.022516
-0.001909
0.016260
0.014836
0.004642
-0.020256
0.042999
0.049530
0.037989
0.016645
0.059125
0.010829
-0.014218
-0.021316
-0.014319
-0.018005
-0.020402
-0.021785
0.023582
0.017982
0.006303
0.034231
0.012623
-0.004821
0.033133
0.052833
0.027999
0.053248
0.031556
0.017645
0.045844
-0.000800
-0.001156
0.020922
-0.008640
-0.002718
0.001728
0.015432
-0.011810
0.020126
-0.026956
-0.031993
0.003250
-0.020629
-0.021454
-0.010901
-0.014970
-0.004128
0.009375
0.002433
0.015315
-0.045929
-0.037870
0.000433
0.159021
0.206621
0.062079
-0.000519
-0.020637
-0.035876
0.015735
0.000663
-0.013107
0.017780
0.013180
-0.001432
-0.000738
0.019642
0.014651
-0.010178
-0.004882
-0.019599
-0.010146
-0.011192
-0.040522
-0.028858
-0.024058
-0.005732
-0.007092
-0.007734
0.002752
0.017378
-0.015607
0.000309
0.006895
0.002678
0.016915
-0.002680
-0.015724
-0.005051
0.008197
-0.005597
0.013976
-0.417494
-0.322313
-0.209016
-0.144024
-0.082631
0.057523
0.233037
0.360365
0.468495
0.113707
0.110811
0.033550
0.024217
0.019536
-0.057383
-0.087745
-0.062260
-0.105319
0.003097
0.001344
0.011522
-0.004905
-0.009018
0.001028
0.012479
-0.002844
0.002578
-0.000434
-0.002164
0.010934
-0.003278
-0.006969
0.014073
-0.005129
-0.001849
0.003641
-0.018543
-0.010443
-0.017631
0.004268
-0.010302
-0.008192
0.009971
0.005391
0.005345
-0.123780
0.056077
-0.142255
0.005973
0.091166
0.030092
0.038071
-0.056515
-0.036648
0.004052
0.007784
0.007299
-0.002716
-0.000362
-0.006446
-0.003871
0.003165
0.004179
0.201834
0.043324
0.000788
0.195626
-0.027254
-0.146473
0.071625
-0.135653
-0.251351
0.000389
-0.002959
0.002873
-0.008229
-0.012106
0.000780
0.008940
0.001385
0.006073
-0.205987
-0.174268
-0.193807
0.008089
0.006511
0.044724
0.113979
0.152020
0.228580
0.001262
0.189076
0.329364
-0.243919
0.102438
0.202908
-0.496991
-0.147695
0.003247
0.010117
0.014159
0.014359
-0.000825
-0.014809
-0.013463
0.011207
0.002802
0.022592
0.195514
0.131081
0.038235
0.125524
0.031759
-0.072195
0.010421
-0.169753
-0.316979
-0.021897
-0.237829
-0.418069
0.290095
-0.053082
-0.281697
0.514162
0.204378
-0.022044
-0.022275
-0.025110
-0.073528
0.011562
-0.034450
-0.043038
0.007512
-0.008703
-0.023490
0.042769
-0.002206
-0.043041
0.018280
0.100488
0.051212
-0.049937
-0.085234
-0.009681
0.007713
-0.004521
0.006853
0.015823
-0.000240
0.010781
0.041129
0.030926
0.042617
-0.131858
-0.116403
-0.090064
-0.215255
-0.233413
-0.135829
-0.154420
-0.185727
-0.138536
-0.043533
0.006803
-0.030886
-0.102975
-0.030722
-0.034680
-0.005906
0.011188
-0.023025
0.009711
-0.003378
-0.044386
-0.026120
-0.067790
0.028645
0.017352
-0.050194
-0.023499
0.104595
0.047938
0.029071
0.081448
0.091334
0.016242
0.112492
0.094456
0.044891
0.008091
0.050283
-0.057215
0.002388
0.062029
0.022923
-0.002436
-0.002859
0.016706
0.020221
0.014272
-0.023807
-0.072933
0.034959
0.025912
-0.031288
-0.083880
-0.016980
0.051518
0.049199
0.008319
0.059466
0.103266
0.049506
-0.002823
0.026772
0.024716
0.006200
0.054010
0.025539
-0.095297
0.087992
0.035613
0.008467
0.003673
0.027922
-0.004721
-0.010685
0.023089
-0.054161
-0.078708
-0.004399
0.025876
-0.015921
0.001101
-0.014227
0.027102
0.003150
-0.002428
0.046735
0.030304
-0.013448
0.016648
0.020715
0.018563
0.017205
0.009717
0.012597
0.028128
0.022880
-0.005812
-0.037686
0.039072
-0.005216
-0.007374
-0.008563
-0.029892
-0.017411
-0.019229
-0.028446
-0.029804
-0.023258
-0.011710
-0.011654
-0.025096
0.011430
0.023458
0.011351
0.027224
0.038284
0.033844
-0.177572
-0.099764
-0.011442
0.050023
0.000663
0.059442
0.030519
0.070527
0.002686
0.037928
0.009853
0.009096
-0.006617
-0.067403
-0.146892
-0.059930
-0.002242
0.026107
-0.011851
0.023481
0.049934
-0.017415
-0.006489
0.011484
-0.019985
-0.019362
-0.007691
0.126305
0.104990
0.017502
0.094242
0.047028
-0.114438
-0.014352
-0.108308
-0.171603
-0.013160
-0.109927
-0.065164
0.018514
-0.049360
0.052343
0.054671
-0.067027
0.015416
0.045783
0.067316
0.091407
0.167437
-0.057712
-0.120958
0.010912
-0.044721
-0.000917
0.042351
-0.017383
-0.025366
-0.087142
0.013377
-0.010815
0.001645
-0.002148
0.035119
0.072906
-0.049742
-0.033606
-0.012844
-0.148739
-0.042474
-0.007903
-0.056680
0.035356
0.012288
0.087423
0.023214
0.029587
-0.032104
-0.006739
0.037827
0.005254
0.027044
0.045297
-0.013528
-0.023616
-0.057516
-0.069049
-0.003260
0.044555
0.036570
0.074234
0.076644
0.055493
-0.007506
-0.021150
-0.390750
-0.057225
-0.016264
-0.163008
0.074841
0.052241
0.050960
0.016909
0.027992
0.009606
-0.038812
-0.066881
-0.058156
-0.072163
0.047781
0.006672
-0.041200
-0.007031
-0.064618
-0.052997
0.047969
0.032405
0.042639
0.204457
0.113152
0.035882
-0.020306
-0.444196
-0.226517
-0.078182
-0.064687
0.063164
-0.003974
0.021229
-0.057442
0.070402
0.012836
-0.051624
0.002080
-0.016304
-0.001740
-0.052750
0.006672
0.052841
0.003412
0.008577
0.038256
-0.023756
-0.016589
0.028583
0.003964
0.093890
-0.030894
0.027676
0.034801
0.106939
-0.139560
0.008058
-0.017964
-0.062987
-0.007076
0.073138
-0.013973
-0.114380
-0.035930
0.035036
0.009887
-0.031779
-0.006036
-0.007018
-0.014386
0.022956
-0.019748
-0.035407
0.029126
0.027940
0.017132
-0.056884
0.101384
0.095073
-0.182239
-0.029565
0.069399
-0.026823
-0.087530
0.008246
0.028355
-0.224846
0.046285
-0.068038
-0.488647
-0.091464
0.115071
-0.053745
-0.057591
0.034590
0.004781
0.062036
0.030861
-0.073364
0.057555
0.098601
0.005703
-0.000495
0.024477
-0.022878
0.005491
-0.004712
-0.038578
-0.105092
-0.018380
0.017887
-0.037829
-0.005439
-0.059702
0.051440
0.050947
-0.086847
-0.046651
0.036692
0.042407
-0.020287
0.017033
0.025687
0.053109
-0.040264
-0.094440
0.000565
0.043472
-0.026252
0.001665
-0.030549
-0.039685
0.014598
0.054007
-0.084751
-0.069237
0.087139
0.067680
0.005772
0.030369
-0.026103
0.009713
0.042020
0.007305
0.005516
0.013646
-0.049381
0.006945
-0.003587
0.051283
-0.008885
-0.091179
-0.024372
0.024479
0.024138
-0.049571
0.003050
0.048443
-0.041411
-0.076712
0.057901
-0.003126
-0.073099
0.020957
0.045213
0.009628
-0.086529
-0.088198
0.115974
-0.099565
-0.444245
-0.139687
0.181882
0.062821
-0.024443
0.021033
0.037663
0.029501
-0.019705
0.015118
0.058001
-0.026405
-0.050440
-0.034550
0.011511
-0.001799
-0.018456
0.023014
-0.015981
-0.007589
0.045898
0.005164
-0.007523
-0.122890
-0.188314
-0.120148
0.033154
0.015863
0.015324
0.007158
-0.027737
-0.015883
-0.040163
0.026639
0.048091
0.007516
0.068965
0.012150
-0.050815
-0.016217
-0.068963
-0.019487
-0.040474
-0.041596
0.047533
0.039895
0.041455
0.044807
0.057358
0.052740
0.093623
0.210118
0.117306
-0.010944
0.039577
0.012095
-0.079359
-0.021927
-0.034139
-0.086498
-0.050805
-0.057561
0.030840
0.022745
-0.006011
-0.020336
0.012919
0.043363
-0.019679
0.126399
0.092766
-0.008748
0.061727
0.027370
-0.070015
0.044228
0.042350
0.051267
0.007739
0.029626
0.047809
-0.029999
-0.007905
0.003200
-0.018195
-0.002346
0.011326
0.127578
0.103013
0.060180
0.103532
0.048362
0.020219
0.046242
0.013710
-0.078331
-0.006524
-0.048043
0.015040
0.095296
0.034716
0.015148
0.045849
0.047198
0.040487
0.098267
0.062176
-0.040197
0.003703
0.005007
-0.055294
-0.017967
-0.012251
-0.037060
-0.067090
-0.028252
-0.018070
0.008075
0.028625
0.013093
0.018214
0.013148
0.065778
0.178025
0.094413
-0.009254
0.009102
-0.029936
-0.037057
0.022001
0.011340
0.027456
0.030046
0.037296
0.001539
-0.017644
-0.011546
0.068131
0.017595
0.004692
0.160320
0.247643
0.159434
-0.002660
-0.045714
-0.014179
-0.030421
-0.025851
-0.040859
-0.000488
0.057042
0.010521
-0.018777
0.002167
-0.028730
0.013310
0.056499
0.042757
-0.010317
0.002547
-0.014766
0.021135
0.036651
0.031484
-0.008276
0.044957
0.054492
0.014604
-0.165098
0.157383
-0.110602
-0.080107
0.131814
-0.091343
0.147854
0.001765
0.128679
-0.326807
0.121059
-0.138523
0.063080
-0.041876
-0.093859
0.123952
-0.032526
0.000998
0.014963
0.012368
-0.018739
-0.020013
0.012132
-0.006101
-0.013224
0.017888
-0.113846
0.050007
0.061030
-0.066505
0.103613
-0.065796
0.074644
0.010459
-0.034290
0.108459
-0.407729
0.125248
-0.081070
0.165457
-0.034703
-0.106364
0.093392
-0.013667
-0.002640
-0.182241
0.014829
-0.064387
0.057908
-0.110529
0.020645
-0.084410
-0.002000
0.060485
0.055425
-0.001128
0.061576
-0.125308
-0.034084
0.005262
-0.055290
0.007308
-0.022939
-0.028823
0.028798
-0.005510
0.011573
-0.001979
0.017806
-0.006249
-0.007040
-0.023007
-0.069061
-0.022681
-0.211534
0.106885
-0.207219
0.001418
-0.040735
0.060823
0.009423
-0.003014
0.029681
-0.009452
-0.014321
-0.006217
0.015048
-0.012453
0.004077
-0.188298
0.235823
-0.142153
0.149653
-0.038347
0.075766
0.070559
-0.234349
-0.016742
-0.054395
0.024448
0.059574
-0.111584
0.141394
-0.105882
0.065178
-0.016003
-0.007865
0.058829
-0.008122
0.018845
-0.013112
-0.043940
0.027455
-0.031236
-0.046915
0.041581
-0.147761
0.320529
-0.208073
0.117804
-0.140438
-0.051979
0.098106
-0.212822
0.044288
-0.004234
0.017994
0.021722
-0.048462
0.092387
-0.045155
0.009043
-0.068052
0.021959
-0.029268
0.022833
0.025206
-0.003212
0.024811
-0.007183
0.012924
-0.011641
-0.004447
-0.011945
-0.004568
-0.001415
-0.009277
-0.002608
-0.000267
-0.001247
0.005944
0.000478
0.008632
-0.010115
0.013028
-0.002804
-0.001061
0.001452
0.003996
-0.001672
0.007578
0.350338
0.051100
-0.229565
0.316115
-0.032705
-0.297634
0.169018
-0.124390
-0.339610
-0.177548
-0.018540
0.103889
-0.093614
0.024781
0.117693
-0.059740
-0.009918
0.082109
0.023384
-0.008108
0.007427
0.000215
-0.006389
-0.002256
0.005477
-0.004064
0.003695
0.010727
0.001161
-0.003920
0.005176
0.004020
0.002121
0.005967
0.004108
0.004925
-0.005292
-0.009318
-0.015563
-0.027502
-0.036462
-0.019881
-0.000781
0.000764
0.002279
0.044947
0.042264
-0.063570
0.001067
-0.013641
-0.144253
-0.000504
0.013979
-0.003863
0.018514
0.010916
0.007009
0.004641
0.006887
-0.006612
-0.006970
-0.004906
-0.008723
-0.037468
0.021697
0.136692
-0.109952
0.040676
0.150026
-0.234062
-0.096117
0.016649
0.018199
-0.006847
0.003369
-0.007142
-0.005711
-0.009882
-0.000214
-0.007809
0.006239
0.196958
0.034480
-0.176780
0.129961
0.012042
-0.169241
0.096033
-0.015365
-0.163266
-0.487869
-0.264950
-0.036999
-0.148651
0.062428
0.171437
0.095375
0.188426
0.306121
0.015697
-0.002622
0.006507
0.004592
-0.004420
0.000977
0.002878
0.007495
-0.005288
-0.051734
0.056029
0.188405
-0.185941
0.018637
0.149887
-0.211784
-0.054093
0.062123
0.483691
0.275304
0.028172
0.231237
-0.005933
-0.193465
-0.125566
-0.296983
-0.413810
-0.026707
0.139360
0.016656
0.183288
-0.003564
-0.196046
-0.060167
-0.206532
0.046422
-0.061876
0.003766
0.063510
0.156637
-0.017530
-0.176022
-0.170031
0.004657
0.022434
-0.020982
-0.029313
0.007263
0.018863
0.030436
0.025584
0.002489
-0.045592
-0.019727
0.087927
0.045141
-0.057627
-0.032036
-0.163054
0.038777
-0.028561
0.043748
0.027528
-0.090050
0.193757
0.135436
0.186105
-0.158533
-0.234329
-0.167206
-0.035464
0.082285
-0.072665
0.149702
0.028745
0.048808
-0.202436
0.031549
-0.030315
0.127600
0.009946
0.060974
-0.118412
-0.014060
-0.123375
0.104019
0.044129
0.012416
-0.013064
-0.030320
0.008476
-0.009890
0.005053
0.015061
-0.020641
0.007377
-0.017983
0.002986
0.019845
-0.014550
-0.026725
-0.032595
-0.093074
-0.255214
-0.041856
-0.104135
0.001642
-0.006875
0.005315
-0.055809
0.017296
0.063195
0.044747
0.050922
-0.017713
-0.085523
-0.033423
0.068971
-0.072207
-0.102141
-0.358078
0.019715
0.166987
0.182380
0.059422
-0.060795
0.025450
0.070709
-0.062196
-0.026763
-0.169369
0.057037
-0.008639
0.088874
0.012050
-0.022457
0.010898
0.040700
0.053448
0.016081
-0.002339
0.019567
-0.056225
-0.073241
0.062385
-0.145957
-0.123856
-0.374386
0.135130
0.187555
0.109279
0.070004
-0.020173
0.050758
0.041559
-0.027552
-0.008428
-0.089163
0.040628
-0.007014
0.039845
-0.047363
-0.002664
-0.015026
0.000237
-0.008957
-0.007918
0.027753
0.021506
0.004051
-0.005830
0.026219
-0.018405
0.030936
0.046111
-0.180759
-0.320617
0.026404
0.048880
0.008630
-0.096573
0.065241
0.055882
-0.062100
0.011080
0.016848
-0.033100
-0.018165
-0.046906
0.036002
-0.012441
-0.017760
0.009467
-0.042816
-0.026998
0.028441
-0.000154
-0.008026
-0.059580
-0.001403
0.099542
-0.051425
-0.028335
-0.021130
-0.041378
-0.023882
-0.026373
0.024037
0.092112
0.029098
0.022676
0.110045
0.021758
-0.017799
-0.067426
-0.100569
-0.066361
-0.023301
0.080455
-0.090352
-0.053033
0.121370
-0.049483
-0.016790
-0.003461
0.046697
0.030454
-0.017397
0.030894
-0.007732
0.164277
-0.063800
-0.083715
-0.075969
-0.031541
0.007218
0.100014
-0.006725
-0.005336
0.010681
-0.019578
0.008943
-0.007037
-0.012189
-0.049391
-0.020364
-0.001318
0.106147
0.068443
-0.008218
-0.096826
-0.115833
-0.056801
0.073327
0.088804
-0.022217
-0.001181
-0.031242
-0.001209
-0.002589
-0.032104
0.000163
-0.076002
0.063727
-0.043333
-0.067755
0.107194
0.004665
-0.042640
-0.065061
0.034938
-0.034850
0.028698
0.021991
-0.034849
-0.051370
0.021640
0.009614
0.011623
-0.014327
-0.049105
0.111320
-0.018366
-0.017617
0.041587
-0.005794
-0.042966
-0.021820
-0.065514
-0.017686
-0.092138
-0.051396
0.260836
0.402363
-0.029901
-0.021077
-0.015094
-0.004017
0.022602
0.011272
-0.010116
0.001111
0.104910
-0.022538
-0.047921
-0.024332
-0.005990
-0.006140
-0.062523
0.009072
0.002940
-0.003985
0.025406
0.016434
0.000320
0.051363
0.006549
0.053968
0.045737
0.039839
0.064434
0.018928
0.032923
0.048534
-0.001833
-0.271898
-0.029622
-0.017811
-0.281583
-0.112188
0.045273
-0.178968
-0.041068
-0.003879
0.005644
0.061524
-0.027545
-0.032076
0.029182
0.014635
-0.006105
0.040452
-0.052934
0.018293
-0.026184
-0.046791
-0.037232
-0.094515
0.062764
0.031438
-0.019094
0.042457
0.060798
0.027127
0.042484
0.006739
0.005449
0.002143
0.057953
0.060532
0.053587
-0.289417
-0.209954
0.072836
-0.313560
-0.256570
0.076869
-0.252043
-0.230082
-0.016786
-0.003237
-0.068729
-0.058207
-0.044114
-0.071959
-0.004539
-0.058028
0.073887
0.069404
-0.167717
0.037741
0.058945
-0.139766
-0.050196
0.041006
-0.019943
-0.019920
0.005281
0.068157
0.033112
0.033344
0.021043
0.031881
0.022908
0.041080
0.009736
-0.043728
0.012849
0.050989
-0.063395
-0.019946
0.021688
0.004395
0.034747
0.062233
0.019760
0.080647
0.029633
0.004300
-0.033587
0.024024
0.031405
0.047077
0.020583
-0.026680
0.024708
-0.042966
0.009125
0.016144
-0.036343
0.023291
0.022503
0.014432
0.010212
-0.060771
0.041693
-0.008615
-0.061375
0.034427
-0.010848
-0.016002
0.052860
-0.006475
-0.118177
-0.013186
-0.019538
-0.202242
-0.050779
0.054265
-0.169115
-0.035894
-0.024696
0.029722
0.016131
-0.031651
0.008869
0.016144
-0.048062
0.017414
0.028598
-0.033379
0.041108
0.043914
-0.053716
0.001409
0.013298
-0.017110
0.012874
0.024434
0.067912
0.114159
0.050501
-0.256969
-0.276178
-0.232340
0.148279
0.154364
0.165966
-0.005993
-0.017368
0.024373
-0.223034
-0.361703
-0.216967
0.194360
0.209192
0.168817
0.030791
0.025679
0.022682
-0.022407
-0.037389
-0.027830
0.002902
-0.013568
-0.005749
-0.121008
-0.109976
-0.120504
0.038846
0.071957
0.044660
0.055032
0.065238
0.062921
-0.022891
-0.029638
0.002251
0.004402
-0.021182
-0.006471
0.029171
-0.070017
-0.029915
-0.030095
-0.009325
-0.050872
-0.063606
-0.095918
-0.070342
-0.008700
0.013248
-0.018990
0.006491
0.017555
-0.026262
0.010306
0.032738
-0.014559
-0.044220
0.048329
-0.020634
-0.027312
-0.020691
-0.015296
-0.037530
-0.027947
-0.030463
0.013611
0.005588
0.049345
0.032982
-0.053603
0.028144
0.033128
-0.120351
0.025664
0.032854
-0.104000
0.058699
-0.020559
-0.044760
-0.015209
-0.023946
-0.035914
-0.040883
0.054167
0.041677
0.065620
0.015218
-0.033939
-0.019684
0.001687
-0.006803
0.042948
-0.062199
-0.074356
-0.019785
-0.046456
-0.044654
-0.046421
0.011724
0.055738
0.050726
0.004179
0.005216
0.001975
0.021646
0.018412
0.007028
-0.044840
-0.045515
-0.044508
0.025686
0.004856
0.036787
-0.100046
-0.105278
-0.068935
0.262190
0.298340
0.214664
-0.166451
-0.217550
-0.138073
-0.010037
-0.032269
-0.003420
-0.029460
-0.027322
0.010227
0.042246
0.014828
0.045949
0.031944
0.013644
0.035922
-0.025083
-0.049534
-0.009328
0.010383
-0.020510
0.013026
-0.104273
-0.100373
-0.048718
-0.024124
-0.071851
-0.036624
-0.004221
-0.014308
-0.011524
0.056133
0.029070
0.046027
0.076039
0.017264
0.049976
0.026752
0.019572
0.031279
-0.003469
-0.009814
0.022755
0.001789
-0.016388
0.021670
0.011236
-0.007533
-0.001131
-0.022701
-0.016213
0.003504
0.006607
-0.010818
0.012253
0.038843
-0.029417
-0.019011
-0.052861
-0.200556
-0.114828
-0.078594
-0.189056
-0.135946
0.082802
0.006083
0.045885
0.040151
0.023968
0.044254
0.034133
0.022202
0.033869
0.015920
0.022302
0.006153
0.016750
-0.059031
-0.093929
0.009229
-0.088833
-0.130473
-0.006794
-0.029516
-0.009645
0.044177
-0.000176
0.039316
0.026778
-0.019135
0.011615
0.016354
-0.026425
0.012687
-0.167815
-0.225319
-0.206007
-0.285266
-0.381341
-0.277320
-0.064176
-0.104315
-0.062807
0.048724
0.003304
0.005084
0.020620
-0.023566
-0.016563
-0.003603
-0.008014
0.013084
0.062135
-0.069261
-0.016213
0.054053
-0.070657
-0.103962
0.060748
0.035315
0.063436
-0.039586
-0.009902
0.022970
-0.061645
-0.021312
0.017568
-0.001996
-0.010655
0.007093
0.014737
-0.007528
0.020977
-0.026277
-0.057073
-0.032496
0.038536
0.017445
0.026128
0.144415
0.092452
0.140392
0.067540
0.076781
0.089815
0.001982
0.059294
0.006723
-0.005288
-0.011014
-0.001109
-0.024821
-0.016695
-0.016201
0.006766
0.023452
0.035042
0.023853
-0.002953
0.026621
-0.000395
-0.018642
0.025447
-0.022033
-0.030385
-0.004914
-0.002384
0.002259
-0.003092
0.001188
0.017308
-0.000508
-0.028301
0.024352
0.005831
-0.066362
-0.007607
-0.033007
0.052286
0.016565
-0.013952
-0.040345
0.144367
0.003891
0.032810
0.002395
0.035208
0.013164
0.002225
0.033238
-0.061351
-0.040154
-0.009272
-0.024871
0.171974
0.006943
-0.052500
0.255292
0.106848
-0.215763
0.066923
0.014304
0.015943
-0.046890
0.017095
-0.067441
0.000016
0.002986
-0.040263
-0.101604
-0.017104
-0.037396
-0.026052
-0.015361
-0.072833
0.003012
-0.020401
-0.091406
0.035129
0.045378
0.001830
-0.074826
0.004235
0.005854
-0.142360
-0.035643
-0.003412
0.016619
0.027717
-0.005319
-0.005337
-0.009778
-0.015142
0.001115
-0.030889
-0.044372
-0.002938
0.011754
-0.009324
-0.032946
-0.037369
0.045033
0.044338
-0.009012
-0.041652
-0.002762
-0.063341
-0.045642
-0.040085
-0.019585
0.006926
-0.037231
-0.040716
0.037582
0.015279
-0.014541
0.090994
-0.015525
-0.039630
0.164234
0.040408
-0.013348
0.010569
0.010980
-0.018622
-0.021124
0.160750
0.021116
-0.060437
0.218308
0.124798
-0.210565
-0.048285
-0.021926
0.010199
-0.006550
-0.022708
0.035833
0.030991
-0.003943
-0.001860
-0.001315
-0.021413
-0.045454
0.028371
0.013164
-0.022266
0.004368
0.002380
-0.044353
-0.033194
0.008087
-0.007796
0.078157
0.047730
-0.054966
0.031429
0.033084
-0.043115
-0.000789
-0.003233
0.024778
-0.011004
0.025725
0.006171
-0.025970
0.012644
-0.013162
-0.017256
0.014245
-0.075978
-0.110120
0.020076
-0.036249
-0.064888
0.030207
0.036138
-0.146006
-0.002211
-0.024315
-0.018810
0.049250
-0.088685
-0.528366
-0.160078
0.024209
-0.132108
-0.117077
-0.008576
0.056347
0.074506
-0.045553
-0.033284
0.013056
-0.042099
-0.036463
-0.039099
0.031018
-0.088973
-0.179894
0.108718
0.100526
-0.112058
0.056093
0.099379
-0.031876
0.021366
-0.064959
0.012651
0.004250
0.012654
0.011866
0.019945
0.006300
0.021621
0.018475
-0.047269
0.048932
0.053922
-0.078425
-0.080081
0.057764
-0.001084
-0.008866
-0.000161
0.078889
-0.016889
-0.101154
0.025266
-0.018739
0.048377
-0.090899
-0.045066
0.050666
-0.006625
-0.026638
0.010174
0.019908
-0.074327
0.015740
0.011042
0.009996
0.031964
-0.010576
0.024945
0.004540
-0.038111
-0.012063
0.034249
0.110428
0.007501
0.033697
0.034239
0.031403
-0.063268
0.015745
0.033363
-0.063753
-0.028231
0.007934
-0.068910
-0.051919
0.063289
-0.036654
-0.407946
-0.077044
0.013809
-0.045735
-0.009264
0.012343
-0.038468
-0.033694
0.030771
0.027489
-0.035019
-0.004887
0.033475
-0.017519
0.038686
-0.020122
0.010673
-0.001227
-0.011379
-0.037302
-0.007201
0.010528
-0.018533
0.101520
0.087480
0.022777
0.003281
0.096659
-0.042298
0.024127
0.079544
0.020184
-0.015454
-0.021303
-0.008851
0.016332
-0.007083
-0.040144
0.011836
0.030514
-0.003110
0.014873
0.076991
0.090996
-0.038682
-0.025194
0.044323
-0.061015
-0.046361
-0.011583
0.012431
-0.020422
-0.001353
-0.001317
-0.004554
-0.017455
-0.011661
0.000664
-0.012527
0.001574
-0.004752
0.005326
0.001663
-0.003186
0.008736
0.004841
0.002649
0.007548
-0.183564
0.117847
0.360699
-0.293477
0.019267
0.235335
-0.388674
-0.098367
0.089999
0.023877
-0.025905
-0.152138
0.077176
0.046550
-0.084475
0.087145
0.055894
-0.045163
0.013316
-0.001581
0.009233
-0.003836
0.006612
-0.000366
0.000050
-0.006996
-0.006639
0.005086
-0.000284
0.003541
0.002498
-0.001723
0.007619
0.000551
-0.000433
-0.005033
-0.025830
-0.002000
0.004731
-0.016820
-0.008797
0.005222
-0.012075
0.003362
-0.003641
-0.014736
-0.046697
0.032703
-0.040991
-0.074495
0.043888
0.029316
-0.069512
0.075227
0.000973
0.007433
0.013012
0.001835
0.014596
0.012047
-0.009157
-0.014338
-0.000923
0.028700
-0.107796
-0.233960
0.063388
0.006958
-0.087002
0.107243
0.102142
0.043811
0.010021
-0.012185
0.015871
-0.008259
-0.018079
-0.003254
-0.008622
0.006052
-0.004227
-0.102591
-0.009924
0.188579
-0.147577
-0.036645
0.132447
-0.145292
-0.031780
0.047670
0.224902
0.069424
-0.174241
0.190551
0.062986
-0.282824
0.165733
-0.061712
-0.321670
0.000473
0.006582
0.015177
0.000709
-0.004953
0.012408
0.004315
-0.000106
0.007157
0.031908
-0.122759
-0.301760
0.112563
0.000670
-0.128877
0.174161
0.120761
0.026564
-0.328099
-0.101599
0.131346
-0.284185
0.001532
0.274752
-0.219345
0.114770
0.330900
0.068772
0.056560
0.017476
0.006889
-0.014199
-0.080014
0.051980
-0.065330
-0.080085
-0.067697
-0.105200
-0.120863
-0.029579
-0.021466
0.013694
-0.045476
0.029663
0.105875
0.034847
-0.021688
-0.060035
0.015833
-0.016826
-0.040517
0.005068
-0.007412
-0.009970
-0.157922
-0.138014
-0.090255
-0.095675
-0.009272
0.189991
-0.064013
0.054804
0.273673
-0.047831
-0.060335
-0.095442
-0.045111
-0.057863
0.011825
-0.023942
-0.016102
0.066459
-0.038274
-0.088364
-0.097864
-0.073342
-0.047532
0.122827
-0.070950
-0.063199
0.120391
-0.119193
0.013876
-0.051558
-0.021231
0.044556
-0.022454
-0.061760
-0.023047
0.025194
-0.047256
-0.042681
0.007987
-0.057737
0.008214
0.105089
-0.046460
0.038816
0.081619
-0.024925
-0.046476
-0.086719
-0.005683
0.003868
-0.017722
-0.011276
0.066650
0.162923
-0.047198
-0.058329
-0.052316
-0.021845
-0.002891
0.028525
0.006066
0.039194
0.063861
-0.041178
-0.058130
-0.093155
-0.040992
0.010706
0.057226
-0.059948
0.080951
0.086901
-0.051534
-0.064885
-0.049045
-0.018491
-0.029942
0.062855
-0.026029
-0.002870
0.077749
-0.029604
-0.058817
-0.017195
-0.008874
-0.017079
0.039618
-0.000618
-0.015514
-0.004395
-0.070365
-0.070479
-0.043277
-0.050060
0.024349
0.192118
-0.062798
0.082968
0.135305
-0.030458
-0.060061
-0.055436
-0.020220
-0.009934
0.048935
-0.001615
0.021965
0.032271
0.016171
-0.012821
-0.053223
0.000244
-0.010201
-0.030243
0.015701
0.026985
0.012161
-0.098514
0.137791
0.003673
-0.176766
-0.056865
0.135733
0.063472
-0.184024
0.153276
-0.112356
0.226802
-0.116965
-0.050330
-0.121839
0.095046
0.088935
-0.257255
0.139113
0.013315
-0.013630
-0.018722
0.003243
0.016634
-0.021763
0.025197
0.021326
-0.009987
0.022921
-0.063160
0.056245
0.046474
-0.099492
0.040692
-0.010652
0.042878
-0.023604
0.081399
-0.336817
0.078738
0.015733
0.180179
-0.102400
-0.095847
0.093597
-0.112477
-0.046995
-0.077570
-0.024552
-0.052109
-0.168273
-0.109310
-0.044162
-0.058485
-0.067909
0.030011
0.021158
-0.012917
-0.130490
0.089070
-0.045402
0.062007
-0.081737
0.023144
-0.020188
0.048288
-0.014659
-0.023232
-0.002344
0.029069
-0.010039
-0.017903
0.020245
-0.041680
-0.007625
-0.067493
0.179810
-0.288139
0.153568
-0.066379
0.058798
-0.034052
0.032011
-0.031639
0.025445
-0.017226
0.048365
-0.008517
-0.055482
0.035176
0.009884
-0.177307
0.167396
-0.093546
0.049086
0.001349
0.025724
0.028216
-0.214809
0.046364
0.015854
-0.120499
0.109521
0.039706
-0.080186
0.008218
0.021045
0.049876
-0.037449
0.027089
0.029553
-0.011503
-0.042151
0.028933
0.012039
-0.025119
-0.017731
0.017018
0.249571
-0.302943
0.035701
0.095647
0.033035
-0.168173
-0.106913
0.242465
-0.181607
-0.024510
0.011060
0.065459
-0.007724
-0.057188
-0.014895
0.052147
-0.021244
-0.014580
-0.001524
0.010134
0.012537
0.003730
-0.011700
-0.019149
0.012359
0.030802
-0.013351
-0.000506
-0.037084
-0.059931
0.024233
0.088285
0.052386
0.037895
0.051462
0.020169
-0.029995
-0.168978
-0.069260
-0.004158
0.075820
-0.051845
-0.010504
0.131312
0.059482
-0.004993
-0.009821
0.033033
0.011177
0.017586
0.046043
0.030344
0.036227
0.029338
0.012143
0.013173
0.015234
0.019709
0.028221
0.048857
0.054283
0.035204
0.068406
0.022877
-0.060341
0.133137
-0.067925
-0.009199
0.085568
0.014476
0.009135
0.080513
-0.067319
-0.138370
-0.121371
-0.130208
-0.024859
-0.051751
-0.112967
-0.016843
-0.038712
-0.045630
0.004717
-0.036394
-0.015258
0.033848
-0.006680
0.018773
0.031878
0.009635
-0.007013
0.003638
0.016716
0.014936
0.076184
0.037336
-0.018296
0.079137
0.070496
-0.029851
-0.033981
-0.069283
-0.018203
0.013740
-0.068839
-0.082240
0.006529
-0.102386
0.045516
0.023808
0.036043
0.028293
0.011386
0.011521
-0.002038
-0.033353
-0.019129
0.074590
0.011925
0.021099
0.061521
0.026836
-0.057257
0.086819
0.040251
0.030185
-0.005587
0.003379
0.018399
-0.011785
-0.019699
0.037567
-0.001188
-0.020828
0.005075
0.025042
0.057164
0.080595
-0.014077
0.052961
0.070411
-0.068916
-0.028080
-0.015873
-0.007165
0.012541
0.028932
-0.034370
0.047125
-0.041020
-0.060761
-0.022408
-0.021951
-0.026164
0.022391
0.017457
-0.030879
0.016169
0.010555
-0.015445
0.020616
-0.003573
-0.003558
-0.009571
0.002279
0.014599
-0.003187
0.004141
0.035345
0.027379
-0.000415
0.000077
0.049056
-0.059348
0.009089
-0.006200
-0.027952
0.003754
-0.019766
-0.003920
0.041689
-0.006120
-0.012040
0.001122
0.002653
0.043976
-0.022356
-0.028176
0.038473
-0.018713
-0.041500
-0.033791
0.004246
-0.025667
-0.000864
0.034949
-0.000924
0.025048
0.049765
0.016679
-0.079220
0.031490
0.030488
-0.104606
0.010934
0.041676
-0.072896
-0.156424
0.029428
-0.108976
-0.050615
0.222048
-0.060191
-0.090152
0.033729
-0.063835
-0.040591
0.036449
0.031407
-0.148725
0.002336
-0.064869
-0.024685
0.045011
0.028484
0.031927
-0.098436
0.019774
0.023817
-0.124791
-0.002728
0.063633
-0.117236
0.000238
0.023900
-0.012778
0.005423
0.018429
-0.002264
0.010506
-0.000115
0.005427
0.001629
-0.041811
-0.191816
-0.095358
0.051262
-0.051827
-0.085162
-0.071913
-0.044970
-0.145982
0.033146
0.003388
-0.004944
0.007619
-0.018438
-0.031435
0.035278
-0.006495
-0.019844
0.168276
-0.379806
0.018159
0.342273
-0.414089
0.000367
0.202712
-0.276734
-0.028201
0.008544
0.023431
-0.057924
0.009596
0.037207
-0.057440
0.000783
0.024361
-0.036411
0.008594
-0.033235
-0.000352
-0.004480
-0.048254
0.005304
0.030970
-0.024325
0.015688
-0.059869
0.041867
0.051610
-0.067063
0.064959
0.023359
-0.027112
0.060001
-0.023840
-0.011896
-0.010853
0.001720
0.001769
-0.004078
-0.023033
0.007114
0.003699
-0.008935
-0.001418
-0.029045
-0.013115
0.019804
-0.014129
0.003701
0.030541
-0.009729
0.018712
0.024573
-0.065407
-0.063433
0.003408
-0.012078
-0.012579
-0.002510
-0.028653
-0.012208
0.056308
-0.029179
-0.019710
0.012858
0.021917
-0.007745
0.015958
0.003601
-0.004885
0.076118
-0.080736
-0.110302
0.128354
-0.044330
-0.112462
0.145557
0.011495
-0.066592
0.028463
0.040795
0.026822
0.015139
0.057471
0.065530
0.034107
0.105738
0.114982
-0.024151
-0.002850
0.007739
-0.021426
-0.011513
0.002505
-0.006203
-0.008616
0.021133
0.023428
-0.000679
-0.007561
0.019290
-0.002958
-0.030420
0.012181
-0.000550
-0.016312
0.005259
-0.016964
0.012637
0.006341
-0.006844
-0.021759
0.024505
0.033575
0.001996
-0.143466
0.112686
0.216622
-0.069010
-0.134127
0.056379
-0.091610
-0.055200
0.027958
-0.008969
0.001213
-0.015008
0.007449
-0.002226
-0.003510
0.008372
0.005364
-0.006266
-0.065263
0.045770
0.189826
-0.062695
0.040570
0.149588
-0.095393
-0.024481
0.055136
0.019228
0.013582
0.012083
0.004874
0.015912
0.002221
-0.000927
-0.001295
0.020345
-0.013192
-0.156718
-0.213301
0.018351
-0.101612
-0.164040
0.088088
0.037008
-0.016049
0.034852
0.165934
0.099485
-0.052415
0.056059
0.054280
-0.126820
-0.052994
-0.052192
0.005898
0.041363
0.051644
-0.004513
-0.007845
0.001439
0.007399
0.001422
0.008825
-0.112411
0.022076
0.171757
-0.137440
-0.019357
0.116778
-0.157492
-0.045624
0.034156
-0.095248
-0.081348
0.081015
-0.091240
-0.110666
0.023828
-0.080040
-0.101335
-0.018819
0.031618
0.049860
0.069742
0.030885
-0.025851
0.104067
0.028009
0.026956
0.010106
0.062123
-0.047598
0.090156
0.013212
-0.007545
0.008379
0.075735
0.029392
0.082086
0.035284
0.030226
0.007396
-0.019530
-0.031614
-0.018659
0.010182
0.008595
0.001108
0.077911
0.087183
0.098573
-0.020324
-0.003005
-0.009309
-0.098857
-0.105349
-0.086054
-0.012878
0.050011
0.043334
0.019728
-0.067742
0.045440
0.018050
0.035939
-0.004591
-0.013859
-0.125394
-0.044987
-0.041583
-0.173288
-0.077017
0.004477
-0.061304
-0.020533
-0.072498
-0.040617
0.031673
0.043257
-0.023822
-0.046038
0.021176
-0.016227
-0.025254
0.045635
0.015970
0.039095
0.008025
-0.005157
-0.001498
0.036929
-0.028827
0.027842
0.021346
0.068441
0.005232
0.009229
0.013214
0.027129
0.025950
0.031687
0.003649
-0.053095
-0.038490
-0.010117
-0.018486
-0.021867
0.005749
0.056980
0.060500
0.060454
-0.006812
-0.021319
-0.009491
-0.008007
-0.066819
0.008245
-0.006727
0.023083
0.033426
0.085347
0.064767
0.067101
-0.001788
0.006136
-0.011689
-0.065669
-0.088332
-0.083492
0.000771
-0.042714
-0.000637
-0.009991
-0.052210
-0.004947
0.044720
0.023813
0.067108
-0.281472
-0.275557
-0.074970
-0.238134
-0.406393
-0.105470
-0.015152
-0.049377
0.018367
-0.005096
-0.013101
-0.005528
0.003929
-0.007211
-0.000732
0.009590
0.011847
0.024225
-0.000736
0.012199
-0.017643
-0.006056
0.009758
0.003273
0.014009
0.021543
0.010684
0.058243
-0.057740
-0.104703
-0.120529
0.041500
0.059171
-0.062076
-0.152886
-0.003326
0.150188
-0.117006
0.039914
-0.171069
0.273073
-0.042079
-0.003822
-0.098854
0.000860
-0.006306
0.033196
-0.013147
-0.030588
0.035151
-0.024861
-0.056440
0.015420
-0.009351
0.056116
0.122183
0.004732
-0.062779
-0.111847
0.031771
-0.031291
-0.088151
-0.062129
-0.047985
0.097239
-0.043472
-0.082663
-0.191596
-0.124307
-0.201565
0.017174
-0.011740
0.085511
0.158336
-0.035501
0.019972
0.052739
0.152647
0.043611
0.077421
0.041590
-0.066988
-0.022411
-0.008537
-0.093058
0.052591
-0.109863
-0.109111
-0.002202
-0.111716
0.054305
0.031045
-0.049232
-0.072830
0.072135
0.036198
-0.019979
-0.047459
0.018096
0.066476
0.081625
0.032616
-0.054683
-0.021835
-0.024576
-0.006420
-0.088398
0.016400
-0.016311
0.069625
-0.021176
0.030153
0.039688
0.002692
-0.080596
-0.007919
-0.003885
0.058807
-0.031537
-0.050302
-0.247889
0.090201
-0.021093
-0.044873
-0.064607
-0.078665
-0.029903
0.045926
0.009790
-0.039022
-0.150761
0.002474
0.034867
-0.006783
-0.027373
-0.040067
0.000217
-0.036842
-0.020518
0.032672
0.000746
-0.044526
0.011924
-0.009178
-0.134133
0.117138
0.004439
0.160969
-0.205089
-0.021702
-0.054247
0.066182
0.059962
-0.040149
0.035982
0.012493
-0.074357
-0.076135
-0.022124
0.054545
0.014008
-0.004583
0.015136
0.032035
-0.038675
-0.032438
0.004548
-0.023547
-0.006404
0.031075
0.008685
