-0.018215
0.011811
-0.006938
0.040978
0.029974
-0.037814
0.025650
0.004286
-0.036256
0.018283
0.008998
-0.000415
0.012315
0.023630
0.018595
-0.025090
-0.024552
-0.003847
-0.020781
0.020956
0.009476
0.003488
0.016215
0.017410
-0.007746
-0.012862
-0.009536
0.014806
-0.009886
0.012946
-0.021578
-0.056856
-0.019331
0.010298
0.006915
0.019304
-0.032624
-0.052517
-0.000164
-0.033297
0.008369
0.001913
0.007834
0.019528
-0.018641
0.011723
0.008431
-0.042620
0.016947
0.049949
-0.047617
-0.022931
-0.034734
-0.036476
-0.034554
-0.011552
-0.011337
0.016103
0.045346
-0.020993
-0.006067
-0.030767
-0.057506
0.006890
0.014283
0.034072
-0.002024
-0.002952
-0.041326
0.003241
-0.014883
-0.015147
-0.001705
-0.007638
0.015364
-0.042517
-0.052067
0.006631
0.009111
0.005270
0.049829
-0.071023
-0.057269
-0.116548
0.048915
0.206102
-0.028110
0.005084
0.044618
-0.024995
0.002368
0.029231
-0.008440
0.009756
-0.004164
0.008813
0.001789
0.009074
-0.001339
0.139588
0.182050
0.127282
0.173382
0.305719
0.070311
0.081751
0.091733
0.008342
-0.012179
0.002324
0.016005
0.004441
-0.012510
-0.011207
-0.016616
-0.014540
-0.019063
0.000242
-0.018375
-0.024330
-0.028682
0.025413
0.013501
0.001220
0.000859
-0.000800
-0.089562
-0.037109
-0.046516
-0.030018
0.002201
-0.021900
-0.052521
-0.029934
-0.028377
-0.012531
0.009257
-0.005255
-0.002736
0.000173
-0.012348
-0.007008
-0.006314
-0.009471
0.004023
0.030361
0.008930
0.005923
-0.010516
0.007962
-0.005897
0.006219
0.010675
0.006657
0.000727
-0.011353
0.009953
0.011950
-0.003871
-0.013067
-0.002077
-0.001525
-0.034157
-0.023354
-0.014557
0.039078
0.119664
-0.022385
0.019720
0.018575
-0.027147
0.000776
-0.017228
-0.024718
-0.045210
-0.033257
-0.028425
-0.025356
-0.006205
-0.016708
-0.001475
-0.008046
-0.012405
-0.004649
-0.028056
-0.016812
-0.016347
-0.016875
-0.005137
-0.033089
0.005871
-0.010430
-0.032884
0.015986
0.021229
-0.019139
0.007953
0.011558
-0.007544
-0.040347
0.002132
-0.038517
-0.006058
0.010278
-0.015965
0.013699
0.003992
-0.005901
-0.023730
-0.017032
-0.000303
-0.009902
0.004591
0.021690
0.006064
0.017185
0.014335
0.012286
-0.000257
0.004993
0.010164
0.019359
-0.004176
0.003373
-0.005570
-0.006836
-0.015487
0.021382
-0.027150
-0.015915
0.011159
-0.009076
0.009163
0.025631
-0.009459
-0.011152
0.000920
-0.003835
0.003494
-0.012293
-0.007954
0.002468
-0.006955
-0.002360
-0.045327
-0.013799
0.008754
0.019263
-0.043420
0.037181
0.013498
-0.021014
-0.006621
-0.024107
-0.005308
-0.005088
-0.016131
-0.010484
-0.004754
0.004206
0.008329
0.015416
0.018423
-0.035833
0.018449
0.052636
-0.002689
0.002653
0.009267
-0.006923
-0.042309
0.032297
-0.022182
0.001638
0.062617
0.003632
-0.021471
0.025668
-0.028055
-0.038602
-0.012263
0.018502
-0.063003
-0.069203
-0.022066
-0.027614
-0.024656
-0.009555
0.022123
-0.021756
0.019387
0.018512
-0.096306
0.052216
0.012588
-0.013500
0.015718
-0.054732
-0.037295
-0.017284
-0.030707
0.021764
0.002658
0.022833
0.068990
0.006888
0.023974
0.009170
0.028655
0.020484
0.000141
-0.013762
0.003992
-0.030400
0.004878
0.007103
0.016753
-0.009382
-0.015769
-0.044520
0.032070
-0.016052
-0.038773
-0.005989
0.067544
0.050502
-0.070907
0.011340
-0.030731
-0.053819
-0.025322
-0.031467
-0.047245
-0.005621
-0.050755
0.006463
0.012357
-0.017452
0.021132
0.033200
-0.007633
0.006319
0.056654
-0.012899
-0.045460
0.060557
0.008476
-0.052666
0.060356
-0.007386
-0.043501
0.012358
-0.003809
0.002451
0.012634
0.026558
-0.022200
0.020636
-0.009132
0.007266
0.073146
0.004768
-0.065678
0.098197
-0.016645
-0.105692
0.081357
0.032995
-0.049228
-0.095081
-0.143944
0.078443
-0.076324
-0.093933
0.074558
-0.047552
-0.063039
0.051365
0.001517
-0.008447
0.005142
-0.000693
-0.014571
0.020618
-0.001823
-0.021698
0.006726
-0.023698
-0.029140
0.048782
-0.041303
-0.004088
-0.004995
0.008741
-0.035818
0.006464
0.012507
0.028900
-0.024108
-0.010385
-0.046091
-0.013957
-0.033635
-0.046598
-0.011022
-0.044067
-0.087617
0.001091
0.011684
-0.007881
-0.006198
0.026708
0.014709
-0.017735
-0.068161
-0.020859
0.073049
-0.176174
-0.037650
0.180660
-0.166482
-0.065582
0.137533
0.009999
0.030464
-0.000670
0.007784
0.022497
-0.012263
-0.004884
-0.051335
-0.023409
-0.011986
0.006292
0.024955
0.004002
-0.018812
0.010937
-0.010830
-0.034855
0.009906
0.024334
0.078201
0.035329
-0.008970
-0.006849
0.008208
-0.032838
-0.050778
-0.004255
0.009849
-0.018259
0.041563
-0.024803
0.049926
0.020491
-0.000315
0.001396
0.018222
0.094946
-0.052589
-0.051031
0.148519
0.002413
-0.172115
0.097012
0.041240
-0.038489
-0.092092
-0.010709
0.048924
-0.088803
0.005738
0.055695
-0.034745
-0.005484
0.026953
0.038778
0.035788
-0.006953
-0.009617
-0.036759
0.057235
-0.023680
0.008277
0.017643
0.010944
-0.022767
0.035336
0.001848
0.021669
0.022801
0.021157
-0.012945
-0.012436
-0.014355
-0.051807
-0.059537
0.018561
0.017124
-0.023538
0.021941
0.066435
-0.008284
-0.004045
-0.014415
0.021690
0.020142
0.009526
0.015584
-0.002019
-0.012628
0.008212
0.054311
0.036704
0.006487
-0.003514
0.046681
0.011245
0.016927
-0.030349
0.026385
-0.001797
-0.034461
-0.019384
0.025963
0.032485
-0.030766
0.016721
0.025596
-0.012016
-0.015734
-0.049410
-0.045587
0.012661
-0.001716
-0.041795
0.012297
0.014371
0.005175
-0.015295
-0.015685
-0.002798
-0.009343
0.010950
0.003114
-0.014438
-0.020256
-0.001194
-0.006246
-0.069336
0.024928
-0.027879
-0.018156
0.034966
-0.026797
0.018605
0.020025
0.013815
-0.012905
-0.015562
0.043568
0.032051
-0.040901
0.025590
0.015257
-0.015906
-0.043380
-0.094944
-0.000945
-0.063412
-0.008205
0.080616
0.016952
0.038344
0.046136
-0.127876
0.001713
0.084273
-0.151915
0.036022
0.094504
-0.097863
0.033253
0.076318
0.002765
-0.007821
-0.006711
-0.007724
0.013183
0.010321
-0.009304
0.002680
-0.006003
0.067117
0.067502
-0.093879
0.057475
0.062971
-0.128556
0.047742
0.043357
-0.092962
0.022692
-0.032126
-0.028205
0.007706
-0.092174
-0.011944
0.000167
-0.084427
-0.053552
0.038226
-0.027730
0.004414
0.042366
-0.009803
-0.048676
0.049531
0.018465
-0.045947
-0.055827
0.006222
0.017704
-0.042284
0.009655
-0.000727
-0.013939
0.032702
0.011835
-0.007948
-0.005240
0.008842
-0.017298
-0.019842
0.019701
-0.009118
-0.019441
0.032013
-0.038818
-0.072611
0.075686
-0.022139
-0.049468
0.110098
-0.041186
-0.047079
0.086497
-0.003238
0.043179
0.008642
0.008332
0.053153
0.010039
0.003623
0.051865
0.022797
-0.018095
-0.046679
-0.061950
0.006419
-0.043944
-0.056436
0.015244
0.002255
-0.038017
-0.000577
0.012742
-0.000421
0.002512
-0.027362
-0.027687
0.012235
-0.013001
-0.012212
0.013298
-0.070473
0.018378
0.009285
-0.078829
0.003977
0.007664
-0.014112
-0.021374
-0.045195
0.007299
0.006645
-0.062667
0.008577
0.020970
-0.060476
0.000013
0.029224
0.074037
-0.039192
-0.048780
0.083314
-0.066002
-0.067964
0.040088
-0.062202
-0.053508
0.010194
-0.034755
0.004424
-0.028837
-0.064260
-0.027060
0.019172
-0.016506
0.007888
-0.006393
-0.015311
-0.023682
0.005623
-0.022413
-0.021988
0.000038
-0.043185
-0.014158
-0.009726
0.000530
0.018837
-0.030897
-0.020632
-0.011951
-0.022504
-0.007908
-0.002865
0.034043
-0.022372
-0.020857
-0.008471
-0.032628
-0.001895
-0.018702
0.003007
0.004684
0.008144
0.016249
0.013407
0.010273
-0.017048
0.015838
0.002675
0.000783
0.019335
-0.019131
-0.018866
-0.044298
0.004633
-0.004042
-0.024417
0.007870
0.033564
-0.039328
-0.002225
-0.015326
0.014120
0.016139
-0.009992
0.022563
0.007180
-0.014934
0.003979
0.051983
-0.024178
-0.057675
0.077696
-0.034741
-0.057394
0.078260
-0.008740
-0.051937
-0.021118
0.027634
-0.018185
-0.046352
0.017996
-0.063104
-0.007913
0.018200
-0.044705
-0.006843
0.003535
0.015359
-0.027274
0.003369
-0.006753
-0.042602
0.025650
-0.013386
0.011191
-0.006883
-0.025264
0.008663
-0.015306
-0.012822
0.005996
-0.003215
-0.019703
-0.019757
-0.053701
0.041190
-0.026139
-0.096932
0.022023
0.000555
-0.013201
0.009603
-0.008262
-0.027682
-0.015010
-0.006477
-0.076281
0.003493
-0.012316
-0.041681
0.001146
-0.022610
-0.052740
0.083886
-0.043164
-0.077091
0.063663
0.016891
-0.041133
0.039111
0.021107
0.026499
0.014041
-0.002965
0.009766
0.006103
0.001381
0.009909
0.017557
-0.009476
-0.041105
0.024822
-0.026497
-0.043026
0.039846
-0.024912
-0.041594
0.041897
-0.065329
0.079653
0.038556
-0.073575
0.024580
0.032477
-0.036835
0.002590
0.028381
0.002906
0.001879
0.001353
0.010592
-0.004187
-0.003369
0.029560
0.018899
-0.000910
0.000757
-0.003973
0.048136
0.002375
0.049013
-0.008298
0.008476
-0.035958
0.039543
-0.002382
-0.010721
-0.031013
-0.003454
-0.002656
-0.020491
0.001721
-0.009401
-0.002348
0.007160
0.059977
0.031320
0.019753
0.012459
-0.006897
0.010142
-0.016761
0.026456
-0.003918
0.025999
0.126543
0.007618
0.091650
0.060909
0.026566
0.091695
0.019372
0.030173
-0.032072
0.081938
0.032036
-0.001888
0.052649
0.009866
0.024893
0.047968
-0.015505
-0.019432
-0.011653
-0.013483
-0.031044
-0.022293
0.026523
0.012983
0.012329
-0.016898
-0.032064
-0.023341
-0.022839
-0.013279
0.001375
0.001904
0.008181
0.014037
-0.021645
-0.032254
0.067358
0.009101
0.031833
0.057535
0.025654
0.045511
0.011675
0.004794
-0.053832
-0.106756
0.034942
-0.101660
-0.056123
0.017394
-0.011818
0.027827
0.065419
0.115897
0.168220
-0.000976
0.069842
0.096186
0.000138
0.022529
-0.031323
-0.001492
0.019273
0.017516
0.000437
-0.006793
0.033983
-0.018786
-0.000615
-0.017451
-0.007237
-0.035246
-0.040398
-0.015673
0.036708
0.067291
0.001368
0.018931
0.017932
-0.035228
-0.049806
-0.017858
-0.031043
-0.058269
-0.021531
-0.025553
-0.040622
-0.036124
0.011536
0.006016
-0.031187
0.006482
-0.040516
0.001571
-0.021296
-0.019366
-0.007033
0.016800
0.010446
0.055597
-0.035823
0.013317
-0.038619
-0.007416
-0.022691
-0.028962
-0.007630
-0.025954
0.006044
-0.009009
-0.021554
0.006328
-0.008559
0.018069
0.004137
-0.031894
0.014056
0.054415
-0.016793
0.025084
0.012619
-0.002453
0.026928
-0.046455
-0.055264
-0.035751
0.037371
-0.012338
0.001245
0.010125
-0.003556
0.013093
-0.005799
0.029305
0.013294
0.053502
0.006231
0.075994
-0.015272
0.014430
-0.013705
0.012416
-0.031963
0.001537
-0.012008
-0.017149
-0.047690
-0.027503
-0.016260
0.013282
-0.032826
-0.015442
0.022560
-0.006081
0.026423
-0.022357
-0.011413
0.017038
-0.009648
-0.004754
-0.002659
0.030107
-0.046070
-0.000506
-0.049345
0.007052
0.006106
-0.039952
0.023326
0.045389
0.126166
0.054868
0.024109
-0.009796
0.075651
-0.031361
-0.002486
-0.018024
0.066534
0.001282
-0.021101
0.037792
-0.014399
0.016759
-0.004120
-0.017084
0.007581
-0.011095
0.028867
0.031736
-0.011606
0.014434
0.008532
-0.011282
0.004903
-0.013638
0.029647
0.108426
-0.027069
0.012819
-0.025823
-0.026912
-0.002874
-0.071816
-0.019164
0.005063
0.016195
-0.043083
0.009298
0.002553
0.000737
0.010251
-0.003266
0.014403
0.007864
0.016504
0.002207
-0.002461
-0.015882
0.014870
-0.010806
0.000359
0.001040
-0.029481
0.006856
-0.019165
-0.013538
-0.046373
0.002956
-0.000985
0.002722
-0.014121
-0.004025
-0.000335
-0.013319
0.013014
0.005202
-0.005003
-0.017749
0.006208
0.002917
-0.009263
0.059253
0.043297
0.017065
0.047422
0.038620
0.024951
0.026481
0.035601
0.083912
0.089740
-0.035525
0.039535
0.033409
0.067413
0.020811
-0.001630
0.017330
-0.018218
0.001428
-0.009413
-0.000598
0.002787
0.005810
-0.015278
-0.000049
0.005073
-0.008667
0.005187
0.003985
-0.004030
-0.004266
0.009873
0.007002
0.011116
0.006678
-0.007015
-0.013413
0.014354
0.001161
-0.010146
0.010124
0.015271
0.014765
0.007493
-0.002100
0.005452
0.005313
-0.001132
0.031158
-0.010944
0.014071
0.008921
0.000801
-0.005439
0.006038
0.022811
0.010343
0.007808
-0.002860
0.007430
-0.031159
-0.013288
-0.082183
-0.241866
-0.124089
-0.070324
-0.316122
-0.130736
0.116515
-0.021877
0.046817
-0.031203
-0.048938
0.034421
-0.123650
-0.134060
-0.058210
-0.065341
-0.065819
-0.025864
0.020059
0.014270
0.005922
-0.003815
0.003652
-0.004697
-0.002065
0.005603
0.024768
0.001731
-0.005247
0.001374
-0.016628
-0.058495
-0.013782
0.009963
-0.019349
-0.000589
0.013611
0.052768
0.006108
0.040513
0.044614
0.019449
0.022516
0.028368
-0.001200
-0.006751
0.034411
0.034732
-0.134743
0.097580
0.075911
-0.081217
-0.075834
-0.020136
0.033870
0.044992
0.010673
0.049104
0.027667
0.004077
0.001662
0.003774
-0.026609
0.012338
-0.002201
0.008392
0.003776
-0.037560
-0.006258
0.012076
0.006075
0.010847
0.001856
0.015551
0.015859
-0.002098
-0.012282
0.000175
0.004297
0.002861
0.000785
0.004108
0.002861
0.025880
0.014920
-0.003001
0.018097
-0.023396
-0.032258
0.006468
-0.001878
-0.005954
-0.003250
-0.002207
-0.010199
0.000821
-0.009553
-0.004678
0.006808
-0.050993
-0.067587
-0.026738
-0.007900
0.105521
0.008391
-0.030949
0.060128
0.003463
0.008624
0.017006
-0.003068
0.011268
0.003473
0.000800
0.000910
0.002721
0.006576
0.011310
0.011102
0.007202
0.007859
-0.006855
0.008050
-0.001671
-0.009806
0.001616
-0.001930
0.007606
-0.017760
-0.003250
0.017933
-0.003634
-0.006300
0.012513
-0.007127
-0.002418
0.005583
0.004023
0.007351
0.005653
0.007620
0.004868
0.008066
0.001343
-0.025751
0.009907
-0.024783
0.018292
0.034135
-0.009341
0.002472
-0.009052
-0.016393
0.004981
0.034053
0.006208
-0.044825
-0.026715
0.028084
0.014811
0.005267
0.013937
0.009614
-0.016347
-0.017387
0.027247
0.029494
0.000876
0.002651
0.009888
0.006879
-0.009804
0.018619
-0.007523
0.060099
0.030041
-0.127650
-0.023803
-0.052309
-0.094720
0.004327
0.004653
-0.001331
0.004184
0.012231
0.008666
-0.009259
0.008586
0.006892
-0.003620
0.005468
0.010064
-0.000083
-0.013462
0.008250
0.009129
0.006213
0.002336
-0.017252
-0.009129
-0.006640
0.019924
0.007164
0.006550
-0.020194
0.003709
-0.002774
0.005005
-0.011121
-0.002974
0.012545
0.012190
0.002373
-0.000048
0.006014
-0.004051
-0.061745
-0.116603
-0.109957
-0.089225
-0.335300
-0.154882
0.026203
-0.080846
-0.079013
-0.013212
0.005794
-0.006840
0.006177
0.015434
-0.003833
-0.013471
-0.024828
-0.017591
0.011381
0.006912
-0.011571
0.004358
-0.000195
0.001630
0.004307
0.017304
0.001273
0.021363
-0.023817
-0.017023
-0.015896
-0.064473
0.006745
-0.010190
-0.027957
0.040599
0.003661
0.007036
-0.001041
0.005097
0.005593
-0.000557
0.002131
0.018972
0.020884
-0.018518
-0.014297
0.011118
-0.000107
0.024773
0.036954
0.013223
0.009406
0.000945
-0.007572
0.024824
0.007870
0.014930
-0.010856
-0.013118
0.016096
-0.047185
-0.004737
0.009015
-0.002925
0.035928
0.026924
0.049652
-0.018766
0.025740
0.002171
-0.027276
0.055823
-0.031842
-0.090950
0.046179
-0.027471
-0.031129
0.112144
0.010369
-0.057249
0.001133
0.020029
0.042994
0.016617
0.001144
0.006739
-0.060873
-0.061319
-0.029091
0.027732
0.036724
-0.006445
-0.015051
-0.037412
-0.057262
-0.018242
-0.028355
0.015419
0.003157
-0.063677
0.042530
-0.046864
-0.045134
0.027546
0.038946
0.028541
0.033758
-0.007970
-0.002848
0.006290
0.020655
-0.016095
-0.000653
0.014863
-0.000230
0.037929
-0.047486
-0.013825
0.055334
0.004999
0.079938
0.003656
0.073488
-0.034765
-0.042321
-0.017197
0.024672
-0.002833
-0.022704
-0.036564
-0.077211
-0.022176
-0.023043
-0.051089
0.017002
-0.001752
0.008463
0.005516
-0.011005
0.015400
0.019107
0.016162
0.025924
-0.009130
0.011097
0.006452
0.006287
0.020739
-0.003907
0.000754
0.010036
-0.021319
-0.024337
-0.007838
-0.042515
-0.022323
-0.057135
-0.032583
-0.007061
-0.006796
-0.014581
-0.002266
-0.013863
-0.001859
-0.021064
-0.004369
-0.005996
-0.001586
0.015560
-0.016443
0.073117
-0.045594
-0.108607
-0.028528
-0.396097
-0.018933
-0.161123
-0.077257
0.103617
-0.012120
-0.015313
0.000906
-0.005380
0.016235
-0.003655
0.001345
-0.005321
-0.020236
0.000603
0.012391
0.009455
0.030543
0.004326
0.006051
0.000323
-0.008161
0.024504
-0.042414
-0.032755
0.001325
-0.036506
0.011443
0.027479
0.008287
0.041659
0.033575
0.001544
-0.004161
-0.011783
-0.001346
-0.011891
-0.014537
-0.012047
-0.004963
0.000161
-0.005791
-0.020662
0.006367
-0.001197
0.028921
0.017482
0.007259
0.009444
-0.008133
-0.015199
-0.007637
0.004881
-0.011320
-0.036579
-0.020008
-0.001529
0.000909
0.006955
-0.010824
-0.008276
-0.019401
0.000042
-0.002686
-0.001986
-0.018172
-0.023737
-0.014412
-0.042388
-0.039323
0.074231
-0.010978
0.094632
0.029873
0.075790
0.014811
-0.090094
0.012228
0.013252
-0.006523
0.002872
-0.017512
0.002015
-0.008710
-0.010034
0.010820
-0.000001
0.000243
0.005218
0.004134
0.005142
0.015738
0.011054
0.020486
0.016593
0.010284
0.019304
0.000773
0.011028
0.004320
-0.045742
-0.008277
-0.011395
-0.014142
0.001787
-0.017978
-0.004923
0.006453
0.001102
-0.001011
-0.005679
0.010989
0.000321
0.081767
0.085938
-0.009654
0.128415
-0.021426
-0.074880
-0.032615
-0.114909
-0.057907
0.034287
-0.008056
-0.046449
-0.017780
-0.111139
-0.048117
-0.061172
-0.057211
0.045735
0.000173
-0.010088
0.019604
0.021731
0.019778
0.014633
0.016214
0.014110
0.004276
0.034182
-0.008561
-0.046016
-0.008778
0.038254
-0.009244
-0.058603
-0.033527
0.114074
0.010087
0.032886
-0.011136
-0.024174
-0.049694
0.040695
0.004253
-0.012352
-0.065750
-0.028619
0.012661
-0.010785
-0.007972
-0.018143
0.015801
0.001202
-0.055968
0.036381
0.010639
-0.020535
0.024147
-0.038004
0.046467
-0.031760
0.039954
-0.042344
0.000108
0.050377
-0.011022
-0.020194
-0.051938
0.129357
-0.000847
-0.003646
-0.045038
-0.019371
-0.054559
-0.001896
0.056398
0.031376
-0.029611
-0.016555
-0.031663
0.025053
0.015322
0.025919
-0.012594
-0.044422
0.032426
-0.006160
0.010688
-0.030915
0.027346
0.005279
0.003947
-0.018038
0.017565
-0.013291
0.050032
-0.018031
0.009608
-0.030408
-0.020108
0.151625
-0.073951
-0.161021
-0.005201
0.048977
0.044563
-0.269131
0.088256
0.169313
-0.033523
-0.072139
-0.023938
-0.026978
-0.097117
-0.106926
0.009237
0.067373
-0.040124
-0.054077
-0.006221
0.042100
0.056151
-0.061261
-0.040806
-0.003404
0.039863
-0.028033
-0.051917
0.019888
-0.018068
0.061065
-0.078445
-0.060400
0.090817
0.050424
-0.074685
0.043237
-0.012232
0.010279
-0.020718
0.089462
0.043529
-0.002138
0.038019
-0.049721
0.007702
-0.004242
0.025054
0.007399
-0.013794
-0.026205
-0.016538
0.025226
0.023975
-0.045747
0.014406
0.032289
-0.024099
-0.018560
0.038539
0.145240
-0.078460
-0.095393
0.009027
-0.017533
0.019640
-0.022114
0.062017
-0.031193
0.008962
-0.016369
0.000752
-0.044074
0.006022
0.020594
0.032158
-0.026792
-0.016939
0.012282
0.018623
-0.041428
-0.026143
-0.034825
0.017651
-0.011168
0.043618
-0.057973
-0.002844
-0.056216
-0.013190
0.016321
0.043341
-0.012541
-0.002698
0.022005
0.051324
0.023579
-0.099397
0.026511
0.068938
-0.096495
-0.094164
0.053595
0.087787
0.027755
-0.200747
0.080287
0.106413
-0.037695
-0.016934
0.012865
0.014969
-0.042718
-0.091830
-0.009150
-0.005340
0.008878
0.028651
-0.064596
-0.027157
0.013556
0.009471
0.002299
-0.098269
0.102742
-0.017617
-0.019323
0.003792
0.069134
0.092847
-0.070216
-0.053217
0.023417
0.047462
-0.107097
-0.016823
0.002870
0.029408
-0.014792
-0.110604
0.054910
0.055607
0.054094
-0.082278
-0.064462
0.029858
0.024556
0.040530
-0.027892
-0.022785
0.020214
-0.016206
-0.032253
-0.043695
0.082545
0.021623
0.072145
-0.112250
0.049182
0.008303
0.052472
0.056076
-0.035007
-0.016505
-0.015357
0.018173
-0.142420
0.044465
0.001822
-0.012589
-0.038085
0.028658
-0.063465
-0.083538
-0.072143
-0.055858
0.006096
-0.061869
-0.005492
0.019635
-0.006225
0.000324
0.024165
0.019323
0.005274
-0.068576
-0.020918
0.025890
-0.075773
-0.013888
0.036974
-0.037129
-0.015145
-0.001885
0.046476
0.079889
-0.078247
-0.039105
-0.014928
0.013097
-0.021313
0.027532
-0.041906
-0.015864
0.000761
0.003859
0.013863
-0.009408
0.032235
-0.005549
-0.005453
-0.042931
0.065109
0.044567
0.058157
-0.073945
0.054398
-0.026158
-0.016463
0.172343
-0.080547
-0.121449
0.087842
0.004776
-0.058035
-0.002116
0.018478
-0.011692
-0.018503
-0.010995
0.003981
-0.008295
-0.014055
-0.002367
-0.101963
0.014269
0.051013
-0.203223
0.006824
0.160260
-0.111038
-0.027486
0.058011
-0.014680
0.007198
0.022847
-0.054414
0.008792
0.034535
-0.051941
-0.017269
0.013192
-0.021205
0.043838
0.004896
-0.050973
0.022480
0.050024
-0.029100
-0.000453
0.000660
0.014663
-0.008756
0.007083
0.000708
-0.014084
-0.016455
0.023949
0.000198
-0.002563
-0.006491
-0.000833
0.018888
-0.010616
-0.010155
-0.011116
0.006669
0.011322
0.000312
0.053886
-0.018496
-0.091445
0.106228
0.045893
-0.268222
0.056483
0.082804
-0.110006
0.021762
0.042085
0.017338
-0.000809
0.003597
0.035499
0.017004
0.040787
0.032946
-0.025010
-0.062150
-0.008031
-0.014577
-0.055605
-0.019261
0.011845
-0.080780
0.008346
-0.020346
-0.007503
0.003391
0.014561
-0.009730
-0.001594
0.000975
-0.005397
-0.003045
0.029295
-0.036884
-0.014643
0.036243
-0.005825
-0.035647
0.034464
-0.023265
-0.020317
0.043541
-0.015600
-0.029839
0.123517
-0.049446
-0.071674
0.071673
-0.018583
-0.027045
-0.068418
0.070573
-0.003103
-0.180592
0.157962
0.052575
-0.106316
0.032071
0.026560
-0.024995
0.031519
0.024884
-0.052285
-0.010467
0.044195
-0.050386
-0.030472
0.036216
0.005352
-0.031734
-0.015483
0.017195
-0.029302
-0.001042
-0.010645
-0.025967
-0.009095
0.005683
-0.009231
0.003543
0.008532
-0.015992
0.017158
-0.021452
-0.013854
-0.003752
0.015566
0.000631
-0.010586
-0.001731
0.004233
-0.001018
0.010467
-0.024494
0.000317
-0.008816
-0.004845
0.012456
0.001089
-0.044701
0.013361
-0.026308
-0.008980
0.010965
0.018059
0.006495
-0.035042
0.005666
-0.023119
-0.028804
-0.015849
-0.002644
0.001239
-0.005167
0.002344
-0.003197
0.011625
-0.016009
0.002918
0.003792
0.003564
0.002009
-0.048275
0.044282
-0.022865
-0.093329
0.139619
0.023446
-0.039773
0.050387
0.014412
0.015637
-0.019745
-0.031560
0.019940
-0.009904
-0.070431
0.023402
0.015320
-0.043875
0.032014
-0.070295
-0.011103
0.093587
-0.093727
-0.021311
0.044071
-0.027080
-0.015307
-0.000763
-0.005290
-0.001115
-0.003482
-0.007821
0.011158
0.002709
-0.012334
0.005777
0.009770
-0.030290
0.024396
-0.006882
-0.043724
0.013070
0.000189
-0.003494
0.030076
-0.033367
-0.021171
0.012500
-0.040720
-0.005340
0.010410
-0.007556
-0.018005
-0.003143
0.061323
0.017386
-0.020414
0.057325
-0.001793
0.000456
0.009499
0.017539
-0.027121
0.006620
-0.049543
-0.022497
0.031060
-0.083677
-0.047288
0.008347
-0.013418
-0.007846
0.015057
-0.010274
0.011637
-0.016654
-0.028081
0.003520
-0.030694
-0.011964
0.029466
-0.037455
-0.036229
0.003710
0.007766
0.053024
-0.001612
-0.021225
0.045868
-0.030854
0.008803
0.015947
0.021278
-0.000811
-0.037796
-0.007486
0.007064
0.006438
-0.012885
0.050492
0.018112
-0.013632
-0.011762
0.056318
-0.050228
-0.006195
0.018723
0.017228
-0.043569
0.091652
0.089170
-0.069556
0.032217
0.081514
0.007941
-0.081034
-0.037730
0.026213
-0.028515
-0.077188
-0.021808
0.010957
-0.018552
0.008581
-0.001387
0.027130
0.003620
-0.024860
-0.056965
0.020583
-0.024215
-0.033524
-0.006627
0.033700
0.027018
0.065567
-0.057900
-0.132695
0.036416
0.050395
-0.070491
-0.002506
0.051659
0.063945
-0.013718
-0.040117
0.040785
-0.004501
-0.018733
0.017437
0.006733
0.002037
-0.010411
0.011047
-0.022228
-0.002640
0.012832
-0.010249
-0.003836
-0.001974
-0.010705
-0.024578
0.020049
-0.017887
-0.021180
-0.021340
-0.013909
-0.052995
-0.008986
0.003314
0.002373
0.032026
-0.105895
-0.013635
0.020494
0.065939
-0.096017
-0.030927
0.043714
0.026788
-0.014529
-0.094421
-0.087609
0.025717
-0.048832
-0.048507
-0.004870
-0.007472
-0.041278
-0.028314
0.029909
0.017437
-0.026005
-0.027084
0.038360
0.005663
-0.024281
0.007614
-0.032063
0.073273
0.014432
-0.030900
-0.046671
0.036938
0.001651
-0.051245
0.009571
0.058565
-0.052571
-0.126935
0.023568
0.017838
-0.067982
-0.000538
0.027551
0.034339
-0.042550
0.052467
0.082545
-0.014292
0.006525
0.035587
0.012660
-0.048975
-0.035544
0.045247
0.011240
-0.098596
-0.013456
-0.027209
0.023478
-0.005747
-0.025272
0.031688
0.019593
-0.068501
-0.148399
0.019468
-0.015481
-0.132951
-0.012260
0.052194
0.044184
-0.003530
0.019478
-0.034809
-0.009756
-0.013835
0.013922
0.003078
-0.028238
0.018592
0.067402
-0.043112
-0.176180
0.037869
0.029819
-0.074726
0.006584
0.052450
0.035769
0.005148
0.000268
-0.041735
-0.017793
-0.008367
-0.013426
0.012955
-0.013518
-0.002163
-0.067541
-0.004524
0.126051
0.019114
0.022929
0.027401
0.005890
-0.055000
-0.012549
0.020700
-0.000361
-0.024597
-0.001429
0.005822
-0.019839
0.002213
-0.003389
0.004418
0.083072
-0.041986
-0.013912
0.035642
0.024206
-0.048082
-0.026737
0.061532
0.007131
-0.034614
0.021859
0.077723
0.022911
-0.042924
0.048901
-0.007591
-0.017934
-0.028687
-0.113149
0.104716
0.174462
-0.034651
-0.031455
0.115043
-0.001345
-0.085572
-0.067763
-0.006302
0.038368
-0.009552
-0.018528
-0.015334
0.010629
0.005032
-0.045070
0.026713
0.033668
-0.013300
0.005228
-0.000691
0.002519
0.040534
-0.000759
0.013256
-0.003488
-0.070596
0.076248
0.121319
-0.038791
0.012287
0.113955
0.003904
-0.082061
-0.005691
0.026423
-0.026710
-0.059384
0.013740
0.016620
-0.019708
0.022873
0.021318
0.014872
-0.028816
-0.037557
0.009567
-0.008290
-0.019986
0.004359
-0.022062
-0.028026
-0.015534
-0.029771
0.078701
-0.007994
-0.059980
-0.004368
0.097106
-0.008538
-0.081923
0.035578
-0.006691
0.045282
0.019650
-0.001821
-0.028638
0.035327
-0.000538
-0.005870
0.010075
-0.051655
0.062682
0.053663
-0.027771
-0.036555
0.088238
0.004585
-0.032450
-0.050434
-0.017607
0.008369
0.041632
-0.044958
0.005498
-0.002598
0.017848
-0.022710
0.003024
-0.003463
0.010301
0.018366
0.019595
-0.030079
-0.014037
0.020841
0.008853
-0.037545
0.011373
-0.014606
-0.017333
-0.002123
0.038455
0.027726
0.013489
0.000880
-0.004097
0.017162
0.006548
-0.005868
0.028232
-0.070772
-0.013269
0.004382
0.032181
0.023408
0.113781
0.114300
-0.008834
0.070536
0.186717
0.027381
0.034204
0.015137
0.061501
0.016644
0.020117
0.000397
-0.005038
-0.029275
-0.018531
0.016849
-0.009113
0.001844
0.036031
0.029522
0.059519
-0.002511
-0.039426
0.006518
-0.019141
-0.037267
-0.008153
-0.036965
0.001685
-0.003879
0.036019
0.003777
-0.012634
-0.014588
-0.004897
0.014449
0.012334
0.002664
0.008460
0.032611
0.069869
0.009681
0.021355
-0.006584
0.017509
0.003080
-0.001998
0.016965
-0.014208
-0.081840
-0.016616
0.049058
0.009911
0.026720
-0.015542
0.007087
0.005914
-0.003054
-0.004599
-0.011317
-0.004594
0.008060
-0.010202
0.036113
0.088975
0.029051
-0.013749
-0.008314
0.002904
-0.028480
-0.068786
-0.062009
-0.022546
-0.045266
-0.042280
-0.084315
-0.138221
-0.053171
-0.064400
-0.066999
-0.035385
-0.049160
-0.035323
-0.013952
-0.032599
-0.113396
-0.024751
-0.006465
-0.020807
-0.032139
0.005939
-0.001158
0.030899
-0.037034
-0.048856
0.001577
0.000350
0.036803
0.025068
0.008776
0.007706
-0.009297
0.001383
-0.010706
0.010225
-0.027581
0.006539
0.001524
-0.004979
0.010547
-0.004528
-0.019995
-0.035842
-0.022738
-0.008359
0.000170
0.007379
0.008873
0.027395
0.008057
0.015592
0.000921
0.006555
-0.009173
0.015579
0.013554
0.012322
0.044853
-0.009367
-0.040848
-0.002041
-0.012709
0.001514
-0.010263
0.007475
-0.004181
0.005001
0.014458
0.060399
0.107554
0.037894
0.015632
0.002523
0.016985
0.013157
0.028160
0.027106
0.007790
0.015464
0.034096
0.004351
0.012105
0.006750
0.035905
-0.008595
-0.019101
-0.055028
-0.015145
-0.075314
-0.003238
0.013907
-0.003336
-0.044306
-0.049975
-0.011149
0.012838
-0.075306
-0.041919
-0.001562
0.012152
-0.000227
0.016570
0.034874
0.020099
0.036616
0.128807
0.001119
0.053007
-0.011837
0.024841
0.015682
0.026967
-0.010613
-0.038697
-0.007183
-0.018202
0.007909
-0.017792
0.012312
0.033172
-0.001272
0.024790
-0.056481
-0.037134
-0.008177
0.011922
0.017803
0.012987
-0.025618
0.007009
-0.008350
-0.008013
-0.001887
0.004771
0.014030
0.006511
-0.003176
-0.009291
-0.013098
-0.002364
-0.009426
-0.002533
-0.005919
0.024117
0.013266
0.012365
0.003760
-0.004230
0.015954
0.004332
-0.002455
0.010414
0.001381
0.019880
-0.013157
0.033356
0.026873
0.024086
-0.000911
0.015257
0.011834
-0.033190
-0.043618
-0.025242
-0.087100
-0.079302
-0.057390
-0.124660
-0.256719
-0.127094
-0.066857
-0.112622
-0.061084
0.023990
0.003765
-0.004495
0.007357
-0.031502
-0.021477
0.020756
0.011054
0.015174
-0.047259
-0.144180
-0.019877
0.043405
0.013313
-0.026170
-0.012028
0.134172
0.027441
-0.015730
-0.029840
-0.010553
0.025586
0.040159
0.000231
-0.002049
0.004755
0.002499
-0.014608
0.098716
0.095268
-0.024089
-0.075402
-0.028091
0.012651
-0.097343
-0.110964
-0.007236
0.013960
0.010219
-0.018749
-0.084952
0.015727
0.002168
-0.086513
-0.057582
0.050026
-0.008165
-0.075438
0.190042
-0.027551
-0.222931
0.034734
-0.003430
-0.001651
0.009312
0.007041
0.014841
-0.021069
0.004604
0.005091
0.005033
-0.036304
-0.015899
0.007043
-0.013427
-0.017698
-0.040920
-0.000645
0.024690
-0.017077
-0.022628
0.029411
-0.025262
-0.088755
-0.074704
0.055185
-0.025758
0.001271
-0.030035
0.092626
0.088327
-0.012705
0.016807
0.091133
0.041633
-0.023096
-0.001829
0.053523
0.022483
-0.047038
-0.074971
-0.038934
-0.042381
-0.066914
-0.074340
-0.002745
0.104611
-0.017518
-0.038713
0.004946
0.029347
-0.036919
-0.014205
-0.013849
0.028837
0.007002
-0.017543
0.009397
0.029014
-0.012856
0.016390
-0.007306
-0.024658
-0.015657
-0.013874
-0.022027
-0.028116
-0.003656
-0.041553
0.023924
-0.083983
-0.044794
0.061911
-0.021942
0.050864
0.033957
0.024441
0.108092
0.002268
-0.043228
0.070411
0.093752
0.001048
-0.092917
-0.038920
-0.033520
-0.051864
-0.015412
0.005800
-0.005471
-0.030850
-0.039191
-0.002172
0.031358
0.039261
0.020060
0.014775
0.018169
-0.020708
0.004291
0.016109
-0.001099
0.030138
-0.019788
-0.019627
0.018296
0.009076
0.003422
-0.032717
0.005027
-0.013176
0.019951
0.017192
0.029954
0.008585
0.042679
-0.077729
0.015914
-0.002203
0.045767
0.027641
-0.009923
-0.029299
0.006334
-0.008672
0.019976
0.015997
0.007031
-0.014423
-0.029997
-0.066205
-0.022064
-0.005223
0.064521
-0.066689
-0.028878
0.012317
-0.028656
-0.053597
-0.037371
-0.018462
-0.040084
0.005287
-0.047652
-0.120937
-0.008451
-0.015515
-0.045784
-0.029738
0.077622
0.051506
-0.058944
-0.035206
0.020216
0.029266
-0.122912
-0.053533
0.012842
-0.030464
-0.033629
-0.023976
-0.033705
-0.027743
0.021719
0.036768
0.025086
0.005885
-0.029684
0.020092
0.114606
0.120063
-0.072466
-0.016127
0.031866
0.019564
-0.005371
0.009303
0.003013
0.016148
-0.051364
0.025934
-0.019477
0.015783
-0.033847
0.001371
-0.021826
0.008882
-0.068680
-0.016013
0.010383
-0.013685
-0.000983
-0.004601
-0.011156
-0.011642
-0.005676
-0.044048
0.044303
-0.032997
0.000368
-0.015814
0.020660
0.004719
-0.031162
-0.039848
0.044693
-0.029415
-0.063430
0.008625
0.001149
0.035064
-0.056692
-0.120059
-0.079297
-0.003839
-0.070306
-0.081854
-0.027309
-0.009277
-0.066904
0.014653
-0.000314
-0.024015
-0.014299
-0.002726
0.024882
-0.017652
0.010441
0.018507
-0.010369
0.009597
-0.020121
-0.184344
-0.034739
0.175403
-0.036583
-0.043706
0.087130
0.026541
0.007081
0.015120
0.028337
0.045058
-0.011216
-0.016908
-0.025644
0.007449
-0.007902
-0.020988
0.002367
-0.004126
0.038954
0.037398
0.076399
0.043477
0.005472
0.011595
-0.004364
-0.058206
-0.035430
-0.120493
-0.090413
-0.098161
-0.080266
-0.021902
0.005063
0.003376
-0.007405
-0.003464
0.010854
0.022137
0.008746
0.001456
-0.001355
0.007770
0.012229
0.021560
0.004635
0.004496
0.026419
0.024096
0.039808
-0.001775
0.013011
0.034921
0.102684
0.060320
0.115196
0.086890
0.098967
0.069782
0.025616
-0.004324
0.001373
0.019844
-0.009495
-0.008594
-0.005881
-0.014358
-0.016499
-0.011060
0.001369
-0.002287
0.002591
-0.000930
-0.009352
-0.013610
0.003654
-0.022930
0.006822
0.003651
0.006796
0.007244
0.006510
0.000465
-0.019645
-0.018518
-0.027785
-0.034112
-0.009450
-0.045856
-0.032894
0.002757
-0.045323
0.039385
0.030921
0.028370
0.050587
0.011523
-0.049368
-0.100427
-0.011395
-0.142477
-0.123844
0.017508
-0.044141
0.044065
-0.001638
-0.009634
-0.006138
-0.007869
0.007173
-0.004526
0.009313
-0.011943
-0.007965
0.031281
-0.027206
-0.035828
0.018510
-0.054901
-0.007470
-0.016554
-0.039377
0.013167
0.002439
0.019374
0.045450
0.025111
0.056282
0.041945
0.053529
0.020992
0.019752
-0.016830
-0.048594
-0.096326
-0.058543
-0.163642
-0.098254
-0.119586
-0.095714
-0.030537
0.009372
-0.012351
-0.065481
-0.007580
-0.051998
-0.009958
0.000319
0.004935
0.029209
0.001423
0.030556
0.029602
0.013614
0.042016
0.045557
0.036548
0.052995
0.022542
-0.008882
0.018050
0.000472
0.014229
0.003305
0.022418
0.015193
0.025439
0.004162
0.010194
0.025097
0.038031
0.046674
0.074780
0.069785
0.052600
0.060986
0.028340
0.018533
0.003784
-0.008113
0.009001
-0.041107
-0.013052
-0.041343
-0.016298
0.018010
0.020207
0.018248
0.036527
-0.027091
-0.036508
-0.031461
-0.050698
-0.035667
0.013439
-0.004344
-0.065623
-0.075847
-0.027522
-0.063446
-0.009594
-0.017462
-0.008725
-0.004667
-0.009748
0.021070
-0.009563
-0.011766
0.020771
0.047528
0.039513
0.038569
-0.000459
0.019628
-0.009506
-0.016305
-0.012580
-0.039813
-0.067682
-0.017114
-0.028498
-0.015188
-0.001862
-0.053372
-0.098532
-0.088110
-0.140353
-0.066145
-0.146023
-0.072250
-0.034687
-0.005505
0.003124
0.018071
0.001723
0.001525
-0.012196
0.014752
-0.006044
0.011715
-0.010755
-0.007127
0.032338
-0.020104
0.017685
0.016396
0.035784
0.038828
0.000611
0.034800
0.010026
-0.030285
0.026306
-0.059151
-0.020562
-0.034228
0.000666
0.023425
0.032470
-0.002051
0.019122
-0.014301
-0.028606
0.000577
0.018688
-0.002780
0.004768
0.000231
0.007472
-0.012130
-0.007766
-0.074060
-0.082345
-0.051525
-0.083900
-0.029725
0.015294
-0.008922
-0.018700
0.005363
-0.046766
-0.042701
0.006759
-0.018344
-0.005719
-0.008740
-0.002846
0.000418
0.000703
0.028589
0.013322
0.050201
0.021080
-0.019361
0.001575
-0.000538
-0.016371
0.005031
-0.019146
-0.006280
-0.040801
-0.020934
0.010571
-0.032895
-0.012819
0.034725
-0.044885
-0.012789
0.041155
-0.030956
-0.005800
0.029992
-0.008862
-0.004979
0.007624
0.001554
0.000658
0.016388
-0.014962
-0.009634
0.012277
0.002867
-0.011080
-0.009684
0.007706
0.008086
0.003305
-0.005731
0.009601
0.008591
0.010316
-0.013553
0.008836
-0.037787
0.017648
0.020636
-0.041190
-0.004714
0.039380
0.029826
0.000922
-0.016807
0.006128
0.001777
-0.010012
0.001771
-0.000784
-0.032197
0.004186
-0.004962
-0.017213
-0.006025
-0.048106
0.015176
-0.017482
-0.004448
0.050790
-0.052183
-0.005192
0.000964
-0.021066
0.006788
0.026697
0.033785
0.009608
-0.023608
-0.000443
-0.006336
0.012287
-0.028372
-0.021084
0.022860
-0.018129
-0.035298
0.006639
0.030818
0.018506
0.019124
0.006937
-0.018511
0.016534
0.019019
-0.003664
0.053565
-0.022928
0.014085
0.050719
-0.022867
-0.074714
0.047637
0.017588
-0.004887
0.032441
0.014362
-0.072143
0.018192
0.049506
0.045958
-0.100334
-0.048541
0.084884
-0.046880
-0.024352
-0.060020
-0.022100
0.059777
-0.097109
-0.045523
0.029410
-0.013033
-0.031652
0.017269
0.002894
-0.000856
0.004983
-0.007926
0.021074
0.007201
-0.005531
0.008768
-0.010654
0.002403
0.005955
0.019388
-0.036999
-0.047386
0.025839
-0.009342
-0.036938
-0.075835
0.000704
-0.027705
-0.057027
-0.010243
-0.004599
-0.007442
-0.045286
-0.012834
-0.004596
-0.002038
0.010409
0.006516
-0.001400
0.005977
0.007551
-0.001862
-0.002234
-0.005011
0.010997
-0.082656
0.077444
0.015925
-0.141290
0.046263
-0.018951
-0.091947
0.009802
0.005044
-0.005378
0.008077
0.005049
0.007129
-0.005010
-0.002658
0.001140
0.005374
-0.000832
0.005674
-0.025939
-0.019261
0.028773
-0.016564
-0.022773
0.001560
-0.005932
-0.026584
-0.001063
0.003448
-0.009067
-0.008635
-0.014679
-0.019845
0.004902
-0.008408
-0.011553
0.009241
0.010152
0.018079
0.008965
-0.005452
0.009265
-0.006423
-0.000072
-0.007299
-0.034052
0.007287
-0.016987
-0.028336
0.017295
-0.007051
-0.037271
-0.012023
-0.030393
-0.018164
-0.011960
0.004389
-0.053095
-0.024738
0.009108
-0.019812
-0.020231
0.004390
0.029120
-0.077081
-0.013395
0.068784
-0.014030
-0.025311
0.009695
-0.072640
0.009737
0.020449
-0.232468
0.052124
0.135392
-0.116322
-0.066526
0.068009
0.026415
-0.011147
-0.038031
0.033843
0.009416
-0.056625
0.000976
-0.003090
-0.017281
-0.004029
0.004407
-0.003413
0.002372
0.001111
-0.006971
-0.003342
0.001580
-0.009498
-0.011048
-0.029518
-0.012176
-0.002758
0.014825
-0.006414
0.010447
-0.015375
-0.005890
0.004795
0.008629
0.010693
0.021214
0.013672
0.008020
-0.000623
0.002298
0.003653
0.030670
-0.009415
-0.139208
0.171313
0.234123
-0.154061
-0.011444
0.103994
-0.076783
-0.030628
-0.023060
-0.006509
0.005305
0.009789
0.000732
-0.027736
-0.017173
-0.028001
0.004746
0.007596
0.011718
0.043475
0.012247
-0.003983
0.005380
0.017283
0.001053
-0.039482
0.027322
-0.007508
-0.078260
-0.023130
-0.002581
-0.002402
0.025174
0.011335
0.011476
0.021554
-0.014421
0.008336
0.036454
-0.017349
-0.019691
-0.015248
-0.010030
-0.013019
-0.016579
-0.006180
-0.005542
-0.038260
-0.020865
-0.016444
-0.011937
0.003894
0.114566
0.015072
-0.069308
-0.025255
0.245384
-0.009433
-0.074838
-0.099319
0.035301
0.063025
-0.055114
-0.025243
-0.085941
-0.022723
0.013164
-0.020517
0.061114
0.021511
-0.088389
-0.098756
0.047396
0.011876
-0.010233
0.062782
0.009536
-0.001640
0.039825
-0.011506
-0.087243
0.049573
0.005444
-0.055000
0.056967
0.009517
-0.025019
0.036276
-0.003381
0.004007
0.024246
0.008343
0.007875
0.012205
0.006708
-0.037099
-0.004700
-0.108901
-0.110967
0.043721
-0.028123
-0.100205
0.085297
0.106342
0.102097
0.045696
-0.073641
-0.062002
-0.066667
-0.124018
-0.010504
-0.000078
-0.023362
-0.042285
-0.004888
-0.014464
0.023846
0.010680
-0.020225
-0.007478
-0.011871
-0.013836
-0.030839
0.018265
0.027964
0.142782
0.016676
-0.037041
-0.039799
-0.048993
-0.051056
-0.013657
-0.019262
0.009108
-0.014076
-0.013390
-0.051220
0.032752
-0.008591
-0.021823
0.003126
0.011652
-0.001160
0.069395
0.025303
0.129057
-0.051647
-0.006620
-0.010050
-0.037378
-0.006501
0.003856
-0.017576
-0.037084
-0.013429
0.045198
-0.050085
-0.025139
-0.003905
0.039029
-0.007629
-0.003828
-0.014892
0.002613
0.009187
-0.017342
-0.029106
0.003027
-0.025428
0.013696
-0.031436
0.004926
-0.009346
0.033409
-0.007429
-0.036367
-0.009654
-0.000755
0.039311
0.038719
-0.020494
0.001239
0.054271
-0.006616
-0.013456
-0.002545
-0.004885
0.000790
-0.072628
-0.007036
-0.018213
-0.062186
0.000462
-0.021389
-0.016331
-0.000785
-0.031225
-0.017875
0.034224
-0.076809
-0.042246
0.018784
0.023071
-0.015356
0.001703
0.022666
0.057520
-0.049093
0.017488
0.063262
-0.043186
0.006745
0.003861
-0.006581
0.016643
-0.035202
-0.016882
-0.016864
-0.095308
0.016155
0.028161
0.012178
-0.036177
0.040603
0.032805
-0.026435
-0.000348
-0.036571
-0.066377
-0.057510
-0.063331
0.018493
-0.039273
0.119850
-0.002571
0.088363
-0.047575
-0.050300
0.030196
-0.040580
-0.014506
0.010067
-0.003630
0.003710
0.008870
-0.016661
-0.008173
-0.063917
-0.052687
0.006808
0.278025
-0.017649
-0.016371
0.030590
-0.090543
0.019965
-0.002726
0.031443
0.002010
-0.008939
0.032333
0.006303
0.023564
-0.000173
-0.008646
-0.016421
-0.019788
-0.001853
-0.057594
-0.038416
0.019682
-0.005298
-0.007989
0.027812
-0.000541
-0.007142
-0.024839
0.026514
0.040176
0.022507
0.035498
0.034810
-0.013002
-0.019082
-0.022049
0.008583
0.026846
0.052758
0.014603
-0.026817
-0.055369
0.000131
-0.024303
-0.063545
0.007743
-0.046096
-0.046825
-0.038258
0.019594
0.021584
-0.037822
0.027189
0.041876
-0.017164
0.001151
-0.061866
0.022666
0.034378
0.061390
-0.058401
-0.002577
0.019146
-0.004200
-0.073832
0.035740
-0.020611
-0.058113
0.086055
-0.074361
0.038740
-0.050347
-0.012052
0.038179
0.027170
0.006584
0.038661
0.021773
0.031306
0.035072
0.031709
0.014055
0.021261
-0.004038
0.021301
0.069008
-0.166987
0.127189
0.000868
-0.003980
0.070521
0.026235
-0.017018
-0.026153
0.009133
0.012115
0.008218
-0.026431
0.016204
0.017843
0.096804
-0.174762
0.065870
0.023870
-0.011227
0.089074
-0.071418
0.068544
-0.024826
-0.031509
-0.012504
0.045885
-0.047807
0.019791
-0.011400
0.020551
0.011806
-0.003543
0.029461
-0.002814
0.005133
0.012967
-0.010328
-0.003742
-0.010149
-0.006079
-0.028823
0.007783
-0.000573
0.091223
-0.025407
0.263207
-0.074644
0.011763
0.085169
-0.067731
0.040206
0.003124
0.029583
0.028536
-0.062138
0.048562
0.019175
0.005822
0.061520
0.039336
-0.055656
-0.129368
0.029954
-0.083815
-0.119722
0.027157
-0.095398
0.025648
-0.032046
0.038521
-0.016207
0.016859
-0.007027
-0.033404
0.009710
-0.027891
0.002398
0.002014
-0.010172
-0.007827
-0.014408
-0.012573
0.008317
-0.034333
0.009256
0.028836
-0.057124
0.038381
-0.045408
-0.000350
0.002555
-0.054088
0.066135
-0.125013
-0.000941
0.053574
-0.049795
0.022736
0.005735
-0.075374
0.038502
-0.063408
0.061835
0.012707
0.011571
-0.025131
-0.015346
0.000564
-0.060669
-0.016291
0.002843
-0.035958
-0.012839
-0.031505
-0.040918
0.014519
0.007012
-0.021669
-0.000326
0.028378
-0.001476
-0.020520
-0.001839
-0.003994
-0.004168
0.010310
-0.005188
0.006109
-0.017755
0.000997
-0.001888
-0.002744
-0.044399
-0.009848
-0.060110
-0.008039
-0.067340
-0.025018
-0.031602
-0.027170
0.029445
0.002579
0.002878
-0.000030
0.027456
0.024418
-0.008051
0.009890
0.021980
-0.065400
-0.007916
-0.015814
-0.018704
-0.013865
-0.028980
-0.047380
0.012750
-0.027558
-0.040762
-0.020177
-0.002877
-0.020003
-0.017427
-0.007725
-0.017031
0.009026
-0.022108
0.026385
-0.073411
0.036801
0.029549
-0.056749
0.072240
-0.025797
0.039036
-0.011549
-0.021229
0.012612
0.012133
0.054522
-0.096397
0.024854
-0.011163
-0.019947
0.029082
0.008411
0.023913
-0.005486
-0.028395
-0.063922
0.003709
0.004104
-0.011501
0.044678
0.005221
0.014421
-0.010442
-0.001953
-0.004280
0.014103
-0.001267
-0.000367
-0.007222
-0.011081
-0.048563
0.009884
-0.057383
-0.009709
-0.007419
-0.046218
0.016097
0.004762
0.007645
0.044645
-0.005936
-0.029142
-0.055277
-0.037297
-0.001033
-0.000874
-0.027026
-0.069372
-0.051820
0.021551
-0.066936
0.029214
-0.033195
-0.030284
0.036880
-0.019264
-0.017395
0.022642
0.010235
-0.001435
0.010201
0.005943
0.011059
-0.061813
0.003575
0.032921
0.005940
0.007899
-0.015933
-0.046407
0.014969
-0.031183
-0.040202
-0.009859
-0.015533
0.085630
-0.073547
0.038733
0.097797
-0.089900
0.084612
-0.044061
-0.020674
-0.000822
0.001654
0.006918
-0.029450
-0.056480
0.003133
0.011609
-0.011592
-0.010851
-0.095081
-0.022284
0.045984
-0.081751
0.019332
0.071897
-0.033581
-0.022326
0.068210
-0.018945
-0.032204
0.008841
-0.037466
-0.031748
0.007098
-0.019913
-0.031258
0.027257
0.006736
0.034122
-0.026201
0.015979
0.015899
-0.008762
0.004028
-0.010285
-0.015385
0.005928
0.022805
-0.011753
-0.007753
0.005306
-0.004485
0.036953
0.005608
-0.002943
-0.033242
0.023414
-0.000615
-0.035406
0.004801
0.016798
-0.015924
-0.017316
0.017437
-0.051801
0.034319
0.048045
-0.067900
0.006935
0.013489
-0.017035
0.015015
0.024558
-0.020720
0.020475
0.028249
-0.030413
0.011800
-0.000096
-0.070002
0.009953
0.008836
0.009916
0.068546
-0.053268
0.018802
0.019102
-0.061066
0.040452
0.032543
-0.036900
-0.099966
0.078101
0.128728
-0.128863
0.084601
0.159154
-0.133683
0.014511
0.200962
-0.041961
0.012212
0.001608
-0.046324
0.001129
-0.005351
-0.008036
0.004994
0.003650
0.024659
-0.007124
-0.019047
-0.006280
0.016599
-0.017959
0.008276
0.008911
-0.007851
0.059504
-0.022058
0.005423
0.028685
-0.038189
-0.022371
0.046985
-0.015440
-0.059650
0.000903
0.032611
0.004166
-0.046459
0.045831
0.026205
-0.011649
0.018578
-0.001274
0.016337
-0.022446
-0.006275
-0.005201
-0.035311
-0.002837
0.015772
-0.021407
-0.010859
0.040351
-0.026633
0.003050
-0.020880
-0.012714
0.013723
-0.013551
0.024585
-0.019405
-0.028939
0.039155
-0.007265
-0.000442
0.001586
0.000451
0.010041
-0.024689
0.020616
0.022962
-0.001725
-0.021034
-0.004883
0.030115
-0.024611
0.016828
0.010147
-0.016739
-0.028680
-0.000891
0.010389
-0.008487
0.022461
0.007804
-0.024092
-0.018479
-0.008471
0.001178
0.011154
-0.019635
0.041341
-0.012651
0.001102
-0.004404
-0.045956
0.015319
0.153745
-0.048489
-0.055063
0.109677
-0.135637
-0.099229
0.103621
-0.024267
-0.072728
-0.033235
0.025531
-0.015252
-0.010997
0.036816
-0.009630
-0.007501
0.006038
-0.004029
-0.106711
0.083799
0.002219
-0.169648
0.156036
0.060749
-0.124776
0.068663
0.068914
0.049533
-0.035666
-0.064304
0.034060
-0.018977
-0.096982
0.033134
0.057072
-0.071253
0.037311
-0.030140
0.017679
-0.030681
0.000227
0.021827
-0.012932
0.049069
-0.009610
0.044074
-0.010626
-0.011375
0.014644
-0.002123
-0.035471
0.037085
0.025367
-0.026662
0.014563
-0.030863
0.013783
0.015565
-0.027427
-0.014472
0.024046
0.009347
-0.013375
0.057866
-0.039324
0.000382
0.010327
-0.023745
-0.047555
0.018958
0.027211
-0.033140
-0.042504
0.016089
-0.007851
-0.073343
0.002757
0.017972
-0.031379
-0.000204
0.018613
0.002375
0.019441
-0.002049
-0.008475
-0.021895
-0.042808
0.011234
0.016303
-0.014994
0.024781
-0.050312
0.023788
0.029980
-0.048357
0.014975
0.041825
-0.040010
-0.004043
0.010575
-0.000604
-0.007465
0.013446
-0.020042
0.014203
0.009189
-0.024431
-0.008185
-0.061789
-0.023660
0.069248
-0.020175
-0.032718
0.065032
-0.053710
-0.019189
0.074515
-0.103251
0.052783
-0.025433
-0.033237
0.082382
0.032129
0.021186
0.012331
-0.074975
-0.001051
0.003774
-0.032439
0.019488
0.094797
0.036637
-0.031854
-0.054714
-0.019222
-0.054792
-0.082043
-0.025493
-0.022963
-0.029072
-0.059297
-0.025872
0.030313
0.035294
0.009861
-0.010833
-0.031528
-0.063132
-0.018458
-0.037687
-0.028312
0.046605
0.012022
0.033318
-0.054627
0.021861
0.098802
0.029319
0.036812
-0.042209
-0.055774
0.021807
0.023888
0.030758
-0.002811
-0.050779
-0.056116
0.014056
0.019883
-0.008776
0.005203
-0.012806
-0.011184
0.023880
-0.013814
-0.052244
0.004737
-0.007307
-0.005909
0.016473
-0.016200
-0.104539
-0.026630
0.071032
-0.036234
-0.022504
0.015379
0.010894
0.055412
0.042591
0.074376
0.052617
0.027763
0.002595
-0.021056
0.043581
0.004324
0.019245
0.017108
0.077190
-0.025518
-0.047680
-0.105901
-0.050635
0.013486
0.012120
0.018082
0.000318
0.016175
0.017529
-0.007348
0.002192
0.006760
-0.012521
-0.001865
-0.024310
0.068604
0.070620
0.014093
-0.089816
-0.062493
-0.002130
0.034200
-0.014386
-0.056103
-0.045450
-0.046411
-0.016472
0.037702
0.008763
-0.020142
0.017046
-0.000244
0.007392
0.041644
0.098455
0.021841
-0.038108
-0.089693
-0.028369
0.024155
-0.010456
0.028157
-0.044367
-0.055786
-0.046857
0.091324
0.190244
0.038205
-0.121215
-0.066389
-0.027271
0.014849
-0.009727
0.033614
0.026815
-0.028580
0.031697
0.016253
0.004821
0.022227
0.001747
-0.009171
-0.003967
-0.015637
-0.029250
-0.015013
-0.002548
0.018311
0.011639
-0.010997
-0.004545
0.013219
0.024828
-0.085591
-0.065789
-0.018175
0.011742
-0.002040
0.009401
-0.022302
0.015267
-0.004334
0.035519
0.030725
0.014299
-0.023204
0.001326
-0.085023
-0.104459
0.045530
0.037836
-0.035710
-0.088844
0.046911
0.129399
0.071212
0.020699
0.038408
-0.000493
-0.019588
-0.020764
-0.000625
-0.011023
-0.004611
-0.031463
0.044977
-0.069604
-0.090524
0.046868
0.045113
0.039150
-0.038211
-0.077920
-0.030925
-0.022958
0.005230
-0.032006
0.019980
-0.011577
-0.037842
0.020315
-0.001285
0.040674
0.010055
0.006884
-0.011637
0.014668
0.088966
0.068835
-0.063575
-0.058658
-0.040888
0.011555
-0.004679
-0.000854
-0.035367
-0.021537
-0.006992
-0.009584
0.005314
0.020730
-0.036731
-0.014985
0.005739
0.037474
-0.001915
0.014383
0.012126
-0.034514
-0.017783
-0.007113
-0.030397
-0.040050
-0.064223
0.000765
0.020834
-0.017222
-0.047449
-0.008403
-0.020032
0.004936
0.006191
-0.029647
-0.016890
-0.013624
-0.000598
0.007760
-0.012364
-0.012110
-0.034905
0.008719
0.023799
0.023525
0.011344
-0.014889
-0.019866
0.010499
0.026047
0.046600
0.024215
-0.009106
-0.000965
-0.003600
-0.048635
-0.043371
0.001031
-0.004834
0.080038
0.031922
-0.066972
-0.114990
-0.055423
-0.001148
0.052557
-0.047967
0.076217
0.067311
-0.011648
-0.138315
-0.102577
0.005146
0.016107
0.010075
-0.034305
0.010340
0.006047
-0.012556
0.053041
-0.005625
-0.008302
0.004170
0.005244
0.004833
0.013272
0.044480
0.019436
0.009604
0.028449
0.004534
-0.009396
-0.025771
-0.041196
-0.010977
-0.041325
-0.028075
-0.004113
-0.045792
-0.006252
0.021427
-0.008225
-0.016215
0.027028
-0.041298
0.006852
0.042236
0.027397
0.005806
0.051959
0.016471
0.053277
-0.035023
-0.029457
0.039056
-0.048643
0.002649
0.065858
-0.020141
0.017096
0.058702
-0.010243
-0.048203
0.014198
-0.008210
-0.046092
0.031167
0.001477
-0.019174
0.046921
-0.038296
-0.026072
0.040365
-0.062811
-0.038507
0.050432
-0.021490
0.013444
0.064432
0.001073
-0.026834
-0.012420
-0.009776
-0.024263
0.016813
-0.008027
-0.000150
-0.017314
-0.061306
-0.027813
0.088133
-0.128704
-0.056656
0.085324
-0.103593
0.003807
0.133524
0.127460
-0.077393
-0.159942
0.121737
-0.046257
-0.136565
0.116218
-0.039098
-0.047677
0.000888
-0.010221
-0.005914
0.014975
-0.018444
0.000803
0.029723
-0.019175
-0.009714
0.043376
0.014632
0.036855
-0.020528
-0.017906
0.023654
-0.036247
-0.060347
-0.003836
-0.008372
-0.030042
-0.017604
0.003789
0.012200
0.012481
0.016301
0.025313
0.006038
0.021060
0.027718
0.009945
0.006998
-0.034736
-0.016009
-0.003219
-0.028890
-0.011687
0.038316
-0.069305
-0.109284
0.165531
-0.068279
-0.135343
0.130497
-0.069694
-0.119059
-0.009702
-0.034629
0.010022
-0.026664
0.005040
0.030053
-0.017190
0.022917
0.024388
0.011555
-0.008598
-0.004334
0.009537
-0.001124
0.013301
0.025723
-0.006097
0.004327
-0.011779
-0.047392
-0.035658
-0.015332
-0.002845
0.000226
0.017633
0.037856
0.016327
-0.013722
-0.033613
-0.033312
0.007722
-0.076181
-0.044487
-0.018970
-0.032781
-0.021771
-0.078116
-0.019658
0.100860
-0.155291
0.036895
0.100721
-0.081579
0.010221
0.081879
0.018637
-0.003634
-0.046725
0.013643
0.000794
-0.049313
-0.015848
0.008028
-0.022350
-0.005191
-0.002927
0.035855
-0.003265
-0.072141
0.032121
0.031829
0.024543
0.061429
0.023225
-0.020512
0.001211
0.051022
-0.012104
-0.004560
0.045226
-0.014586
-0.012387
-0.011234
0.028483
0.043402
-0.017615
0.023613
0.026080
0.007233
-0.037086
-0.030310
0.016370
-0.014958
-0.006574
0.004476
-0.000333
0.028581
0.026516
-0.006070
0.012130
-0.045453
-0.034894
-0.015709
-0.029136
-0.080770
-0.010338
-0.071813
-0.031006
-0.027435
-0.013100
0.022378
0.005879
-0.026330
0.013935
0.023922
-0.014710
-0.025848
-0.013870
-0.059549
-0.003162
0.005974
-0.057215
0.000928
0.015327
0.009780
0.028164
0.047399
0.005705
0.016375
0.010292
-0.009614
0.015005
0.027785
0.012170
0.003508
-0.014579
-0.001561
-0.003632
-0.007796
0.014911
-0.011957
0.008827
0.013910
-0.070597
0.009526
-0.042054
-0.011193
-0.010846
-0.050937
-0.030709
0.002866
-0.045061
-0.028886
0.001983
0.026760
0.035509
0.000634
0.077216
0.010440
-0.062389
0.017396
-0.009876
-0.059518
0.062726
-0.096285
0.061176
0.052529
-0.214347
-0.008517
0.061587
-0.040838
0.028783
0.029043
0.028796
0.012717
-0.053047
-0.065043
0.007730
-0.027391
0.024021
0.029907
-0.015955
0.051503
0.034179
0.005293
0.070044
0.046424
-0.014177
0.036516
-0.017191
-0.009231
0.037032
-0.012075
0.011433
0.063851
-0.034601
-0.021249
0.063957
-0.003268
-0.000639
-0.038295
-0.059135
0.004522
0.019167
-0.027913
-0.005602
0.001967
-0.039843
0.020078
-0.039651
0.019780
0.007887
-0.028767
0.015358
-0.015489
-0.032476
-0.011633
0.035905
-0.019112
-0.006404
0.013787
-0.012460
0.004768
0.000968
-0.038647
-0.020974
-0.026734
-0.001274
0.014662
-0.006317
0.071863
0.078373
-0.059464
-0.030247
0.008474
0.111942
-0.127089
0.088374
0.080176
-0.196021
0.082013
0.092298
-0.092921
0.106697
0.057345
-0.100654
-0.008134
0.041528
-0.076916
0.008668
-0.001476
-0.075734
-0.027780
-0.003786
0.019393
0.011523
-0.008654
0.007277
0.001650
-0.016966
0.016148
-0.000291
-0.046915
0.018697
0.003157
-0.048349
0.021690
0.032741
-0.059264
0.046701
0.031807
0.001449
-0.017070
-0.000071
0.040818
0.017046
0.007078
-0.003128
0.008460
0.017289
-0.007075
0.010389
0.012065
0.036143
0.039757
0.010167
0.006087
0.011501
-0.020668
0.035671
0.026770
0.045047
-0.003159
-0.040201
0.005792
-0.067098
-0.043945
0.000035
-0.024169
0.004172
-0.030082
-0.033640
-0.004699
-0.039486
-0.006024
0.010417
-0.042897
0.005058
0.014832
0.006101
-0.002619
0.010137
-0.008877
-0.006714
0.022788
-0.015326
0.000075
-0.007394
-0.002222
-0.003500
-0.083071
-0.061378
0.022861
0.027486
-0.016842
0.008571
-0.005097
0.016985
-0.035503
-0.049470
0.024286
-0.012852
-0.003607
0.006942
-0.070867
0.104246
-0.085592
0.090012
0.313346
0.081484
-0.117760
-0.022917
-0.128664
0.033565
0.010545
0.021182
0.002427
0.015090
0.002436
0.010876
-0.007385
-0.004626
0.047771
-0.080689
0.071351
0.045499
-0.279167
0.007556
0.054937
-0.084645
0.065349
-0.023859
0.069912
-0.014971
-0.032911
0.085158
-0.056148
-0.021910
0.045267
-0.039001
-0.017916
-0.017860
-0.020030
-0.036033
-0.000524
-0.001558
-0.007539
0.010390
0.020993
0.005190
0.022673
-0.022063
0.006048
0.028873
0.004300
-0.032455
0.022917
-0.025108
0.005393
0.067057
-0.002989
-0.055985
-0.001398
-0.023903
0.032559
0.046040
-0.009329
-0.017610
-0.009664
-0.031480
-0.018894
0.005356
-0.024323
-0.028177
-0.006404
-0.010142
0.023212
-0.099194
0.022991
0.022655
-0.033621
0.059421
0.022278
-0.052518
0.034874
0.010923
0.043540
0.015626
0.021977
0.001283
0.001639
0.001182
0.014981
0.004718
0.007200
-0.002277
-0.018642
0.023467
0.038975
0.010615
-0.018971
0.010186
-0.017267
-0.010597
0.044768
0.002393
-0.059415
0.021498
-0.052646
-0.036164
-0.048147
-0.039691
0.043277
-0.052719
-0.004355
-0.018085
-0.153156
-0.040413
0.014573
0.018682
0.048007
0.071648
-0.098166
0.039705
0.034584
0.005177
-0.092651
-0.027462
0.090229
-0.104085
-0.009845
-0.057237
-0.038381
-0.043364
-0.049574
-0.034383
-0.043452
-0.042693
-0.025357
0.018386
-0.066517
0.028707
0.008863
-0.040636
0.067352
-0.002832
0.013537
-0.013715
-0.007367
-0.016056
-0.000632
-0.004131
-0.025392
-0.049797
-0.001922
-0.006474
-0.021385
0.054086
-0.052240
0.005931
0.091438
-0.060163
-0.090306
0.046014
-0.021894
-0.093173
-0.017986
-0.008520
-0.036743
0.015613
-0.010859
0.012072
0.011592
-0.017581
0.025055
-0.031315
-0.020599
-0.033931
0.005905
-0.007188
0.000930
0.026918
-0.035444
0.040655
-0.009317
0.078710
-0.014978
-0.025059
0.077815
-0.019482
0.004860
0.047897
0.058985
0.000200
-0.117542
0.117581
0.069920
-0.126075
0.037922
0.103677
0.009217
-0.026915
-0.040701
-0.050018
-0.009890
0.032282
-0.081066
-0.057117
0.059863
-0.053118
-0.035392
-0.005462
0.034086
-0.026187
-0.028132
-0.007650
0.021501
-0.000527
-0.004114
0.015641
-0.018774
0.014182
-0.015536
-0.036075
0.044121
-0.033422
-0.017778
0.018606
0.008059
0.000275
-0.038558
0.043494
0.029210
-0.043055
0.002462
0.011729
-0.004360
-0.032510
-0.044126
0.074754
-0.011018
-0.044752
0.033601
0.077161
0.000422
-0.029329
0.063136
-0.015720
-0.009296
-0.023215
-0.001953
0.003434
0.009112
-0.035118
-0.055184
0.006742
-0.015121
-0.020413
0.004483
-0.009781
-0.065395
-0.041822
-0.009235
-0.030856
-0.030539
0.019017
0.018753
0.001749
-0.019788
-0.018474
-0.015366
-0.004940
0.014224
0.010276
0.025206
0.023599
0.031156
0.039663
-0.006374
0.000364
0.015047
0.049619
0.006088
-0.002116
0.009012
0.024854
0.013332
-0.001253
-0.017937
-0.001188
-0.004830
0.005927
-0.003407
0.039690
-0.084035
-0.041932
0.064590
-0.014754
-0.053184
0.008441
-0.004562
0.006308
-0.027783
0.007572
0.008880
-0.061291
-0.027904
0.004071
0.009895
-0.022837
-0.061693
0.016106
0.043680
0.065868
-0.126522
0.100769
0.047598
-0.097236
0.050349
-0.047493
0.057431
-0.013303
-0.035025
-0.009679
0.142825
-0.009069
-0.117826
0.102208
0.026801
0.028009
-0.008634
-0.009777
0.078072
-0.039161
-0.029229
0.022895
-0.012462
0.018036
0.014221
-0.027640
-0.007603
0.013387
0.013714
-0.030944
0.013490
0.004724
-0.036924
0.021812
-0.003415
-0.046626
-0.000914
-0.022696
-0.012837
-0.010067
0.002826
-0.024696
0.057400
-0.040524
-0.014025
0.076391
-0.014792
0.020654
0.012473
0.016919
0.017786
-0.033200
-0.093305
-0.015172
0.010634
-0.063049
-0.020405
0.012574
-0.018347
0.004404
0.018091
-0.033216
0.003168
-0.022688
0.043393
0.010884
-0.005553
0.004350
0.042274
-0.015825
-0.012975
-0.020657
0.029162
-0.008231
-0.050566
0.024939
-0.020228
-0.045482
-0.096444
0.026850
-0.037928
-0.103413
0.054293
0.020523
-0.041586
0.044648
0.037036
-0.030953
-0.011204
-0.014572
-0.077706
-0.036747
0.021419
-0.060615
0.010290
-0.037162
-0.107404
-0.059516
-0.069224
-0.121644
-0.105499
-0.033354
-0.055879
-0.057194
-0.015080
-0.007365
0.004999
-0.009673
-0.016826
0.013362
0.015834
-0.053226
-0.020957
-0.026837
0.013632
-0.013729
-0.019520
0.036894
0.026105
0.005583
-0.005138
0.028281
-0.007654
0.022502
-0.010963
-0.007452
-0.054705
-0.012431
0.015675
-0.020423
-0.018267
-0.011025
0.008471
-0.008279
0.038769
0.017737
0.034273
-0.022520
-0.018327
-0.030947
-0.013791
-0.041144
0.009564
-0.011979
-0.024497
-0.001758
-0.004307
0.004357
0.022817
0.002445
-0.024383
0.020247
0.002405
-0.036365
-0.003056
-0.003669
-0.020464
0.012403
-0.019717
0.047242
0.014310
0.031780
0.033182
0.040672
0.021510
0.021576
0.032246
-0.001698
-0.024230
-0.066398
-0.059474
-0.073160
-0.074209
-0.000167
-0.034325
-0.010264
-0.064947
-0.090092
-0.044987
-0.031132
-0.097723
-0.075271
0.047220
0.022959
0.007670
-0.038007
0.001622
-0.013440
-0.010084
0.022811
0.007450
-0.005757
0.017468
0.003363
-0.054587
-0.051592
-0.055377
0.029749
-0.028055
-0.026145
0.049719
0.023126
-0.008062
-0.013015
0.010821
-0.019902
-0.003579
-0.024331
-0.002967
-0.024496
-0.028537
-0.017277
0.025014
0.030797
-0.014218
0.002172
0.005580
-0.028227
0.016278
0.010453
0.012203
-0.040666
-0.066202
0.001279
-0.009100
-0.068523
-0.012297
-0.001916
-0.061512
-0.009946
0.000001
0.049385
0.041421
0.045515
0.040500
0.028318
0.025764
0.025848
0.021614
-0.001178
0.003690
-0.011329
0.003062
-0.003508
0.002064
0.035242
-0.009039
0.015602
0.017098
-0.030937
-0.006360
0.025017
-0.035210
0.022535
-0.027698
-0.011318
0.030538
-0.021481
0.004589
0.019070
-0.054289
-0.023451
0.016627
0.005941
0.018618
0.017789
0.070458
0.091841
0.017756
-0.023952
0.025509
-0.027090
0.082833
0.129679
0.031910
-0.050037
-0.113743
-0.037598
-0.034637
-0.080264
-0.028063
-0.004092
-0.046404
-0.022058
-0.044178
-0.144360
-0.042919
-0.074689
-0.121385
-0.053446
-0.083963
-0.125472
-0.045864
0.005875
-0.001335
-0.008426
-0.003049
-0.016677
-0.017723
-0.007899
0.018069
0.022776
0.022853
-0.016307
-0.008282
0.061201
0.013341
0.030081
-0.015258
-0.017808
-0.014152
-0.000137
0.027299
-0.002361
0.012173
0.031442
-0.002946
0.016998
-0.004705
0.029256
-0.029525
-0.028631
0.035040
0.001034
0.004902
0.006645
0.005496
0.021922
0.020378
0.036215
0.018070
-0.012965
0.025125
0.024635
0.040746
0.004865
0.020600
0.014741
-0.006312
-0.086599
0.004096
-0.050804
-0.103808
-0.039978
-0.001577
0.017400
-0.002901
0.014321
-0.012655
-0.019375
0.003329
0.008604
0.003298
-0.001455
-0.009285
0.005377
-0.036206
-0.015414
-0.013410
0.001938
-0.009572
0.018334
0.001355
0.001865
-0.002579
-0.049431
-0.052587
-0.017416
0.019564
0.040195
0.019120
-0.000758
0.025336
0.002799
-0.027889
-0.046142
-0.001348
-0.023356
-0.080472
0.005342
0.003532
-0.057006
-0.019490
0.011089
0.015484
0.034631
-0.107890
-0.176572
-0.012557
-0.023673
-0.068421
0.018638
-0.047845
-0.018552
-0.011068
-0.050532
-0.026283
0.008337
-0.018788
-0.003156
0.009465
-0.027467
-0.024089
-0.028248
-0.012593
-0.052283
-0.038101
-0.007658
-0.040483
-0.018144
-0.019167
0.004348
0.012844
-0.007886
-0.010238
0.027512
0.003220
-0.027631
-0.012144
0.060638
0.044936
0.023679
0.079122
0.062335
0.019512
0.048649
0.029274
-0.004500
-0.004937
-0.012535
-0.019555
0.031245
0.022881
0.007587
-0.001220
-0.006954
-0.026496
-0.004752
-0.004639
-0.008497
-0.018882
0.001119
0.011063
-0.013241
-0.009637
0.013750
-0.032156
-0.015516
-0.041584
-0.013431
-0.064518
-0.020012
-0.023509
-0.021131
-0.015502
0.096324
0.090710
0.061324
-0.173002
-0.178683
-0.051868
0.029688
0.014666
0.060950
0.026275
-0.037672
-0.021697
0.046377
-0.033026
-0.003735
0.001997
-0.052081
-0.031570
0.008093
-0.005871
-0.004630
0.008093
0.024527
0.012279
0.006919
0.005960
-0.000350
-0.006348
-0.039225
-0.019760
0.035154
-0.045979
0.042362
0.043056
-0.026252
0.004224
0.005177
0.017268
0.002772
0.039817
0.022415
0.014756
0.021457
0.013053
0.011630
-0.018732
-0.008993
-0.013733
-0.053887
-0.037666
0.013660
-0.009180
-0.017847
0.004159
0.032444
-0.002414
-0.010373
0.107419
0.068220
0.024994
0.001369
0.004077
-0.025682
0.003192
-0.037280
-0.011515
-0.050639
-0.067836
-0.026902
-0.029473
-0.037000
-0.008110
-0.004669
0.000616
-0.023832
0.011601
0.008241
0.005640
0.004899
0.002421
-0.015337
0.000497
-0.035693
-0.013428
-0.033741
-0.066491
-0.035263
-0.006518
-0.018459
-0.023974
0.016654
0.003377
-0.013592
0.012330
-0.004711
0.012386
-0.012926
-0.012659
-0.012483
0.007740
0.008717
0.002009
-0.047098
-0.053966
-0.030559
-0.009908
-0.025693
-0.007965
0.023727
0.020503
0.025644
0.049883
0.018501
0.030381
0.024238
0.023941
0.022327
0.008918
-0.004483
0.035351
-0.172292
-0.182935
0.012269
-0.055205
-0.068013
0.023340
-0.008793
-0.000074
-0.003252
0.003287
-0.039428
0.005794
-0.005732
-0.037489
-0.020395
-0.000574
0.010018
0.006523
0.028461
0.048882
0.010493
0.005546
0.027107
0.014190
-0.008917
0.001734
-0.022337
0.012491
0.011448
0.012421
0.007871
-0.025156
-0.034638
-0.006930
0.004152
0.001020
0.083204
0.071340
0.021514
0.025416
0.007915
0.002142
-0.014709
0.002167
0.004216
-0.025803
-0.029873
-0.010439
-0.019142
-0.024645
-0.018159
-0.037861
-0.037549
0.009076
-0.044273
-0.053415
0.018627
-0.010229
-0.014096
0.034401
-0.030234
-0.040210
-0.039649
-0.029283
-0.070308
-0.015787
-0.031374
-0.053162
-0.044861
0.009291
-0.003455
-0.018333
0.019783
-0.013571
-0.017284
-0.001711
-0.018937
-0.049621
0.055486
0.041917
0.020531
0.087399
0.082321
0.070576
0.037024
0.027950
0.025584
0.015832
-0.004439
-0.015565
0.014660
0.005293
0.004547
0.014211
0.013699
-0.028807
0.063404
0.040352
0.030385
-0.020283
-0.032402
0.013124
-0.046979
-0.051900
-0.109353
0.014239
-0.050746
0.012420
0.059971
0.138777
0.025099
-0.068276
-0.039762
0.015987
-0.067131
-0.055980
-0.017098
0.039278
0.025001
-0.043861
0.020547
0.027105
0.075353
-0.015385
0.039972
0.009181
-0.049627
-0.051520
0.019462
0.027014
-0.020815
-0.015350
-0.011843
0.091123
0.100750
-0.076279
-0.173999
-0.039402
0.024252
0.024004
-0.037213
0.067321
0.004637
-0.043586
-0.020434
-0.003980
0.004058
0.025023
-0.009461
-0.048210
-0.021692
-0.017127
0.017999
-0.030149
-0.039085
-0.014942
0.039161
0.006076
-0.021901
0.019376
0.054846
0.026861
-0.026384
-0.129098
-0.044767
0.025353
0.040513
-0.037305
0.033412
0.041609
0.031970
-0.037166
0.004497
0.039800
0.048187
0.032077
0.005952
0.009689
-0.026060
-0.050810
-0.012757
-0.019909
-0.025671
-0.012337
0.005843
-0.035283
0.030624
0.012238
-0.030327
-0.007694
0.005368
0.034957
-0.012009
-0.008295
-0.000466
0.019933
-0.015658
0.022852
-0.002893
-0.027371
-0.003336
-0.027599
-0.023957
-0.011343
-0.022711
-0.018953
-0.000227
0.036884
-0.032781
-0.020716
0.008225
0.019497
-0.000001
-0.029041
-0.039184
-0.013647
0.064449
0.027235
-0.022370
-0.035583
0.046191
0.063885
-0.017496
-0.023756
0.000655
0.076599
0.065707
-0.032150
-0.078999
-0.013934
0.043886
-0.011030
0.028679
0.026599
0.018863
-0.020269
0.011769
0.029379
0.031290
-0.002326
0.015162
-0.009505
-0.012932
-0.009682
-0.001745
0.008028
-0.015864
-0.019643
0.015795
-0.036811
-0.031602
0.016792
-0.029026
-0.089720
-0.048053
0.016642
0.015691
-0.000712
-0.021121
0.009377
-0.025620
0.018667
0.007790
0.028446
-0.002310
0.008082
0.020282
0.012616
0.078825
0.006992
-0.084710
-0.158932
0.031788
0.119689
0.074034
-0.055384
0.018287
0.020017
-0.030992
-0.007117
-0.018062
0.048657
0.016247
-0.007236
-0.045451
-0.032085
-0.097558
-0.098467
0.006971
0.055314
0.022952
-0.028478
-0.007889
0.018719
0.027359
-0.021429
-0.041608
-0.032922
0.047446
0.022802
0.022920
-0.050701
-0.047983
0.120422
0.087493
-0.015674
-0.118420
0.068714
0.076188
-0.040766
-0.073714
-0.064427
-0.007751
0.001303
-0.005301
-0.004291
-0.034166
0.005835
-0.006477
0.010830
0.005030
-0.004836
-0.013810
-0.000948
-0.024529
0.032579
0.025790
0.006245
-0.019530
-0.002672
-0.014824
-0.016488
-0.038749
-0.025949
-0.039940
-0.054138
-0.074491
-0.025722
-0.010898
-0.030010
-0.010441
0.007495
-0.040303
-0.064378
-0.037020
0.015345
0.010158
-0.053528
-0.010784
0.034208
-0.008296
-0.000150
-0.010440
-0.031319
-0.012952
-0.007816
0.011777
-0.000541
0.000597
0.009241
0.038982
-0.002908
-0.041136
-0.022829
0.010838
0.046149
-0.060945
-0.057750
0.020239
0.073454
0.015911
-0.095215
-0.030345
0.096719
0.078811
-0.000102
-0.015025
0.001848
0.053328
0.050613
-0.037161
-0.030322
-0.046056
0.019135
0.019329
0.052727
0.024981
0.023806
0.063539
0.005723
-0.022479
-0.121225
-0.028609
-0.033547
0.014269
0.022008
-0.056699
0.031819
0.020408
-0.015578
-0.000678
0.017950
-0.000127
-0.028488
-0.024622
0.008834
-0.021982
-0.000159
0.002953
0.024541
-0.001941
0.021433
-0.042823
-0.021439
0.014287
-0.026832
-0.027499
0.030254
0.053759
-0.003706
0.075064
0.010860
-0.026726
0.043287
-0.058747
-0.005804
0.027348
-0.013238
-0.027144
0.052206
0.027713
0.031064
-0.019499
-0.052796
-0.023920
-0.014680
-0.042985
0.002177
0.074278
0.050784
0.045006
0.006121
-0.040023
-0.012320
-0.051054
-0.065891
-0.015803
-0.002153
-0.060307
-0.040147
0.022166
-0.030117
-0.011650
0.010734
0.054767
0.004513
0.190231
0.147444
0.132628
0.037698
-0.001101
-0.011242
-0.170989
-0.245004
-0.122590
-0.042786
-0.101661
-0.082413
-0.043772
-0.097296
-0.058525
0.081522
0.048488
0.076692
-0.008085
0.005146
0.011553
-0.012512
-0.009214
-0.005563
0.019003
0.013527
0.009512
-0.051456
-0.029567
-0.004799
-0.051844
0.022290
0.044799
0.017642
0.013712
0.021104
0.024230
0.005791
-0.019445
0.013924
-0.001654
-0.033845
-0.003967
0.005025
-0.013852
-0.029800
-0.005329
0.030667
-0.064775
0.024245
0.024666
-0.019218
0.008524
-0.003395
-0.071111
-0.040606
-0.021745
-0.086666
0.010161
-0.079007
0.038569
0.108844
0.003558
0.024006
-0.035682
-0.042769
0.046602
0.006087
-0.039381
0.051116
0.016316
-0.009117
-0.004867
-0.025856
-0.000854
-0.013036
-0.038946
-0.011719
0.037566
0.016590
0.019589
0.008091
0.010090
-0.029504
0.056226
0.041404
-0.045771
0.007546
-0.009584
-0.024593
-0.000420
-0.031041
-0.011813
-0.005381
-0.070051
-0.024290
0.002238
0.022387
0.034622
-0.014544
-0.031578
0.050321
-0.014912
-0.037930
0.039809
0.054518
0.068337
-0.042914
-0.025115
0.036603
-0.022688
-0.003440
0.009259
0.008701
0.010031
-0.018940
-0.001862
0.039179
0.053517
0.000980
0.058806
0.067990
-0.026520
-0.050638
-0.091241
0.020791
-0.031361
-0.076409
-0.040705
-0.005716
-0.024160
-0.000087
0.028124
0.096538
0.046319
-0.060859
0.019957
0.055117
-0.075238
0.051305
0.022533
-0.011616
0.028887
0.032922
0.000129
-0.037850
-0.002303
-0.007085
-0.071433
-0.023934
0.029869
0.038536
0.034937
0.025242
-0.023995
0.012608
0.081687
0.013655
-0.016893
0.027132
0.048504
0.007387
-0.038995
-0.014232
0.020283
-0.044780
0.013517
0.023091
-0.017495
0.015445
0.028815
0.029225
0.016148
0.016556
-0.027072
-0.035051
0.008284
-0.014194
-0.001414
-0.013527
-0.023039
-0.097780
-0.042194
-0.015776
0.001834
-0.005319
0.025747
0.042805
0.030948
-0.018119
0.000445
0.010201
-0.048500
0.007335
0.012562
0.001735
0.033813
-0.003138
0.010664
0.016462
-0.009407
-0.006962
-0.056395
-0.007001
0.025281
-0.000088
0.017079
0.032385
0.049627
0.036476
-0.058680
-0.036649
0.009899
-0.059335
-0.059208
-0.003860
-0.011780
0.004480
0.004262
-0.005971
-0.022121
0.009061
0.010460
-0.024635
0.010704
0.002775
0.006681
0.007347
-0.000491
0.001585
0.007615
0.001844
0.013016
0.013346
0.006015
-0.003558
0.001451
-0.008122
-0.007088
0.015152
0.002096
0.009859
0.013797
0.018238
-0.003848
0.010498
-0.035892
-0.025703
-0.015749
-0.013026
-0.004870
0.002266
0.007524
0.007780
0.011518
-0.006670
-0.004818
0.005387
-0.001015
-0.017614
0.005221
0.059546
0.051759
0.033854
-0.058186
-0.313917
-0.065901
0.105708
-0.005408
0.008537
-0.131528
-0.085304
-0.091018
0.025564
0.124092
0.028507
0.091424
0.165953
0.028594
0.000954
-0.001481
-0.009283
-0.009681
0.005779
-0.005864
-0.005125
0.008847
0.007421
0.002467
-0.001956
0.008683
0.022461
0.019335
0.027369
-0.006058
-0.033144
-0.023904
0.004697
0.004730
0.006174
-0.042527
-0.085296
-0.001061
-0.001604
-0.037866
0.019010
0.014607
-0.073254
0.024293
-0.217046
0.215913
0.060360
-0.098515
0.098358
0.045293
-0.007935
-0.014292
-0.012641
-0.001396
-0.037282
-0.016286
-0.003685
-0.002400
0.008891
-0.000225
0.011416
0.000043
-0.001980
-0.011467
-0.002741
0.007671
-0.009005
0.000811
-0.004405
0.002264
-0.005651
-0.003715
-0.019488
-0.004214
-0.008813
-0.020594
-0.003591
0.012835
-0.007325
-0.018219
0.032937
0.013246
-0.039183
0.000951
0.023315
-0.046222
0.002806
0.000474
0.002247
0.005846
0.013719
0.001157
0.007508
0.008338
0.003565
-0.052510
-0.088727
-0.025571
0.036024
-0.122464
-0.014285
0.059719
0.171059
-0.019210
-0.000382
-0.000522
0.008789
0.002229
-0.006083
0.003066
-0.002273
0.004488
0.004026
-0.001561
0.001383
0.005114
0.005252
0.013510
0.010539
-0.017496
-0.013334
0.002779
0.014829
0.013400
-0.012816
0.009647
-0.010654
0.004516
0.013657
-0.008607
0.020110
0.000401
-0.000501
-0.012730
0.004728
-0.004505
-0.003670
0.008106
-0.001550
0.003550
0.015865
-0.002452
0.007533
-0.000382
-0.021476
-0.013068
-0.004839
-0.019847
-0.009400
0.001369
-0.000948
0.008492
-0.019711
-0.033529
-0.006578
-0.001278
-0.014384
-0.002037
0.014557
-0.013227
0.012511
-0.001465
-0.043200
-0.007143
-0.005209
-0.004991
-0.013940
0.021935
0.024591
0.017170
0.102521
0.137919
-0.015256
-0.123082
-0.164869
-0.026228
0.001131
-0.006056
0.007533
-0.000513
-0.002975
-0.003515
-0.028899
-0.044502
-0.007347
0.007418
0.000373
0.001464
0.004657
0.005137
0.005858
0.010335
0.009043
0.006352
0.010692
-0.014317
-0.005286
-0.017335
-0.019735
-0.000815
-0.023748
-0.036123
0.005490
0.000410
0.004339
0.005927
0.005187
0.008533
-0.001269
-0.006988
0.003658
-0.000495
-0.064173
-0.011894
-0.002917
0.061238
-0.069622
-0.082262
0.114194
-0.047631
-0.080322
-0.006460
-0.008543
-0.009295
0.019950
-0.026496
-0.010149
0.002641
-0.032682
-0.021999
0.016239
-0.000647
0.013328
0.012353
-0.013768
0.008256
0.012421
0.015848
0.009674
0.007462
-0.032441
-0.019933
-0.026621
-0.034553
-0.010153
-0.011179
-0.036902
0.006164
-0.021576
-0.003035
0.018283
0.004811
-0.018342
0.010892
0.002472
0.019439
0.000585
-0.036702
-0.028294
-0.014071
-0.001571
-0.034737
0.017372
-0.033929
-0.018933
-0.008625
-0.016581
-0.102352
-0.071391
-0.082620
-0.133119
-0.092228
-0.065575
-0.097049
-0.027060
0.044779
-0.023893
-0.022126
-0.033542
0.008465
-0.017922
-0.043967
-0.025102
-0.006362
-0.026545
-0.018961
0.029432
-0.018998
-0.010918
0.010023
0.021579
0.019871
0.011443
-0.031991
-0.001343
0.014427
0.000591
0.021839
0.008013
-0.013322
0.030431
0.005940
0.021657
0.013070
-0.004866
-0.002407
0.042292
-0.012314
0.008226
-0.008298
0.010263
0.014793
-0.072981
-0.006565
-0.037127
-0.113866
-0.043292
0.039146
-0.043537
0.013957
-0.062050
-0.171411
-0.050232
-0.031827
-0.101592
-0.084822
-0.003123
0.023397
-0.006657
0.027481
-0.000320
0.041050
-0.038414
-0.090099
-0.016821
0.009684
-0.056097
0.004674
0.007127
-0.042628
0.027939
-0.043777
-0.092262
-0.020965
-0.021483
-0.055108
-0.003162
0.005353
-0.021508
-0.025259
-0.004820
-0.027452
-0.035030
-0.028504
-0.026944
-0.005442
-0.014329
-0.002583
0.038268
0.007801
-0.038988
0.004222
0.025678
-0.001833
-0.009513
0.016202
0.029928
0.015960
-0.029413
-0.025292
0.005735
0.009607
-0.001680
-0.013177
0.027647
0.027585
0.000914
0.010483
0.027178
0.006661
0.022753
0.022588
0.011873
0.043959
-0.041866
0.015398
-0.051732
-0.165619
-0.041786
-0.001048
-0.084291
0.043249
0.021773
0.008119
0.003943
0.011090
0.049705
0.015824
0.016404
0.001978
0.017810
0.003403
-0.023026
0.010589
0.005765
-0.051428
-0.004784
0.042896
-0.015250
0.009871
-0.059471
-0.072838
0.017586
-0.042344
-0.082731
-0.042176
-0.000676
-0.019855
0.002427
0.002732
-0.041073
-0.002930
-0.017871
-0.013061
-0.009598
-0.011526
-0.012586
0.012580
-0.007246
-0.040171
0.015232
-0.068751
-0.074378
-0.027539
0.011207
-0.014022
-0.032435
-0.067292
-0.105218
-0.019979
-0.060864
-0.110583
-0.108514
-0.014231
-0.065347
-0.079548
-0.056770
0.015660
0.062854
-0.034792
-0.015491
-0.002932
-0.010491
-0.000371
-0.047033
0.049218
-0.024497
0.045091
-0.068885
-0.186532
-0.024494
0.014936
-0.094869
0.011809
0.006029
-0.023659
-0.002313
-0.106688
-0.107308
-0.047050
-0.060940
-0.048635
-0.023618
0.001700
0.020940
0.017795
-0.000992
-0.009191
0.002474
0.022130
0.031843
-0.000846
-0.008276
-0.020823
0.014304
-0.023322
-0.039983
-0.011062
0.009517
-0.006108
0.020732
0.017590
-0.004809
0.014546
0.000988
0.001240
-0.007292
0.002670
-0.001059
0.007144
0.011682
0.012996
0.044582
-0.063570
-0.077253
0.016962
0.004966
-0.062137
-0.010786
-0.031765
-0.008041
0.007884
-0.074218
-0.091661
-0.093272
-0.021205
-0.042725
-0.064203
0.018618
0.001373
0.028427
0.046396
-0.003430
0.007939
0.038184
0.024112
0.018441
0.000397
0.063612
0.041373
-0.007284
-0.046003
-0.036185
-0.051982
-0.032633
-0.036218
0.043979
0.042542
0.003150
-0.043564
0.005170
0.077648
0.022855
0.007678
-0.017874
0.000521
0.036858
0.015776
-0.003609
-0.017188
-0.000868
0.001403
0.004026
0.000115
0.001114
-0.038291
0.010289
0.033301
0.020073
-0.033509
-0.003872
-0.002235
-0.012302
-0.024941
-0.074508
-0.063087
-0.006444
0.062050
0.011022
0.015054
0.031935
0.025718
-0.038572
-0.047001
-0.043218
0.012853
0.008785
0.010989
0.036078
0.035491
0.037048
-0.025740
-0.060708
-0.052833
-0.018598
-0.005974
-0.000023
0.046112
0.055590
0.053801
-0.022091
-0.045591
-0.070842
-0.007009
0.038626
0.018119
0.014161
0.039149
0.023649
0.035277
0.027230
0.048764
-0.024568
-0.032856
-0.014126
0.011674
-0.006892
-0.003816
-0.020944
-0.028200
-0.034661
-0.036468
-0.045943
-0.066941
-0.018040
-0.011164
-0.011453
0.006252
-0.010023
0.002541
0.017121
0.008699
-0.006957
-0.006230
0.008396
-0.006107
-0.028709
-0.071940
-0.045816
-0.008760
0.034490
-0.008937
0.066840
0.060520
0.008567
0.009120
0.004916
0.021899
0.038588
-0.004742
-0.017121
0.006196
-0.034017
-0.016111
-0.017229
-0.027869
0.014253
-0.054061
-0.006675
0.012662
-0.008596
0.019902
0.005587
-0.019748
0.023944
0.027902
0.032691
0.098194
0.046686
-0.089561
-0.117722
-0.072531
0.006286
0.016433
0.012895
0.025938
0.025237
-0.030091
0.037934
0.011775
-0.012008
0.025196
0.001391
-0.001803
-0.008114
0.026507
0.004608
-0.009918
-0.007388
-0.001461
0.023839
0.016888
0.045652
0.030101
0.032997
-0.048509
-0.028504
-0.053656
-0.027717
0.010374
-0.003750
-0.008685
-0.013599
0.010047
-0.006010
-0.007288
0.009144
0.010255
-0.123854
-0.229260
-0.136963
0.039292
0.161717
0.072057
0.156260
0.176045
0.121057
0.026591
0.003269
0.031505
-0.043578
-0.047839
-0.062708
-0.008269
-0.019200
-0.014044
0.026345
0.037468
0.022200
0.009934
-0.018885
-0.042605
-0.032238
0.014008
-0.048788
0.032720
0.002489
-0.011441
-0.006638
-0.015647
0.008502
-0.029003
-0.017480
0.027016
-0.031754
-0.039687
0.006699
-0.010530
0.032938
0.034152
-0.006263
0.009591
0.001155
0.000858
-0.005875
0.001602
-0.019233
-0.011065
-0.014267
0.026720
0.034042
0.030080
-0.025506
0.003584
-0.035749
-0.048665
-0.101359
0.020634
-0.043758
-0.005352
-0.011389
-0.012444
-0.008704
-0.010746
-0.015248
0.027008
0.041335
0.005678
0.021233
0.019774
-0.040109
-0.035849
-0.030408
-0.010872
-0.011252
-0.002882
-0.020898
-0.000426
0.005334
-0.020992
-0.017251
-0.046863
-0.005576
0.014505
0.021570
-0.013686
-0.001887
-0.007934
0.007013
-0.020523
0.010798
-0.011749
-0.025770
-0.005643
0.043933
0.043445
0.002906
-0.013138
-0.064221
-0.053042
-0.021866
-0.005184
-0.010143
0.014759
0.082511
0.051390
0.083031
0.071790
0.039367
-0.032635
-0.037035
0.017218
0.004984
-0.062614
-0.074834
-0.001294
0.064883
-0.074260
0.007198
0.140264
-0.123819
0.001940
0.073180
-0.061620
0.030172
-0.000994
-0.012207
0.028253
-0.061834
-0.002176
-0.018360
-0.069912
-0.031307
-0.030232
-0.026352
0.005791
-0.030601
-0.018352
0.023489
-0.020399
0.017237
0.025630
0.006199
-0.002668
0.043717
-0.027671
0.001117
0.007143
-0.052322
0.030273
-0.021751
0.009340
0.023693
0.026233
-0.012417
0.003458
0.044693
0.012692
0.017887
-0.016246
0.030013
-0.005649
-0.009825
0.034982
-0.015208
-0.004040
0.009918
-0.043196
0.007200
0.039528
0.007262
-0.061793
0.029960
-0.012998
-0.041420
0.039723
0.000872
-0.001120
-0.018373
-0.059300
0.033679
-0.018034
-0.088688
0.046002
-0.037766
-0.041691
0.035999
0.074802
0.123410
-0.098656
0.143347
0.071882
-0.168834
0.177008
-0.002257
-0.077194
-0.013288
-0.041554
-0.025305
-0.022689
-0.087698
0.003814
-0.025571
-0.062220
0.012422
-0.004046
-0.005442
0.006593
0.001173
-0.025281
0.005201
-0.000042
-0.008580
0.020509
-0.010400
-0.027061
0.038252
-0.043195
-0.024438
0.060872
-0.073582
-0.010899
0.039620
-0.018924
0.030090
-0.000759
-0.021552
0.029132
0.022463
0.007519
0.028129
-0.002812
0.032329
0.014850
-0.021713
0.033288
-0.051099
-0.017931
0.010068
-0.064522
0.003799
-0.025699
-0.024144
-0.004992
-0.043399
0.016083
-0.006483
0.020288
0.041564
-0.027323
-0.002944
-0.011404
0.032725
-0.050390
0.006221
0.032815
-0.064391
0.029166
-0.003970
-0.027538
0.003004
0.031360
-0.033687
0.032041
0.006959
-0.050293
0.022969
0.022364
-0.021574
0.009322
-0.003708
-0.032612
0.060405
0.021965
-0.019784
0.030722
-0.008527
0.016379
0.000612
0.017852
0.028368
-0.027180
-0.003657
0.004755
-0.031894
0.013651
-0.016735
-0.047339
0.032930
-0.079233
-0.112716
0.072984
-0.062735
0.039031
0.054281
0.007573
0.026791
-0.008155
0.036128
0.044237
-0.043878
0.014587
0.007211
-0.014908
0.038546
0.058956
-0.097119
0.097954
0.084291
-0.139830
0.109707
-0.034845
-0.075012
0.016685
-0.002803
-0.020925
0.032615
-0.051554
0.025851
-0.002386
-0.082727
0.055335
0.036402
-0.010492
-0.044270
0.039420
-0.052407
-0.056597
0.019190
-0.061457
-0.026493
-0.034251
0.003076
0.041104
-0.023771
-0.000697
0.001410
-0.033397
-0.016385
0.039146
-0.040554
0.029062
0.012592
-0.022818
0.057485
-0.019582
0.014400
0.027221
0.022045
0.002184
0.004196
0.001368
0.013485
-0.114560
0.000080
0.005904
-0.067830
0.039298
0.016556
0.001402
-0.087614
0.021693
-0.024897
-0.074540
0.009572
-0.015726
-0.001817
-0.002896
-0.011146
-0.009677
-0.010510
-0.049358
0.030368
0.007839
-0.013919
0.025933
0.003317
0.009757
0.019160
-0.008315
-0.009465
-0.019215
-0.021113
-0.007080
0.002292
0.012472
0.004294
0.008392
0.004478
0.013014
-0.009194
-0.011579
0.016480
-0.003634
0.028243
0.010989
-0.077706
0.074108
-0.023842
-0.084882
0.055200
-0.061732
-0.071935
-0.077378
0.053742
0.030479
0.054944
-0.141695
0.119466
0.024360
-0.081057
0.021435
0.029401
-0.066964
-0.032236
-0.077264
0.035542
-0.067117
-0.074495
-0.015008
-0.011999
0.043994
-0.032600
0.006394
-0.013742
0.062590
-0.096163
0.002384
0.056707
0.015146
-0.016922
0.009637
0.026810
0.004651
-0.062811
-0.022222
0.015712
-0.005230
-0.024246
-0.078082
0.004669
0.071120
-0.005265
-0.146060
0.052964
0.002294
-0.049015
-0.021268
-0.013374
-0.016122
-0.039962
0.036849
-0.024972
-0.020354
0.033025
-0.020533
0.009797
-0.008877
-0.022799
0.004006
0.005120
-0.012186
-0.011464
0.059656
-0.037548
0.003361
-0.028540
0.071353
0.022579
-0.008722
-0.092906
0.068322
-0.007622
-0.058702
0.010217
-0.073603
0.019996
0.078000
0.037520
-0.123018
0.107343
0.152028
-0.052741
-0.001735
-0.012915
-0.040617
-0.041546
-0.018511
-0.008382
-0.055190
-0.006742
-0.041445
0.014661
-0.020023
0.046742
-0.028318
-0.015260
-0.007729
0.015368
-0.019938
-0.006926
0.016613
0.054127
-0.047030
-0.010935
0.030705
0.030298
-0.042862
-0.048391
0.055011
-0.002599
-0.023576
0.011681
0.029910
0.050244
-0.111296
0.032060
0.037897
-0.020549
-0.011372
0.081358
-0.099723
-0.016681
0.056996
0.023734
-0.036874
-0.025672
0.084953
-0.043478
-0.006255
-0.032356
0.025775
-0.020549
-0.002161
-0.028675
-0.010496
-0.025572
-0.025673
-0.009984
0.033907
0.011542
-0.012453
-0.089867
-0.010337
0.005248
-0.008028
-0.033570
0.017644
0.016436
-0.025574
-0.011212
0.004116
0.002001
-0.034873
-0.008984
0.022431
0.010325
-0.007326
0.032196
0.028476
-0.014083
0.022909
0.014697
0.013649
-0.009585
-0.004015
0.020287
-0.015400
-0.017064
-0.013427
0.039452
-0.003063
-0.024180
0.040482
0.000345
0.002415
-0.075236
-0.066665
0.087210
-0.015790
-0.068049
0.020045
0.038608
-0.007612
-0.056946
-0.022883
-0.040890
-0.045001
0.029910
-0.012011
-0.036393
-0.006572
-0.020986
0.035044
-0.000965
0.072441
-0.111021
0.047222
0.030619
-0.065488
0.007200
0.007199
0.045701
-0.044939
-0.052143
0.126239
-0.049376
0.015917
-0.011157
0.045212
-0.087495
0.106413
-0.034841
-0.056082
0.122538
0.010997
-0.013210
-0.049316
0.097136
0.034028
-0.009495
-0.040100
0.013134
0.006871
-0.016309
-0.053284
0.033449
0.008447
0.012052
0.002697
0.020762
-0.027942
0.038530
-0.008253
-0.007324
0.033026
-0.000512
0.015070
-0.004389
-0.037225
0.022535
0.091048
0.010469
-0.028649
0.006720
0.027204
-0.117218
-0.042755
0.050317
0.008646
-0.089504
0.048155
0.065748
-0.033729
-0.051960
-0.055854
0.040855
-0.033386
0.005583
0.041257
-0.033448
0.015905
-0.033273
0.035593
0.044247
-0.051782
0.018491
0.004617
0.011314
-0.007035
-0.045425
0.047830
-0.023494
0.063421
-0.035587
-0.052769
0.011028
0.016399
-0.086265
0.015812
0.026032
-0.062466
0.042010
-0.078746
-0.015952
-0.021501
0.005448
-0.019025
-0.030584
0.002129
0.000100
-0.003277
-0.008839
0.027397
-0.011451
-0.026341
0.033409
-0.017993
-0.007884
0.045173
-0.000892
0.000052
0.028505
0.009938
0.020535
0.005832
0.004170
0.024527
0.031041
-0.004392
-0.020439
0.000601
-0.039324
-0.020710
0.005740
-0.012718
-0.024314
-0.001273
0.032685
0.016418
-0.015150
0.012927
-0.016472
0.013351
0.005513
-0.013790
0.010149
0.102339
0.012528
-0.005052
0.059414
0.024478
0.004299
0.033587
0.002223
-0.017901
-0.012296
-0.018426
-0.018190
-0.000808
-0.004578
0.007004
0.012769
0.020051
0.019584
-0.000521
0.006412
0.007311
0.002706
0.004129
0.007447
-0.010073
-0.000896
0.002934
-0.001595
0.002186
-0.013776
-0.027178
-0.035264
-0.037051
-0.048557
-0.029882
-0.008640
0.082085
0.030600
0.056772
0.161174
0.104669
0.117962
0.075319
0.010011
0.040370
0.003561
-0.034706
-0.038797
-0.025120
-0.069028
-0.062784
0.006263
-0.015494
-0.000563
0.016070
-0.010030
0.015991
0.000165
-0.013918
0.005839
0.006831
0.001198
0.005802
-0.008914
-0.014469
0.020351
-0.016143
-0.038235
0.023788
-0.010016
-0.032063
0.029496
0.007507
-0.013842
0.018621
0.027216
0.024667
-0.006341
0.007868
-0.001192
-0.004861
0.013501
-0.005094
0.010021
-0.007562
-0.030895
-0.030773
-0.020937
-0.009411
0.000622
-0.010195
-0.000808
0.004269
-0.007604
-0.014179
-0.013800
0.020111
-0.011498
-0.009535
-0.029934
-0.092317
-0.073133
-0.076387
-0.108066
-0.034723
-0.101857
-0.046476
-0.011419
0.032878
-0.000602
-0.013122
-0.012790
-0.022088
0.024760
0.007051
0.008325
0.005831
0.020655
0.001031
0.003006
0.016125
0.016826
-0.000186
0.025065
0.018495
-0.020114
0.001714
-0.042092
0.008942
0.002430
-0.006692
0.004177
0.011473
-0.040508
0.022329
-0.004642
-0.048342
-0.016240
-0.001239
0.029155
-0.027458
0.024867
0.018347
-0.034512
0.010655
-0.008950
0.013983
0.014265
0.014957
0.002882
0.015041
-0.001991
0.001396
0.015344
-0.000995
0.015040
-0.007027
-0.029180
0.026969
0.015109
-0.028020
0.010271
-0.040109
-0.045721
-0.018192
0.002550
-0.023924
-0.005028
0.030778
-0.020608
0.008203
-0.028323
0.010521
0.026644
-0.025652
0.014430
-0.000350
0.022593
0.040580
0.024198
0.009420
-0.014536
0.004523
-0.002096
-0.047513
-0.007805
0.002284
0.003995
0.015603
-0.035383
-0.014513
0.000600
-0.025062
0.016973
0.038495
-0.007791
0.014244
-0.012110
-0.065859
-0.077915
-0.020150
-0.090152
-0.087444
-0.043909
-0.022078
-0.034074
-0.044190
0.021069
0.032485
0.031606
-0.005230
0.005173
-0.014151
0.001923
-0.001723
-0.006393
-0.093361
-0.228332
-0.162848
-0.131834
-0.225340
-0.171618
-0.092793
-0.228916
-0.181784
0.007538
0.003481
-0.010332
0.011048
-0.034974
-0.029718
0.025270
-0.002301
-0.014367
0.033745
0.028761
0.006632
0.039023
0.023884
0.029976
0.018018
0.017326
0.008199
0.029878
-0.017337
-0.007214
0.013990
0.009135
-0.007018
0.023741
0.006330
-0.025370
-0.009193
-0.008674
0.003531
-0.024067
-0.018925
0.003070
-0.003348
0.022862
-0.006750
0.002029
0.005901
-0.006639
-0.000480
0.002404
0.003535
-0.002457
-0.000569
-0.009494
0.006178
0.012915
0.004583
0.002102
0.010309
0.001702
-0.007716
-0.001872
0.009583
0.006936
-0.024704
-0.009406
-0.008945
-0.005029
-0.008748
-0.004823
-0.009498
0.001121
-0.002212
0.017670
0.014785
-0.008828
-0.029597
-0.025604
-0.001380
-0.013366
0.002174
-0.008550
0.474683
0.322374
-0.099108
0.098962
0.015465
-0.155074
-0.169217
-0.186144
0.009541
-0.014959
0.015125
0.009694
-0.039723
0.026567
-0.027464
-0.019136
-0.009169
0.008374
-0.006430
-0.005559
0.009389
0.003702
0.010255
-0.001153
-0.007376
0.010010
0.052024
-0.044913
0.050007
0.020188
-0.064090
0.001100
-0.000095
-0.006697
0.053504
0.006707
-0.043061
-0.040101
-0.001311
-0.046295
-0.025194
0.034331
0.022584
0.051905
0.032523
0.151746
-0.214715
0.071083
0.076842
-0.134914
0.005498
-0.083264
0.063514
0.002076
-0.088541
-0.111092
0.022299
-0.029340
-0.074105
-0.002216
-0.002555
0.026628
0.005748
-0.006999
-0.005270
0.003354
0.002577
-0.002649
0.001143
0.003355
0.000524
-0.011462
-0.010151
-0.019289
-0.006069
0.003272
-0.013931
-0.002874
0.000776
0.000649
-0.035534
-0.030654
-0.001634
-0.040202
-0.063713
-0.042848
-0.017381
-0.038031
-0.043095
0.000546
0.000896
0.008725
0.001546
0.003633
0.000899
0.000458
0.000668
0.005006
-0.032849
0.112404
0.108858
0.007081
-0.177294
-0.108682
-0.022045
-0.037049
-0.016194
0.010447
0.002788
-0.012527
-0.007706
-0.006345
0.008414
-0.004732
-0.000618
-0.002254
0.016664
0.009817
0.026799
-0.008724
-0.026010
0.009454
-0.002000
0.006232
0.021581
-0.004311
-0.033097
0.001208
-0.006531
-0.020853
0.011000
-0.013170
-0.004095
0.004236
0.000559
0.007775
0.006797
-0.002298
0.012999
0.006829
-0.000812
0.007179
0.000841
0.007614
0.002720
-0.003038
-0.016859
-0.016976
-0.030924
-0.003112
-0.011233
-0.007208
0.021142
-0.036232
0.007575
0.002393
-0.025913
0.017572
0.020359
0.021472
0.014220
-0.011853
0.006035
-0.000168
-0.021165
-0.031508
-0.006633
0.002034
-0.009687
-0.013580
-0.021095
-0.152430
-0.032457
-0.032990
0.134290
0.088593
0.017272
-0.019774
-0.015278
-0.009565
0.002065
0.007333
-0.016778
-0.013987
-0.019588
0.003768
0.001074
-0.000548
0.000676
0.000596
0.010182
0.007378
0.002138
0.004882
-0.000599
0.003835
-0.006382
-0.026266
0.015793
-0.028537
-0.013583
0.012813
-0.022031
0.001544
-0.016169
-0.006356
0.003663
0.010166
0.009734
-0.000862
0.004956
-0.002204
-0.001454
-0.007484
-0.007477
-0.048784
0.002267
0.054286
-0.024758
0.083278
0.098085
0.023690
0.034266
-0.020987
-0.010611
-0.011700
0.009696
-0.012161
-0.020359
0.001538
-0.003308
-0.015068
-0.008183
-0.005880
-0.005289
-0.006193
-0.005522
0.001354
0.005229
0.005448
0.005830
0.003049
0.005696
-0.025419
0.025632
-0.010449
-0.063882
0.008091
0.015089
-0.027523
-0.028224
0.005378
0.008640
-0.003799
-0.015646
-0.009079
0.005940
-0.026432
-0.010927
0.003721
0.012379
0.022371
0.018630
0.001881
0.007000
0.035870
-0.010586
-0.010166
0.013983
-0.022990
-0.035330
-0.008229
0.009036
-0.055287
-0.018566
0.015299
0.010405
-0.012845
-0.029610
0.006068
0.010209
-0.000515
-0.036990
-0.039540
0.023864
0.003633
-0.004436
-0.067993
-0.025758
0.025416
-0.076608
-0.069229
0.028931
-0.009930
0.031301
0.108922
0.026415
-0.004468
-0.044608
0.034597
-0.023940
-0.037702
0.033445
-0.014045
-0.057591
-0.012799
-0.012854
0.020352
-0.009857
-0.022518
-0.018079
0.011296
0.024751
-0.006988
0.027900
0.029011
0.058908
-0.052835
-0.057475
0.013651
0.006018
-0.040171
0.009609
0.003774
-0.041141
-0.039745
0.027160
0.020141
-0.034034
0.016128
0.043262
0.031298
-0.095528
-0.004864
0.103335
-0.082873
-0.380281
-0.165078
0.061528
0.003528
-0.111071
0.035221
-0.012596
-0.051784
-0.004600
0.051948
-0.050714
-0.042933
-0.032222
-0.002796
-0.010098
0.004933
0.007749
0.003609
-0.007847
-0.030992
0.003146
0.011481
-0.007702
0.023019
0.005988
-0.019716
-0.006083
0.028635
-0.000300
-0.019367
-0.000772
0.003277
-0.005161
0.002750
0.013358
-0.031439
-0.050497
-0.026621
-0.016078
-0.059801
-0.049677
0.007156
0.009833
0.015118
0.002806
0.018397
-0.000725
-0.001983
0.014652
0.000244
0.019447
-0.028751
0.014199
0.018391
-0.094317
0.071272
0.035951
-0.050306
-0.016409
0.001766
0.017266
-0.008348
0.012619
0.016889
0.029594
0.004021
0.001085
-0.005430
-0.001071
-0.006681
0.042414
0.002179
-0.067759
-0.010266
0.013874
0.000809
0.004323
-0.014266
0.027917
0.034799
-0.051620
-0.041751
0.011414
-0.008136
-0.021680
-0.003220
0.008575
0.003243
0.002209
-0.000497
0.019039
0.016273
-0.008175
0.008057
-0.000663
-0.006473
0.022302
0.024968
-0.004368
0.008477
0.005969
-0.012869
-0.015291
-0.000417
-0.000213
-0.003145
-0.023794
-0.011967
-0.033297
-0.022187
0.011467
0.020238
0.047552
0.005045
-0.026280
0.023408
0.000916
-0.119408
-0.033628
0.037024
0.000335
0.009360
0.087294
0.004641
-0.050837
-0.013916
0.096151
-0.010238
-0.021792
-0.024927
0.086466
-0.008906
-0.004727
0.000040
-0.014253
-0.017347
-0.010751
-0.002910
-0.009984
-0.018263
-0.005844
0.004586
0.009620
-0.011597
0.014875
-0.007152
-0.022146
-0.007874
-0.005640
-0.012627
0.002554
0.004941
0.015090
-0.037012
-0.021041
-0.002468
0.010227
-0.039646
-0.000127
0.008040
0.005040
0.010628
0.015704
0.021208
0.001989
-0.006153
-0.006913
-0.070510
-0.172393
-0.068146
0.085226
-0.016475
-0.119684
0.114117
0.134755
0.042922
0.015142
0.019991
-0.008206
0.012351
0.068828
0.029000
-0.012575
-0.004222
0.021551
0.002232
-0.008076
0.003702
0.022599
0.027941
0.014656
0.008826
0.004912
0.001193
0.007252
-0.014573
-0.021757
0.018688
0.013985
-0.072367
-0.032835
-0.018970
-0.019155
-0.020415
0.000054
-0.006136
-0.007456
0.015614
-0.023941
-0.015063
-0.005571
-0.010592
0.006538
-0.033518
-0.020162
0.007825
0.074143
0.076581
-0.005863
-0.020284
-0.054796
-0.031698
-0.017675
0.013797
0.024683
-0.009872
0.024342
0.033393
0.017596
0.038259
0.042858
0.037888
0.027444
-0.065834
-0.002854
0.036907
-0.023485
0.001748
-0.041730
-0.056281
-0.053647
-0.040604
0.028320
0.030291
0.009038
0.004726
0.009085
0.021994
0.019147
0.016315
0.034331
-0.010491
-0.024391
-0.025305
-0.008680
0.005243
0.001814
0.006930
-0.006485
0.009148
-0.006829
0.002436
0.038682
-0.021641
-0.028066
-0.007045
-0.033208
0.006243
-0.027216
0.001623
0.104179
0.041450
-0.002288
0.005001
0.017605
-0.092000
-0.067758
-0.040722
-0.024907
-0.084342
-0.070366
-0.037486
0.036162
0.013455
-0.014475
-0.008586
0.011773
0.006177
-0.013839
-0.018265
0.008154
0.011299
0.012589
-0.017040
-0.073084
-0.056186
0.060338
0.017727
-0.043243
0.012799
0.121068
0.077608
-0.010566
-0.002153
-0.020275
-0.051642
-0.020983
-0.022901
-0.019103
-0.012339
-0.048151
-0.000004
-0.002971
0.001663
-0.010673
-0.095072
-0.064446
-0.014815
-0.010427
-0.012973
-0.007793
-0.015157
-0.003678
-0.068180
-0.088325
-0.013177
0.039131
0.073902
0.003429
-0.004157
-0.000667
0.018537
0.007632
0.023923
0.029707
0.001768
-0.004466
0.011971
-0.023525
-0.029368
-0.034204
0.025511
0.044109
0.027355
0.019962
-0.001686
0.011127
0.029396
0.001916
0.011365
-0.041870
-0.049013
0.045189
0.014121
0.010995
0.001014
0.020534
0.016189
-0.002401
-0.114701
-0.159186
-0.012866
-0.005207
-0.010819
-0.009427
0.090916
0.060959
0.047814
0.042889
0.120786
0.058053
-0.113436
-0.212071
-0.069578
-0.009297
-0.012423
0.010188
0.032782
0.090462
0.014734
0.028998
0.035162
0.015798
-0.071930
0.005992
-0.018704
-0.093975
0.020835
-0.039988
0.003343
0.022771
-0.028058
-0.040799
-0.051676
-0.074663
0.111148
0.109895
-0.011748
-0.022900
-0.004705
-0.000362
-0.022958
-0.006039
-0.005476
0.000400
0.011837
-0.030658
0.023701
0.034010
-0.003793
-0.021438
-0.018948
-0.028525
0.017965
0.028888
-0.008457
0.003291
-0.014431
0.022486
-0.012147
-0.004530
0.003730
0.026411
0.006456
-0.047543
-0.038793
-0.018995
0.006039
0.012101
0.001208
0.006406
0.011023
-0.035648
-0.010531
0.002606
0.023029
-0.001871
-0.019051
-0.012916
-0.036588
-0.081946
-0.054735
-0.068883
0.013916
-0.010741
-0.009097
0.012714
0.014679
0.001124
0.011361
0.028755
-0.028081
0.000150
0.008904
0.023207
0.008727
0.003719
-0.020976
-0.010185
-0.027745
-0.028815
0.001041
0.031837
0.033572
-0.060539
-0.032029
-0.025845
-0.012494
-0.042234
-0.042624
0.028365
0.020500
0.039369
-0.017715
-0.001048
-0.014360
0.045158
-0.004526
-0.026177
-0.008482
0.098031
0.056027
0.022276
-0.012054
-0.052311
-0.000746
0.015987
-0.016983
-0.024747
-0.002761
-0.013747
-0.005290
0.019076
0.004148
0.009782
0.008116
0.006415
0.030747
0.016931
-0.009265
-0.012241
-0.011889
-0.006835
0.005744
-0.016850
0.003612
-0.008091
0.008656
-0.003330
0.012641
-0.000023
-0.004847
-0.030265
-0.078014
-0.019374
0.017308
-0.032894
-0.009893
-0.038704
-0.132836
-0.077908
-0.141296
-0.248516
-0.092433
-0.100990
-0.102305
-0.022884
-0.036055
-0.056566
-0.024887
0.001509
0.005766
0.001650
0.030221
0.049642
0.021770
0.010632
-0.012009
0.004579
0.006386
-0.044091
-0.012752
0.036464
0.003361
0.020930
0.003435
0.010721
-0.001192
0.023263
0.014645
0.028104
-0.009745
-0.010795
-0.006124
-0.007621
0.024210
0.019736
0.048012
0.079959
0.040441
-0.002186
-0.019843
-0.002067
-0.004132
-0.067132
-0.045194
0.011980
-0.071839
-0.068618
-0.025163
-0.008653
-0.047365
0.008820
-0.001362
0.022480
-0.007944
-0.007264
-0.006131
-0.013244
-0.009172
-0.007353
-0.026045
-0.076758
-0.047443
0.012129
-0.009485
0.002063
-0.003750
0.045450
0.033354
0.014030
0.042045
0.002914
0.034415
0.073044
0.028575
0.018214
0.052806
0.023363
-0.005882
0.019383
0.003427
0.036267
0.072760
0.018602
0.021304
0.047698
-0.009201
0.003680
-0.016681
0.004119
0.009652
-0.046108
0.022287
-0.005597
-0.028882
0.000365
0.007050
0.010492
-0.000659
0.004249
0.010778
0.006090
-0.004067
0.004262
0.007993
0.017160
0.003073
-0.002209
-0.002642
-0.001262
-0.009511
-0.031827
-0.001851
-0.005727
-0.000065
0.001476
-0.006213
-0.002038
0.009596
0.023492
-0.009021
0.022934
0.025004
-0.003256
0.016595
0.007140
-0.006608
-0.027997
0.018148
-0.009983
-0.007826
-0.011520
-0.014433
-0.028970
-0.002910
0.031148
-0.039233
0.020989
-0.009301
-0.034524
-0.022740
-0.014456
-0.031082
-0.027581
-0.016258
-0.053384
-0.020206
0.002676
-0.023268
-0.001358
-0.013330
-0.010290
0.018071
-0.039595
-0.075149
-0.056212
-0.015223
-0.013819
-0.019715
0.006523
0.001109
-0.018016
-0.003049
-0.065002
-0.047829
0.001480
-0.024592
0.009060
-0.055894
-0.057933
-0.007217
-0.088680
-0.187817
-0.067928
-0.014154
-0.070643
-0.042674
-0.003285
0.004717
0.001826
-0.008141
-0.024325
-0.003715
-0.014854
-0.001905
-0.026588
-0.017563
-0.052421
-0.000436
-0.043101
-0.057196
0.016195
0.020042
0.028301
0.008235
-0.004627
0.009270
0.019062
0.009012
-0.004666
-0.002208
0.006639
0.001763
-0.011784
0.013143
0.006028
0.002848
-0.025474
-0.101617
0.009926
0.013854
-0.052321
0.007283
0.004354
0.024547
-0.002776
0.014072
-0.000610
-0.019428
0.005049
0.013287
0.019353
0.038986
0.014611
0.009533
-0.018406
-0.038772
0.010648
-0.013271
-0.033082
-0.006786
0.031826
0.034153
0.025935
0.015788
0.186627
0.044700
0.019914
0.095541
0.025844
-0.030577
0.008227
0.011339
0.005204
-0.003021
0.014683
0.006511
-0.016871
-0.008138
0.031569
-0.070121
0.057667
0.014903
-0.029103
0.042461
-0.009264
0.038570
0.004358
0.035154
-0.095280
0.034452
-0.030377
0.010186
0.036864
-0.011731
0.053331
0.022796
-0.025533
0.095448
-0.014363
0.040075
-0.007907
-0.035132
0.009996
-0.033298
-0.021410
-0.007005
0.099198
-0.009206
0.048143
0.065303
-0.066497
0.052744
-0.075911
-0.014228
0.102594
0.116377
-0.059138
0.077823
0.008957
-0.056009
0.033831
-0.080797
-0.017829
-0.037896
-0.002755
0.003436
-0.009255
-0.001205
0.000188
-0.017077
0.011797
0.017814
-0.017577
-0.027564
-0.002179
-0.023125
0.013581
0.017826
-0.012624
0.014957
0.001759
0.007818
0.061652
0.055537
-0.032824
0.068799
-0.037904
0.029758
0.001324
-0.027962
0.092923
-0.210748
0.046217
-0.060319
-0.033566
0.114655
-0.100130
0.122431
0.019795
-0.048178
-0.079628
-0.037595
-0.004749
0.033129
-0.019630
-0.002466
-0.029364
-0.017883
-0.012158
0.001301
0.015534
0.006088
0.004946
-0.009827
0.008041
-0.019602
-0.009742
0.021078
0.043963
-0.023787
0.020603
-0.002802
-0.029124
0.030955
-0.021778
-0.047001
0.016511
0.037725
0.013397
0.026808
0.030317
-0.037159
0.010082
-0.022669
-0.033709
-0.034601
-0.141595
-0.008616
-0.073087
-0.014439
0.045372
-0.035448
0.050581
0.025819
-0.072259
-0.085906
0.078485
-0.022996
-0.002397
0.040143
-0.008251
0.018108
0.014426
0.038271
0.130979
-0.009675
0.065882
0.082207
-0.028809
0.050684
-0.056037
-0.053840
-0.025969
0.057983
0.030581
0.027032
0.051256
-0.062636
0.026978
-0.056521
-0.033361
-0.028479
0.038226
0.005164
0.008295
-0.000602
-0.047632
-0.010642
-0.079510
-0.050653
-0.047198
0.010467
-0.006447
0.015535
0.000289
-0.007622
0.001313
0.005770
-0.004564
0.059388
0.047112
-0.049342
0.054509
-0.029882
0.029683
0.020675
-0.059292
-0.015477
-0.018955
-0.031706
0.022060
-0.004159
-0.012617
0.024285
-0.016798
0.010546
0.006772
0.039928
-0.050625
0.070823
-0.000471
-0.015383
0.008476
-0.061014
0.035413
0.005018
-0.015741
-0.012289
0.012671
-0.014287
0.035786
-0.017675
0.009086
-0.007992
0.005165
-0.064347
-0.219987
0.036997
-0.149387
-0.028306
0.052037
-0.035528
0.088837
0.046842
-0.022312
0.060359
-0.011765
0.036127
0.021861
-0.045915
0.028033
-0.045424
-0.032018
0.046467
0.028570
-0.025029
0.051411
-0.050964
0.007598
-0.005143
-0.017652
-0.000591
-0.058702
-0.094841
-0.002299
-0.070004
-0.052088
0.011494
-0.003877
0.044304
0.032352
-0.081918
-0.101853
0.011590
-0.048109
0.004709
0.035872
-0.012203
0.013481
0.014176
-0.018296
-0.027772
-0.015131
-0.029005
0.010823
-0.044750
0.017068
0.013057
-0.000566
-0.004560
-0.028908
0.006381
-0.001340
-0.021462
0.008051
0.010073
0.020954
-0.000791
-0.062417
0.058330
0.000495
-0.038449
0.014713
-0.003275
-0.000152
0.008332
-0.011490
0.022076
-0.175751
0.047157
-0.017870
-0.057824
0.046261
-0.041545
0.044620
0.063650
-0.024565
-0.027985
0.002094
0.014820
-0.121456
-0.041952
-0.028444
-0.086604
0.021495
0.062905
0.026150
0.016244
0.064095
-0.011540
0.005666
0.072080
0.007045
0.042794
0.019028
-0.006895
0.003977
-0.024568
-0.013739
-0.005275
0.006840
0.016966
-0.043865
-0.023955
-0.030020
-0.037919
-0.029701
-0.082699
-0.025196
-0.036971
0.020045
0.009220
-0.096151
-0.063622
-0.023452
-0.043545
0.038860
-0.045783
-0.013040
-0.054272
0.001446
-0.031111
-0.032394
-0.026121
0.003877
-0.000228
-0.008838
-0.024942
-0.016589
0.016727
-0.006567
0.015856
0.008883
0.011135
-0.010623
-0.003033
-0.008113
-0.043241
-0.006720
-0.012180
0.042317
-0.006322
0.019265
0.014636
-0.057302
0.012525
-0.019903
0.014964
0.003674
0.007835
0.042979
-0.074183
-0.044592
0.016379
-0.005096
0.023737
0.033366
0.022011
0.037165
0.013529
0.054625
0.100031
0.048383
0.026244
0.052140
0.045390
-0.008612
0.007826
-0.014931
0.013583
-0.047034
0.008372
0.019734
-0.012204
0.005150
0.000633
-0.004497
-0.058666
0.032416
-0.038298
-0.050797
-0.014229
-0.061933
-0.018422
-0.010296
0.014323
0.019073
0.028328
-0.051513
0.026067
0.014513
0.065251
0.015259
0.017011
0.026116
0.010658
0.023327
0.003126
-0.007620
0.007467
-0.034491
0.034071
0.015886
0.002143
-0.054473
0.021043
0.016222
-0.023820
0.067887
0.041775
-0.035047
0.022249
0.000512
0.018141
0.000846
0.040172
0.042544
0.020581
0.053243
-0.010980
0.008740
-0.034901
-0.029711
-0.032356
0.057608
-0.005213
0.002321
-0.001625
-0.011582
0.021312
0.039902
0.039821
0.020918
0.045100
0.038534
0.007698
0.017545
0.021067
-0.001062
0.001894
0.000674
0.033278
0.022070
0.036232
-0.004478
-0.003217
0.031755
0.001518
0.010497
0.021840
0.003102
-0.038619
0.010245
0.003867
0.024948
0.015562
0.037814
-0.013958
0.013132
0.068775
0.028996
0.042970
0.028552
0.008031
0.030580
-0.004415
-0.008096
-0.013043
-0.002606
-0.018645
-0.021993
0.065836
0.006625
-0.006742
-0.026201
-0.020572
-0.033564
-0.008988
-0.049715
-0.050381
-0.011158
-0.011930
-0.022508
-0.015294
-0.022499
-0.008373
0.058651
-0.111218
-0.005391
0.041610
-0.030081
0.034094
-0.059052
0.004085
-0.001172
0.070229
-0.021219
0.013647
-0.000974
0.005317
-0.037166
-0.010838
-0.005425
-0.033896
0.004441
-0.038966
-0.045421
-0.032177
-0.077561
0.019798
0.011150
0.022480
-0.006226
0.027426
-0.009835
0.011046
0.016212
0.018557
0.053121
-0.014012
-0.007415
0.015635
0.022965
-0.013261
0.001574
-0.002692
0.005449
0.003780
0.027119
0.042660
0.029036
0.046765
0.021594
0.029842
0.024802
0.041291
0.057081
0.012325
0.014453
-0.036792
0.028591
0.028221
-0.010812
0.019085
-0.007799
-0.016419
-0.029040
0.032088
-0.037280
0.041316
-0.073474
-0.076465
-0.017376
-0.082354
-0.000370
-0.042621
-0.062860
-0.050822
0.008701
-0.038118
-0.015807
0.013789
-0.008762
0.013088
0.030176
0.027153
0.058996
0.078581
-0.028329
0.043377
0.039214
0.000474
0.015163
0.031751
-0.023248
0.006408
0.016561
0.034048
0.013675
-0.046618
-0.010348
0.032041
0.020041
0.038734
0.031268
0.022826
0.028161
-0.021786
-0.013043
0.049394
0.009901
-0.043640
0.030779
0.017104
-0.017962
0.070757
0.021798
0.007421
0.012794
-0.025602
-0.027342
0.005836
0.009709
0.017959
0.012465
0.019514
-0.011363
0.020301
-0.017997
-0.018289
0.040029
0.007935
-0.001489
0.050177
0.011266
-0.022790
-0.005702
0.004036
0.028718
0.033756
-0.028389
0.046847
0.067205
-0.013477
-0.023675
0.006572
-0.046595
-0.033445
0.026538
0.031347
-0.033719
0.028477
0.004845
-0.040595
0.025073
-0.025946
0.024873
-0.075711
0.070291
0.064205
-0.117724
0.048556
0.090935
-0.008998
0.074502
0.070681
0.098309
0.065551
-0.024728
0.002381
0.026658
-0.063489
-0.045240
-0.006641
-0.004138
0.039586
-0.024067
0.006428
0.069543
0.018128
-0.001492
-0.015154
0.015461
-0.003089
0.053699
0.029191
-0.031863
0.075071
0.009186
-0.050054
0.014609
-0.032957
-0.008511
0.009080
0.018892
0.039867
0.034980
0.057744
0.047607
0.051034
0.047334
0.024738
0.053787
0.004164
0.039744
0.016813
0.035090
-0.013201
0.033224
0.026119
-0.015659
0.003038
-0.033778
0.043324
0.145536
0.017941
-0.018696
